{"learner":{"attributes":{"scikit_learn":"{\"_estimator_type\": \"classifier\"}"},"feature_names":["Pregnancies","Glucose","BloodPressure","SkinThickness","Insulin","BMI","DiabetesPedigreeFunction","Age"],"feature_types":["int","int","int","int","int","float","float","int"],"gradient_booster":{"model":{"gbtree_model_param":{"num_parallel_tree":"1","num_trees":"50"},"iteration_indptr":[0,1,2,3,4,5,6,7,8,9,10,11,12,13,14,15,16,17,18,19,20,21,22,23,24,25,26,27,28,29,30,31,32,33,34,35,36,37,38,39,40,41,42,43,44,45,46,47,48,49,50],"tree_info":[0,0,0,0,0,0,0,0,0,0,0,0,0,0,0,0,0,0,0,0,0,0,0,0,0,0,0,0,0,0,0,0,0,0,0,0,0,0,0,0,0,0,0,0,0,0,0,0,0,0],"trees":[{"base_weights":[4.538352E-2,-7.5389034E-1,1.0542346E0,-1.7956105E-1,-3.510596E-1,1.4542243E-1,1.3433198E0,-9.6153843E-1,2.4864864E-1,-4.084084E-2,8.552299E-2,9.399293E-1,1.5820494E-1,-1.1978642E0,3.8631747E-3,-6.520439E-1,9.7170836E-1,5.5421686E-1,1.5339829E-1,-1.4211804E-1,-5.261289E-2,-1.0195525E-1,-3.135085E-3,5.990558E-2,1.2610531E-1,-3.2015063E-3,9.185693E-2],"categories":[],"categories_nodes":[],"categories_segments":[],"categories_sizes":[],"default_left":[0,0,0,0,0,0,0,0,0,0,0,0,0,0,0,0,0,0,0,0,0,0,0,0,0,0,0],"id":0,"left_children":[1,3,5,-1,7,9,11,13,15,-1,-1,17,-1,19,-1,21,23,25,-1,-1,-1,-1,-1,-1,-1,-1,-1],"loss_changes":[1.1382944E2,3.5751675E1,1.619426E1,0E0,2.2040016E1,7.496752E0,4.743782E0,7.088396E0,2.0713943E1,0E0,0E0,5.324377E0,0E0,3.8971825E0,0E0,3.754746E0,1.3001709E0,4.11755E0,0E0,0E0,0E0,0E0,0E0,0E0,0E0,0E0,0E0],"parents":[2147483647,0,0,1,1,2,2,4,4,5,5,6,6,7,7,8,8,11,11,13,13,15,15,16,16,17,17],"right_children":[2,4,6,-1,8,10,12,14,16,-1,-1,18,-1,20,-1,22,24,26,-1,-1,-1,-1,-1,-1,-1,-1,-1],"split_conditions":[1.28E2,2.7E1,3E1,-1.7956105E-1,3E1,1.52E2,4.34E-1,8E1,1.08E2,-4.084084E-2,8.552299E-2,1.66E2,1.5820494E-1,3.2E1,3.8631747E-3,3.56E1,5.59E-1,3.1E1,1.5339829E-1,-1.4211804E-1,-5.261289E-2,-1.0195525E-1,-3.135085E-3,5.990558E-2,1.2610531E-1,-3.2015063E-3,9.185693E-2],"split_indices":[1,5,5,0,7,1,6,2,1,0,0,1,0,3,0,5,6,7,0,0,0,0,0,0,0,0,0],"split_type":[0,0,0,0,0,0,0,0,0,0,0,0,0,0,0,0,0,0,0,0,0,0,0,0,0,0,0],"sum_hessian":[1.3918095E2,7.779762E1,6.1383335E1,1.925E1,5.854762E1,1.517619E1,4.620714E1,2.8714285E1,2.9833334E1,8.866667E0,6.3095236E0,2.2583334E1,2.362381E1,2.3078571E1,5.6357145E0,1.3328571E1,1.6504763E1,1.56E1,6.9833336E0,1.4692857E1,8.385715E0,7.4428573E0,5.8857145E0,9.983334E0,6.5214286E0,6.866667E0,8.733334E0],"tree_param":{"num_deleted":"0","num_feature":"8","num_nodes":"27","size_leaf_vector":"1"}},{"base_weights":[1.3341992E-1,-6.0490644E-1,8.793012E-1,-1.5260305E-1,-2.9603893E-1,-3.4012878E-1,1.2397134E0,-6.545402E-1,7.218264E-1,-1.0280965E-1,3.749589E-2,6.364415E-1,1.4474087E0,-1.1272223E0,-1.6901681E-1,3.2271195E-2,1.0468478E-1,1.7106436E-1,1.3212141E-1,8.035941E-2,1.4678611E-1,-1.3378943E0,-3.5523757E-2,-5.713594E-1,4.4258825E-2,-1.4675812E-2,4.4537485E-2,-7.78307E-2,-1.4598317E-1,2.1737063E-2,-1.3117741E-1],"categories":[],"categories_nodes":[],"categories_segments":[],"categories_sizes":[],"default_left":[0,0,0,0,0,0,0,0,0,0,0,0,0,0,0,0,0,0,0,0,0,0,0,0,0,0,0,0,0,0,0],"id":1,"left_children":[1,3,5,-1,7,9,11,13,15,-1,-1,17,19,21,23,-1,-1,25,-1,-1,-1,27,-1,29,-1,-1,-1,-1,-1,-1,-1],"loss_changes":[8.100525E1,2.2635656E1,3.254882E1,0E0,2.1610603E1,1.0065651E1,6.1754456E0,9.7613735E0,1.9085169E0,0E0,0E0,5.5412803E0,1.3118515E0,2.945631E0,6.0574794E0,0E0,0E0,1.1774707E0,0E0,0E0,0E0,5.0190353E-1,0E0,9.682253E0,0E0,0E0,0E0,0E0,0E0,0E0,0E0],"parents":[2147483647,0,0,1,1,2,2,4,4,5,5,6,6,7,7,8,8,11,11,12,12,13,13,14,14,17,17,21,21,23,23],"right_children":[2,4,6,-1,8,10,12,14,16,-1,-1,18,20,22,24,-1,-1,26,-1,-1,-1,28,-1,30,-1,-1,-1,-1,-1,-1,-1],"split_conditions":[1.24E2,2.64E1,3E1,-1.5260305E-1,6.6E-1,1.46E2,3.05E-1,1.04E2,1.08E2,-1.0280965E-1,3.749589E-2,1.59E2,2.5E1,4.1E1,3.1E1,3.2271195E-2,1.0468478E-1,1.41E2,1.3212141E-1,8.035941E-2,1.4678611E-1,2.51E-1,-3.5523757E-2,6.5E1,4.4258825E-2,-1.4675812E-2,4.4537485E-2,-7.78307E-2,-1.4598317E-1,2.1737063E-2,-1.3117741E-1],"split_indices":[1,5,5,0,6,1,6,1,1,0,0,1,7,7,7,0,0,1,0,0,0,6,0,4,0,0,0,0,0,0,0],"split_type":[0,0,0,0,0,0,0,0,0,0,0,0,0,0,0,0,0,0,0,0,0,0,0,0,0,0,0,0,0,0,0],"sum_hessian":[1.451282E2,7.302845E1,7.2099754E1,1.610082E1,5.6927628E1,1.6461082E1,5.5638668E1,4.23637E1,1.4563926E1,7.9313784E0,8.529704E0,1.5290418E1,4.034825E1,2.0796028E1,2.1567675E1,8.293275E0,6.2706513E0,1.0255466E1,5.0349507E0,7.488166E0,3.2860085E1,1.5630555E1,5.1654725E0,1.3287423E1,8.280251E0,5.1469884E0,5.108478E0,5.9312577E0,9.699298E0,7.072425E0,6.2149982E0],"tree_param":{"num_deleted":"0","num_feature":"8","num_nodes":"31","size_leaf_vector":"1"}},{"base_weights":[1.4349383E-2,-7.50689E-1,5.9050447E-1,-1.4441757E0,-3.037349E-1,-5.176318E-1,8.2912207E-1,-1.5589432E-1,-6.3521564E-2,-6.241666E-1,4.8577863E-1,-1.1986436E-1,7.147002E-2,4.154546E-1,1.0947883E0,-1.1969933E-1,-1.0108708E0,5.2820295E-3,8.072761E-2,1.1732072E-1,1.1713062E-1,1.1602422E0,5.3151347E-2,-6.2217277E-2,3.315234E-2,-4.5807805E-2,-1.2162302E-1,9.834129E-2,-2.5668374E-1,1.3636611E-1,9.8645276E-1,3.130478E-2,-7.1782336E-2,7.448571E-1,1.4305168E-1,1.11177094E-1,4.2375002E-2],"categories":[],"categories_nodes":[],"categories_segments":[],"categories_sizes":[],"default_left":[0,0,0,0,0,0,0,0,0,0,0,0,0,0,0,0,0,0,0,0,0,0,0,0,0,0,0,0,0,0,0,0,0,0,0,0,0],"id":2,"left_children":[1,3,5,7,9,11,13,-1,-1,15,17,-1,-1,19,21,23,25,-1,-1,27,-1,29,-1,-1,-1,-1,-1,-1,31,-1,33,-1,-1,35,-1,-1,-1],"loss_changes":[6.1434433E1,1.8122215E1,2.1447628E1,2.5861855E0,9.835647E0,1.5038307E1,6.775223E0,0E0,0E0,5.1928988E0,1.7667043E0,0E0,0E0,6.576952E0,7.2076035E-1,3.5184674E0,1.6010637E0,0E0,0E0,7.5880094E0,0E0,2.6079178E-1,0E0,0E0,0E0,0E0,0E0,0E0,4.954104E0,0E0,1.9797077E0,0E0,0E0,1.8634596E0,0E0,0E0,0E0],"parents":[2147483647,0,0,1,1,2,2,3,3,4,4,5,5,6,6,9,9,10,10,13,13,14,14,15,15,16,16,19,19,21,21,28,28,30,30,33,33],"right_children":[2,4,6,8,10,12,14,-1,-1,16,18,-1,-1,20,22,24,26,-1,-1,28,-1,30,-1,-1,-1,-1,-1,-1,32,-1,34,-1,-1,36,-1,-1,-1],"split_conditions":[1.18E2,2.96E1,2.77E1,3.2E1,6.3E-1,1.51E2,3.1E1,-1.5589432E-1,-6.3521564E-2,2.6E1,6.6E1,-1.1986436E-1,7.147002E-2,1.58E2,5.4E1,4E0,3.43E1,5.2820295E-3,8.072761E-2,7E0,1.1713062E-1,2.61E-1,5.3151347E-2,-6.2217277E-2,3.315234E-2,-4.5807805E-2,-1.2162302E-1,9.834129E-2,7E1,1.3636611E-1,4.09E1,3.130478E-2,-7.1782336E-2,3.09E1,1.4305168E-1,1.11177094E-1,4.2375002E-2],"split_indices":[1,5,5,7,6,1,7,0,0,3,4,0,0,1,7,0,5,0,0,3,0,6,0,0,0,0,0,0,2,0,5,0,0,5,0,0,0],"split_type":[0,0,0,0,0,0,0,0,0,0,0,0,0,0,0,0,0,0,0,0,0,0,0,0,0,0,0,0,0,0,0,0,0,0,0,0,0],"sum_hessian":[1.3737071E2,5.888211E1,7.848861E1,2.2202276E1,3.6679832E1,1.369942E1,6.4789185E1,1.6616594E1,5.5856814E0,2.6239647E1,1.0440187E1,8.620096E0,5.0793242E0,2.633966E1,3.8449528E1,1.1954359E1,1.4285287E1,5.354264E0,5.085923E0,2.0185274E1,6.154385E0,3.318576E1,5.263765E0,5.3863935E0,6.567966E0,5.876748E0,8.408539E0,5.302327E0,1.4882948E1,9.83169E0,2.335407E1,7.020958E0,7.86199E0,1.7678404E1,5.675668E0,5.978112E0,1.1700292E1],"tree_param":{"num_deleted":"0","num_feature":"8","num_nodes":"37","size_leaf_vector":"1"}},{"base_weights":[-4.3618444E-2,-4.5283493E-1,1.067477E0,-9.088195E-1,1.19714156E-1,4.6715688E-2,1.2567284E0,-1.2780557E0,-3.0077115E-1,-1.0723749E-1,5.026741E-1,1.2905443E-1,6.88114E-2,-1.3741398E-1,-4.8438456E-2,-7.6339924E-1,3.760757E-2,-1.04220256E-1,8.023229E-1,-1.0497815E-2,-1.0794853E-1,3.193397E-1,1.2023002E0,-3.7232705E-3,7.632456E-2,1.3335761E-1,7.305501E-2],"categories":[],"categories_nodes":[],"categories_segments":[],"categories_sizes":[],"default_left":[0,0,0,0,0,0,0,0,0,0,0,0,0,0,0,0,0,0,0,0,0,0,0,0,0,0,0],"id":3,"left_children":[1,3,5,7,9,-1,11,13,15,-1,17,-1,-1,-1,-1,19,-1,-1,21,-1,-1,23,25,-1,-1,-1,-1],"loss_changes":[6.3193024E1,2.6607594E1,3.4352722E0,1.2327E1,2.2625206E1,0E0,5.969124E-1,3.9807892E0,7.6439686E0,0E0,1.8139034E1,0E0,0E0,0E0,0E0,3.3394718E0,0E0,0E0,5.5644035E0,0E0,0E0,2.7166867E0,3.8983154E-1,0E0,0E0,0E0,0E0],"parents":[2147483647,0,0,1,1,2,2,3,3,4,4,6,6,7,7,8,8,10,10,15,15,18,18,21,21,22,22],"right_children":[2,4,6,8,10,-1,12,14,16,-1,18,-1,-1,-1,-1,20,-1,-1,22,-1,-1,24,26,-1,-1,-1,-1],"split_conditions":[1.48E2,3E1,3.05E-1,4.95E-1,1E2,4.6715688E-2,2.5E2,1.29E2,3.1E1,-1.0723749E-1,2.68E1,1.2905443E-1,6.88114E-2,-1.3741398E-1,-4.8438456E-2,1.4E1,3.760757E-2,-1.04220256E-1,3.13E-1,-1.0497815E-2,-1.0794853E-1,8.4E1,1.21E2,-3.7232705E-3,7.632456E-2,1.3335761E-1,7.305501E-2],"split_indices":[1,7,6,6,1,0,4,1,3,0,5,0,0,0,0,3,0,0,6,0,0,4,1,0,0,0,0],"split_type":[0,0,0,0,0,0,0,0,0,0,0,0,0,0,0,0,0,0,0,0,0,0,0,0,0,0,0],"sum_hessian":[1.369208E2,1.0049934E2,3.6421467E1,5.561756E1,4.4881775E1,9.941986E0,2.6479483E1,3.391864E1,2.1698921E1,1.0033043E1,3.4848732E1,2.0610052E1,5.8694305E0,2.6816864E1,7.1017756E0,1.3001447E1,8.697475E0,5.0573845E0,2.979135E1,5.25851E0,7.7429366E0,1.4310016E1,1.5481333E1,8.782987E0,5.527029E0,8.856388E0,6.624945E0],"tree_param":{"num_deleted":"0","num_feature":"8","num_nodes":"27","size_leaf_vector":"1"}},{"base_weights":[7.02203E-2,-8.0925125E-1,5.963877E-1,-1.0543844E0,9.918741E-2,-5.2135646E-1,8.166529E-1,-1.3605129E0,-4.0069792E-1,-4.3377202E-2,5.9344366E-2,-1.2322778E-1,7.7789575E-2,4.881276E-1,1.0586176E0,-1.3692136E-1,-7.5059064E-2,-1.1215537E-1,2.2563715E-2,1.4342494E-1,1.1992974E-1,1.3502815E-1,8.6992073E-1,6.638076E-1,-3.7430817E-1,1.1009437E-1,4.6398407E-1,2.2088032E-2,9.978029E-2,2.875458E-2,-1.0009259E-1,-1.5357288E-2,9.87897E-2],"categories":[],"categories_nodes":[],"categories_segments":[],"categories_sizes":[],"default_left":[0,0,0,0,0,0,0,0,0,0,0,0,0,0,0,0,0,0,0,0,0,0,0,0,0,0,0,0,0,0,0,0,0],"id":4,"left_children":[1,3,5,7,9,11,13,15,17,-1,-1,-1,-1,19,21,-1,-1,-1,-1,23,-1,-1,25,27,29,-1,31,-1,-1,-1,-1,-1,-1],"loss_changes":[6.57014E1,1.1947357E1,2.2277687E1,7.8527412E0,3.898415E0,1.7113585E1,5.408165E0,2.6982498E-1,7.7331676E0,0E0,0E0,0E0,0E0,8.836305E0,1.701931E0,0E0,0E0,0E0,0E0,6.8098965E0,0E0,0E0,3.1141167E0,1.8643894E0,6.3005147E0,0E0,5.4552927E0,0E0,0E0,0E0,0E0,0E0,0E0],"parents":[2147483647,0,0,1,1,2,2,3,3,4,4,5,5,6,6,7,7,8,8,13,13,14,14,19,19,22,22,23,23,24,24,26,26],"right_children":[2,4,6,8,10,12,14,16,18,-1,-1,-1,-1,20,22,-1,-1,-1,-1,24,-1,-1,26,28,30,-1,32,-1,-1,-1,-1,-1,-1],"split_conditions":[1.12E2,6.6E-1,2.71E1,3.1E1,7.3E1,1.52E2,3.1E1,3.67E1,9.3E1,-4.3377202E-2,5.9344366E-2,-1.2322778E-1,7.7789575E-2,1.58E2,4E0,-1.3692136E-1,-7.5059064E-2,-1.1215537E-1,2.2563715E-2,3.37E1,1.1992974E-1,1.3502815E-1,2.7E1,2.6E1,2.6E1,1.1009437E-1,3.68E1,2.2088032E-2,9.978029E-2,2.875458E-2,-1.0009259E-1,-1.5357288E-2,9.87897E-2],"split_indices":[1,6,5,7,4,1,7,5,1,0,0,0,0,1,0,0,0,0,0,5,0,0,3,7,7,0,5,0,0,0,0,0,0],"split_type":[0,0,0,0,0,0,0,0,0,0,0,0,0,0,0,0,0,0,0,0,0,0,0,0,0,0,0,0,0,0,0,0,0],"sum_hessian":[1.3993762E2,5.2180916E1,8.775671E1,4.0965992E1,1.1214922E1,1.4221621E1,7.353509E1,2.7163662E1,1.3802332E1,5.5205917E0,5.6943297E0,9.00597E0,5.21565E0,3.2468555E1,4.106653E1,2.211316E1,5.0505023E0,5.804784E0,7.997548E0,2.3353962E1,9.1145935E0,1.1626009E1,2.9440521E1,1.1506467E1,1.1847495E1,1.5948242E1,1.3492278E1,6.254417E0,5.2520504E0,6.232255E0,5.61524E0,6.8444076E0,6.64787E0],"tree_param":{"num_deleted":"0","num_feature":"8","num_nodes":"33","size_leaf_vector":"1"}},{"base_weights":[-8.947319E-3,-1.1478721E0,2.2616649E-1,-1.2552877E-1,-3.7958566E-2,-6.523521E-1,5.1486087E-1,-8.854173E-1,2.424195E-2,-8.893504E-2,8.065919E-1,-1.03207216E-1,-2.4937578E-2,-3.966335E-1,9.745355E-2,-1.9838037E-2,9.571636E-1,-9.9481694E-2,-1.1077022E-1,1.0262121E0,2.6855081E-2,3.8551185E-2,-5.2290667E-2,3.823138E-2,1.1015799E0,1.12646155E-1,6.3940585E-2],"categories":[],"categories_nodes":[],"categories_segments":[],"categories_sizes":[],"default_left":[0,0,0,0,0,0,0,0,0,0,0,0,0,0,0,0,0,0,0,0,0,0,0,0,0,0,0],"id":5,"left_children":[1,3,5,-1,-1,7,9,11,-1,13,15,-1,-1,17,-1,-1,19,-1,21,23,-1,-1,-1,-1,25,-1,-1],"loss_changes":[3.821462E1,2.7673645E0,3.0345354E1,0E0,0E0,6.521035E0,1.5857288E1,2.787033E0,0E0,1.0787885E1,9.465572E0,0E0,0E0,4.451561E0,0E0,0E0,2.1655083E0,0E0,4.3797064E0,1.7828293E0,0E0,0E0,0E0,0E0,8.123131E-1,0E0,0E0],"parents":[2147483647,0,0,1,1,2,2,5,5,6,6,7,7,9,9,10,10,13,13,16,16,18,18,19,19,24,24],"right_children":[2,4,6,-1,-1,8,10,12,-1,14,16,-1,-1,18,-1,-1,20,-1,22,24,-1,-1,-1,-1,26,-1,-1],"split_conditions":[2.65E1,1.31E2,1.04E2,-1.2552877E-1,-3.7958566E-2,6.6E-1,2.8E1,4.2E1,2.424195E-2,1.59E2,2.2E-1,-1.03207216E-1,-2.4937578E-2,3.13E1,9.745355E-2,-1.9838037E-2,1.057E0,-9.9481694E-2,6.6E1,2.54E-1,2.6855081E-2,3.8551185E-2,-5.2290667E-2,3.823138E-2,8.5E1,1.12646155E-1,6.3940585E-2],"split_indices":[5,1,1,0,0,6,7,7,0,1,6,0,0,5,0,0,6,0,2,6,0,0,0,0,2,0,0],"split_type":[0,0,0,0,0,0,0,0,0,0,0,0,0,0,0,0,0,0,0,0,0,0,0,0,0,0,0],"sum_hessian":[1.4074117E2,2.3418142E1,1.1732301E2,1.8211308E1,5.2068353E0,2.8706705E1,8.861631E1,2.2869268E1,5.8374376E0,2.9094517E1,5.9521793E1,1.6578136E1,6.291132E0,2.3334484E1,5.7600327E0,7.6274114E0,5.1894382E1,6.2626967E0,1.7071787E1,4.6587986E1,5.306397E0,7.8969574E0,9.17483E0,5.7283883E0,4.0859596E1,3.214869E1,8.71091E0],"tree_param":{"num_deleted":"0","num_feature":"8","num_nodes":"27","size_leaf_vector":"1"}},{"base_weights":[4.920388E-2,-4.0344074E-1,7.3448664E-1,-1.1962006E0,-9.2945874E-2,-1.617358E-2,8.777428E-1,-8.877414E-1,-1.4286983E-1,-1.2268506E-1,1.2764658E-1,1.0054759E0,2.033799E-2,-1.185634E-1,-4.963398E-2,-8.717436E-2,2.6124457E-1,6.810972E-1,1.20085336E-1,-3.709236E-1,5.3238475E-1,2.6728898E-1,1.084015E-1,-1.00231476E-1,1.1175024E-2,8.028237E-1,1.6142878E-1,6.7852214E-2,-2.115053E-2,1.0228015E-1,1.7962389E-2,-3.1091038E-2,7.685253E-2],"categories":[],"categories_nodes":[],"categories_segments":[],"categories_sizes":[],"default_left":[0,0,0,0,0,0,0,0,0,0,0,0,0,0,0,0,0,0,0,0,0,0,0,0,0,0,0,0,0,0,0,0,0],"id":6,"left_children":[1,3,5,7,9,-1,11,13,-1,-1,15,17,-1,-1,-1,-1,19,21,-1,23,25,27,-1,-1,-1,29,31,-1,-1,-1,-1,-1,-1],"loss_changes":[4.2112156E1,2.0030891E1,7.154112E0,8.974495E-1,1.6097925E1,0E0,3.7406883E0,1.21E0,0E0,0E0,7.4749656E0,2.4938202E0,0E0,0E0,0E0,0E0,8.167987E0,3.497117E0,0E0,5.0389223E0,3.1763306E0,2.7635174E0,0E0,0E0,0E0,3.021822E0,5.115271E0,0E0,0E0,0E0,0E0,0E0,0E0],"parents":[2147483647,0,0,1,1,2,2,3,3,4,4,6,6,7,7,10,10,11,11,16,16,17,17,19,19,20,20,21,21,25,25,26,26],"right_children":[2,4,6,8,10,-1,12,14,-1,-1,16,18,-1,-1,-1,-1,20,22,-1,24,26,28,-1,-1,-1,30,32,-1,-1,-1,-1,-1,-1],"split_conditions":[1.32E2,2.5E1,2.5E1,1.08E2,2.61E1,-1.617358E-2,5.4E1,9.3E1,-1.4286983E-1,-1.2268506E-1,1.97E-1,1.58E2,2.033799E-2,-1.185634E-1,-4.963398E-2,-8.717436E-2,1E2,4E1,1.20085336E-1,2.5E1,7.5E1,7.5E1,1.084015E-1,-1.00231476E-1,1.1175024E-2,3.1E1,3.4E1,6.7852214E-2,-2.115053E-2,1.0228015E-1,1.7962389E-2,-3.1091038E-2,7.685253E-2],"split_indices":[1,7,7,1,5,0,7,1,0,0,6,1,0,0,0,0,1,7,0,3,2,2,0,0,0,3,3,0,0,0,0,0,0],"split_type":[0,0,0,0,0,0,0,0,0,0,0,0,0,0,0,0,0,0,0,0,0,0,0,0,0,0,0,0,0,0,0,0,0],"sum_hessian":[1.3380736E2,8.082916E1,5.2978195E1,2.1945372E1,5.888379E1,7.2083077E0,4.5769886E1,1.3041389E1,8.903982E0,8.348768E0,5.053502E1,3.7936512E1,7.833375E0,5.2483845E0,7.7930045E0,5.034296E0,4.5500725E1,1.8697374E1,1.9239138E1,1.3547194E1,3.1953531E1,1.0743688E1,7.953687E0,5.1338687E0,8.413324E0,1.780726E1,1.4146272E1,5.359275E0,5.3844123E0,1.1692735E1,6.1145253E0,8.3563795E0,5.789892E0],"tree_param":{"num_deleted":"0","num_feature":"8","num_nodes":"33","size_leaf_vector":"1"}},{"base_weights":[-6.982463E-2,-5.5845946E-1,5.3668123E-1,-1.1117251E0,-2.873576E-1,1.3050006E-1,9.718426E-1,-1.19090274E-1,-4.638439E-2,-5.6204754E-1,8.574079E-2,-5.444196E-2,4.381924E-1,1.0607777E-1,5.5988565E-2,-1.7041618E-1,-8.3543533E-1,-3.0184457E-1,9.6115105E-2,8.755268E-2,1.4457539E-1,-8.307347E-2,5.5716056E-2,-1.2108474E-1,1.5225301E-2,-1.04263164E-1,2.2752184E-2,-3.1553216E-2,6.51308E-2],"categories":[],"categories_nodes":[],"categories_segments":[],"categories_sizes":[],"default_left":[0,0,0,0,0,0,0,0,0,0,0,0,0,0,0,0,0,0,0,0,0,0,0,0,0,0,0,0,0],"id":7,"left_children":[1,3,5,7,9,11,13,-1,-1,15,17,-1,19,-1,-1,21,23,25,-1,-1,27,-1,-1,-1,-1,-1,-1,-1,-1],"loss_changes":[3.88661E1,1.0563919E1,1.0226303E1,1.5583439E0,5.177275E0,7.0937853E0,9.47258E-1,0E0,0E0,2.9579754E0,8.286124E0,0E0,3.0927234E0,0E0,0E0,7.615394E0,7.6835127E0,7.3936815E0,0E0,0E0,4.2038116E0,0E0,0E0,0E0,0E0,0E0,0E0,0E0,0E0],"parents":[2147483647,0,0,1,1,2,2,3,3,4,4,5,5,6,6,9,9,10,10,12,12,15,15,16,16,17,17,20,20],"right_children":[2,4,6,8,10,12,14,-1,-1,16,18,-1,20,-1,-1,22,24,26,-1,-1,28,-1,-1,-1,-1,-1,-1,-1,-1],"split_conditions":[1.28E2,2.88E1,1.55E2,6.65E-1,3.1E1,3E1,8E1,-1.19090274E-1,-4.638439E-2,3.7E1,1.2E2,-5.444196E-2,7.2E1,1.0607777E-1,5.5988565E-2,1.12E2,6.3E-1,2.93E-1,9.6115105E-2,8.755268E-2,4.1E1,-8.307347E-2,5.5716056E-2,-1.2108474E-1,1.5225301E-2,-1.04263164E-1,2.2752184E-2,-3.1553216E-2,6.51308E-2],"split_indices":[1,5,1,6,7,5,2,0,0,4,4,0,2,0,0,1,6,6,0,0,7,0,0,0,0,0,0,0,0],"split_type":[0,0,0,0,0,0,0,0,0,0,0,0,0,0,0,0,0,0,0,0,0,0,0,0,0,0,0,0,0],"sum_hessian":[1.291336E2,7.156007E1,5.7573547E1,2.2513556E1,4.904651E1,3.0450668E1,2.7122877E1,1.731749E1,5.196066E0,2.795701E1,2.10895E1,8.969403E0,2.1481266E1,1.7980417E1,9.142461E0,1.2160417E1,1.5796594E1,1.5372423E1,5.7170773E0,7.2513666E0,1.4229898E1,6.2107577E0,5.949659E0,1.0710415E1,5.0861783E0,5.7865663E0,9.585856E0,7.782341E0,6.4475574E0],"tree_param":{"num_deleted":"0","num_feature":"8","num_nodes":"29","size_leaf_vector":"1"}},{"base_weights":[-6.2152658E-2,-2.9299396E-1,9.808873E-2,-1.2158596E-1,-5.753355E-2,-5.8513397E-1,2.333183E-1,-9.647235E-2,-3.1711298E-1,-8.760231E-2,5.157732E-1,1.1335644E-2,-6.8596786E-1,4.5839784E-1,-6.477759E-1,-1.4858747E-2,6.793503E-1,-2.9825905E-2,-8.88255E-2,1.0772816E-1,-4.2937896E-3,-1.14296034E-1,2.541391E-2,8.355569E-1,9.79425E-3,4.491544E-2,1.0212155E-1],"categories":[],"categories_nodes":[],"categories_segments":[],"categories_sizes":[],"default_left":[0,0,0,0,0,0,0,0,0,0,0,0,0,0,0,0,0,0,0,0,0,0,0,0,0,0,0],"id":8,"left_children":[1,3,-1,-1,5,7,9,-1,11,13,15,-1,17,19,21,-1,23,-1,-1,-1,-1,-1,-1,25,-1,-1,-1],"loss_changes":[3.286513E1,2.4910612E1,0E0,0E0,1.3536965E1,3.3386297E0,5.212695E0,0E0,3.4443655E0,8.72067E0,3.461338E0,0E0,7.8253555E-1,5.0476856E0,7.5494075E0,0E0,2.134181E0,0E0,0E0,0E0,0E0,0E0,0E0,1.191659E0,0E0,0E0,0E0],"parents":[2147483647,0,0,1,1,4,4,5,5,6,6,8,8,9,9,10,10,12,12,13,13,14,14,16,16,23,23],"right_children":[2,4,-1,-1,6,8,10,-1,12,14,16,-1,18,20,22,-1,24,-1,-1,-1,-1,-1,-1,26,-1,-1,-1],"split_conditions":[1.6E2,2.7E1,9.808873E-2,-1.2158596E-1,1.08E2,2.6E1,3.1E1,-9.647235E-2,3.3E1,3.83E-1,2.99E1,1.1335644E-2,2.6E1,1.3E1,3.3E1,-1.4858747E-2,8.5E1,-2.9825905E-2,-8.88255E-2,1.0772816E-1,-4.2937896E-3,-1.14296034E-1,2.541391E-2,6E0,9.79425E-3,4.491544E-2,1.0212155E-1],"split_indices":[1,5,0,0,1,7,7,0,7,6,5,0,3,3,3,0,2,0,0,0,0,0,0,0,0,0,0],"split_type":[0,0,0,0,0,0,0,0,0,0,0,0,0,0,0,0,0,0,0,0,0,0,0,0,0,0,0],"sum_hessian":[1.271438E2,1.0570889E2,2.1434902E1,1.9383175E1,8.632572E1,3.031785E1,5.600787E1,1.0466778E1,1.9851072E1,2.6541595E1,2.9466274E1,9.393383E0,1.0457688E1,1.3532845E1,1.3008752E1,5.768356E0,2.3697918E1,5.174013E0,5.2836757E0,5.211881E0,8.320964E0,7.864582E0,5.14417E0,1.8284697E1,5.413221E0,8.608723E0,9.675975E0],"tree_param":{"num_deleted":"0","num_feature":"8","num_nodes":"27","size_leaf_vector":"1"}},{"base_weights":[5.5247145E-3,-6.920203E-1,3.4028637E-1,-9.1562283E-1,8.460936E-3,-6.532544E-2,4.8149264E-1,-1.1347781E0,-1.3681132E-2,3.5114554E-1,1.0979968E0,-5.6805175E-2,-1.1809332E-1,4.7734714E-1,-3.9985985E-2,1.2696448E-1,6.437116E-2,3.107874E-1,1.19445555E-1,4.8810083E-2,6.330754E-1,3.683704E-2,-8.3364345E-2,1.492322E-2,9.962731E-2],"categories":[],"categories_nodes":[],"categories_segments":[],"categories_sizes":[],"default_left":[0,0,0,0,0,0,0,0,0,0,0,0,0,0,0,0,0,0,0,0,0,0,0,0,0],"id":9,"left_children":[1,3,5,7,-1,-1,9,11,-1,13,15,-1,-1,17,-1,-1,-1,19,-1,21,23,-1,-1,-1,-1],"loss_changes":[2.9383217E1,7.2140236E0,1.2721527E1,5.2105083E0,0E0,0E0,5.671339E0,7.6660156E-1,0E0,6.427372E0,3.848858E-1,0E0,0E0,6.850645E0,0E0,0E0,0E0,3.9303393E0,0E0,8.914564E0,4.031975E0,0E0,0E0,0E0,0E0],"parents":[2147483647,0,0,1,1,2,2,3,3,6,6,7,7,9,9,10,10,13,13,17,17,19,19,20,20],"right_children":[2,4,6,8,-1,-1,10,12,-1,14,16,-1,-1,18,-1,-1,-1,20,-1,22,24,-1,-1,-1,-1],"split_conditions":[1.09E2,6.6E-1,2.64E1,4.2E1,8.460936E-3,-6.532544E-2,4.18E1,5.8E1,-1.3681132E-2,3.79E1,4.85E-1,-5.6805175E-2,-1.1809332E-1,8.51E-1,-3.9985985E-2,1.2696448E-1,6.437116E-2,1.43E2,1.19445555E-1,4.04E-1,3.42E-1,3.683704E-2,-8.3364345E-2,1.492322E-2,9.962731E-2],"split_indices":[1,6,5,7,0,0,5,2,0,5,6,0,0,6,0,0,0,1,0,6,6,0,0,0,0],"split_type":[0,0,0,0,0,0,0,0,0,0,0,0,0,0,0,0,0,0,0,0,0,0,0,0,0],"sum_hessian":[1.2382364E2,3.9808083E1,8.401556E1,3.08197E1,8.988381E0,9.643114E0,7.4372444E1,2.3628893E1,7.1908064E0,6.2687943E1,1.1684499E1,5.315031E0,1.8313862E1,5.4234627E1,8.453316E0,5.9415016E0,5.742997E0,4.5916252E1,8.318373E0,2.5963127E1,1.9953125E1,1.9427582E1,6.5355463E0,1.0030564E1,9.922561E0],"tree_param":{"num_deleted":"0","num_feature":"8","num_nodes":"25","size_leaf_vector":"1"}},{"base_weights":[5.8963392E-2,-5.8748055E-1,2.670531E-1,-8.5011137E-1,1.4421961E-2,-4.1515768E-1,4.2005873E-1,-1.0237937E-1,-3.2913476E-2,-9.8138E-2,1.1697687E-2,5.510075E-2,6.2173676E-1,-5.7544697E-2,6.35216E-2,-6.0233343E-2,3.5401323E-1,2.0269114E-1,7.926307E-1,-1.7734304E-2,5.8566535E-1,5.0455704E-2,-2.6327867E-2,1.05969876E-1,5.661844E-1,8.87051E-2,2.6441272E-2,-7.6185055E-3,9.379854E-2],"categories":[],"categories_nodes":[],"categories_segments":[],"categories_sizes":[],"default_left":[0,0,0,0,0,0,0,0,0,0,0,0,0,0,0,0,0,0,0,0,0,0,0,0,0,0,0,0,0],"id":10,"left_children":[1,3,5,7,-1,9,11,-1,-1,-1,13,15,17,-1,-1,-1,19,21,23,-1,25,-1,-1,-1,27,-1,-1,-1,-1],"loss_changes":[1.734775E1,6.2401094E0,1.0337376E1,2.3622112E0,0E0,4.896552E0,5.855837E0,0E0,0E0,0E0,5.2847447E0,6.351886E0,3.523405E0,0E0,0E0,0E0,2.7842147E0,2.7422032E0,2.064846E0,0E0,1.3765345E0,0E0,0E0,0E0,6.5623736E0,0E0,0E0,0E0,0E0],"parents":[2147483647,0,0,1,1,2,2,3,3,5,5,6,6,10,10,11,11,12,12,16,16,17,17,18,18,20,20,24,24],"right_children":[2,4,6,8,-1,10,12,-1,-1,-1,14,16,18,-1,-1,-1,20,22,24,-1,26,-1,-1,-1,28,-1,-1,-1,-1],"split_conditions":[1.04E2,8.7E1,2.75E1,5E0,1.4421961E-2,2.8E1,3.17E-1,-1.0237937E-1,-3.2913476E-2,-9.8138E-2,1.3E1,2.8E1,1.24E2,-5.7544697E-2,6.35216E-2,-6.0233343E-2,1.98E-1,1.17E2,1.43E2,-1.7734304E-2,1.24E2,5.0455704E-2,-2.6327867E-2,1.05969876E-1,1.56E2,8.87051E-2,2.6441272E-2,-7.6185055E-3,9.379854E-2],"split_indices":[1,4,5,0,0,7,6,0,0,0,3,7,1,0,0,0,6,1,1,0,1,0,0,0,1,0,0,0,0],"split_type":[0,0,0,0,0,0,0,0,0,0,0,0,0,0,0,0,0,0,0,0,0,0,0,0,0,0,0,0,0],"sum_hessian":[1.2679567E2,3.043237E1,9.6363304E1,2.2352705E1,8.079665E0,1.7339188E1,7.902411E1,1.4452427E1,7.900278E0,6.4608254E0,1.0878363E1,2.8579557E1,5.0444557E1,5.648681E0,5.229682E0,8.271946E0,2.0307611E1,1.5246058E1,3.5198498E1,6.1390367E0,1.4168574E1,8.963734E0,6.2823243E0,1.2728228E1,2.247027E1,5.608962E0,8.559612E0,9.257156E0,1.3213113E1],"tree_param":{"num_deleted":"0","num_feature":"8","num_nodes":"29","size_leaf_vector":"1"}},{"base_weights":[-2.2806253E-2,-6.400704E-1,1.8174125E-1,-8.975976E-1,1.7712364E-2,-2.1449389E-1,4.1567785E-1,-1.0076891E0,-3.7445676E-2,-6.7051524E-1,3.551632E-1,2.9837963E-1,8.687909E-2,-6.81906E-2,-1.1650589E-1,-1.0337379E-1,-3.2987472E-1,1.1224563E-1,-1.8556893E-1,1.9514951E-1,8.345148E-2,-6.579413E-2,1.5739715E-2,-5.0295986E-2,1.8247392E-2,4.3347284E-1,7.860289E-3,6.4293796E-1,-3.4271675E-4,-6.814161E-2,2.6306728E-1,8.151237E-2,2.3601977E-2,5.828399E-2,-3.6512975E-2],"categories":[],"categories_nodes":[],"categories_segments":[],"categories_sizes":[],"default_left":[0,0,0,0,0,0,0,0,0,0,0,0,0,0,0,0,0,0,0,0,0,0,0,0,0,0,0,0,0,0,0,0,0,0,0],"id":11,"left_children":[1,3,5,7,-1,9,11,13,-1,15,17,19,-1,-1,-1,-1,21,-1,23,25,-1,-1,-1,-1,-1,27,29,31,-1,-1,33,-1,-1,-1,-1],"loss_changes":[1.6232817E1,6.9868603E0,9.048355E0,9.560852E-1,0E0,9.730351E0,3.3400154E0,3.6758232E-1,0E0,2.6202831E0,7.835547E0,2.9122243E0,0E0,0E0,0E0,0E0,2.4611683E0,0E0,1.563571E0,1.9912163E0,0E0,0E0,0E0,0E0,0E0,1.8010633E0,5.037041E0,9.3390465E-1,0E0,0E0,4.8445272E0,0E0,0E0,0E0,0E0],"parents":[2147483647,0,0,1,1,2,2,3,3,5,5,6,6,7,7,9,9,10,10,11,11,16,16,18,18,19,19,25,25,26,26,27,27,30,30],"right_children":[2,4,6,8,-1,10,12,14,-1,16,18,20,-1,-1,-1,-1,22,-1,24,26,-1,-1,-1,-1,-1,28,30,32,-1,-1,34,-1,-1,-1,-1],"split_conditions":[1.04E2,6.26E-1,2.9E1,7.7E1,1.7712364E-2,4.97E-1,1.67E2,2.99E-1,-3.7445676E-2,3.09E1,7.5E1,4.07E1,8.687909E-2,-6.81906E-2,-1.1650589E-1,-1.0337379E-1,1.32E2,1.1224563E-1,1.66E2,7.4E1,8.345148E-2,-6.579413E-2,1.5739715E-2,-5.0295986E-2,1.8247392E-2,4.66E-1,2.78E1,3.12E1,-3.4271675E-4,-6.814161E-2,3.46E1,8.151237E-2,2.3601977E-2,5.828399E-2,-3.6512975E-2],"split_indices":[1,6,7,4,0,6,1,6,0,5,4,5,0,0,0,0,1,0,4,2,0,0,0,0,0,6,5,5,0,0,5,0,0,0,0],"split_type":[0,0,0,0,0,0,0,0,0,0,0,0,0,0,0,0,0,0,0,0,0,0,0,0,0,0,0,0,0,0,0,0,0,0,0],"sum_hessian":[1.2664542E2,3.0991873E1,9.565355E1,2.3572338E1,7.419534E0,3.554001E1,6.0113537E1,1.8497627E1,5.0747104E0,1.9640425E1,1.5899585E1,5.0059723E1,1.0053816E1,1.0021202E1,8.476426E0,7.76336E0,1.1877065E1,5.785563E0,1.0114021E1,4.3687046E1,6.3726764E0,6.5993447E0,5.2777195E0,5.0667152E0,5.0473065E0,1.86459E1,2.5041145E1,1.2286924E1,6.3589754E0,6.0172486E0,1.9023895E1,7.1092157E0,5.1777086E0,1.2345823E1,6.6780725E0],"tree_param":{"num_deleted":"0","num_feature":"8","num_nodes":"35","size_leaf_vector":"1"}},{"base_weights":[-7.32658E-2,-2.5841933E-1,6.793981E-1,-6.552248E-1,6.212533E-2,4.6270233E-1,1.0215524E-1,-1.1857066E-1,-3.347399E-1,-9.736012E-2,2.4276121E-1,-8.23881E-3,7.1431816E-1,-7.776609E-2,-6.066692E-2,-5.4479998E-2,4.3267384E-1,8.9084275E-2,3.643479E-2,4.5030095E-2,-4.9797738E-1,-2.7179774E-2,6.0098153E-1,2.0705586E-2,-1.0700779E-1,7.4936754E-1,-7.590094E-4,8.627258E-2,2.6108468E-2],"categories":[],"categories_nodes":[],"categories_segments":[],"categories_sizes":[],"default_left":[0,0,0,0,0,0,0,0,0,0,0,0,0,0,0,0,0,0,0,0,0,0,0,0,0,0,0,0,0],"id":12,"left_children":[1,3,5,7,9,11,-1,-1,13,-1,15,-1,17,-1,19,-1,21,-1,-1,-1,23,-1,25,-1,-1,27,-1,-1,-1],"loss_changes":[1.6112862E1,1.1807138E1,1.4915915E0,7.5481224E0,1.053354E1,2.3593373E0,0E0,0E0,3.749393E0,0E0,7.332918E0,0E0,5.009012E-1,0E0,4.76285E0,0E0,4.7222834E0,0E0,0E0,0E0,5.306464E0,0E0,2.7836761E0,0E0,0E0,1.6664228E0,0E0,0E0,0E0],"parents":[2147483647,0,0,1,1,2,2,3,3,4,4,5,5,8,8,10,10,12,12,14,14,16,16,20,20,22,22,25,25],"right_children":[2,4,6,8,10,12,-1,-1,14,-1,16,-1,18,-1,20,-1,22,-1,-1,-1,24,-1,26,-1,-1,28,-1,-1,-1],"split_conditions":[1.55E2,2.9E1,8E0,3.05E1,9.5E1,1.66E2,1.0215524E-1,-1.1857066E-1,3.37E-1,-9.736012E-2,2.2E-1,-8.23881E-3,2E0,-7.776609E-2,3.49E1,-5.4479998E-2,2.79E1,8.9084275E-2,3.643479E-2,4.5030095E-2,5.26E-1,-2.7179774E-2,1.37E2,2.0705586E-2,-1.0700779E-1,8.4E1,-7.590094E-4,8.627258E-2,2.6108468E-2],"split_indices":[1,7,0,5,1,1,0,0,6,0,6,0,0,0,5,0,5,0,0,0,6,0,1,0,0,2,0,0,0],"split_type":[0,0,0,0,0,0,0,0,0,0,0,0,0,0,0,0,0,0,0,0,0,0,0,0,0,0,0,0,0],"sum_hessian":[1.133619E2,9.150785E1,2.1854053E1,4.042332E1,5.108453E1,1.5600256E1,6.2537975E0,1.3055185E1,2.7368134E1,6.577612E0,4.450692E1,5.1021643E0,1.0498092E1,9.113911E0,1.8254223E1,7.989426E0,3.6517494E1,5.0842924E0,5.4137993E0,8.148909E0,1.0105314E1,6.7809606E0,2.9736534E1,5.053138E0,5.052176E0,2.372543E1,6.0111036E0,1.6921915E1,6.803515E0],"tree_param":{"num_deleted":"0","num_feature":"8","num_nodes":"29","size_leaf_vector":"1"}},{"base_weights":[1.8897938E-2,-8.365231E-1,1.5999787E-1,-9.2667274E-2,-3.9668996E-2,-2.99155E-1,3.7186754E-1,-6.227735E-1,4.8483677E-2,-2.3641291E-1,4.9538237E-1,-8.0934995E-1,-4.611078E-3,-6.452995E-2,2.0826213E-2,1.6580075E-1,6.617612E-1,-1.013159E0,-2.6377177E-2,-3.1981487E-2,5.660211E-1,7.980054E-3,7.7089614E-1,-5.7110127E-2,-1.2176853E-1,1.0251019E-1,1.5176816E-3,8.98378E-1,1.2040482E-2,9.5655255E-2,5.3328738E-2],"categories":[],"categories_nodes":[],"categories_segments":[],"categories_sizes":[],"default_left":[0,0,0,0,0,0,0,0,0,0,0,0,0,0,0,0,0,0,0,0,0,0,0,0,0,0,0,0,0,0,0],"id":13,"left_children":[1,3,5,-1,-1,7,9,11,-1,13,15,17,-1,-1,-1,19,21,23,-1,-1,25,-1,27,-1,-1,-1,-1,29,-1,-1,-1],"loss_changes":[1.4275682E1,5.970917E-1,9.976958E0,0E0,0E0,8.885132E0,5.3643045E0,2.5035715E0,0E0,2.695661E0,3.0913057E0,1.6462584E0,0E0,0E0,0E0,4.414507E0,2.357708E0,6.3236904E-1,0E0,0E0,3.4209435E0,0E0,2.5282555E0,0E0,0E0,0E0,0E0,4.4883728E-1,0E0,0E0,0E0],"parents":[2147483647,0,0,1,1,2,2,5,5,6,6,7,7,9,9,10,10,11,11,15,15,16,16,17,17,20,20,22,22,27,27],"right_children":[2,4,6,-1,-1,8,10,12,-1,14,16,18,-1,-1,-1,20,22,24,-1,-1,26,-1,28,-1,-1,-1,-1,30,-1,-1,-1],"split_conditions":[2.65E1,1.27E2,1.12E2,-9.2667274E-2,-3.9668996E-2,6.6E-1,3E1,6E0,4.8483677E-2,2.3E1,3.05E-1,4.47E-1,-4.611078E-3,-6.452995E-2,2.0826213E-2,3.5E1,1.24E2,9.6E1,-2.6377177E-2,-3.1981487E-2,7.8E1,7.980054E-3,2.55E2,-5.7110127E-2,-1.2176853E-1,1.0251019E-1,1.5176816E-3,6E0,1.2040482E-2,9.5655255E-2,5.3328738E-2],"split_indices":[5,1,1,0,0,6,5,0,0,4,6,6,0,0,0,7,1,1,0,0,2,0,4,0,0,0,0,0,0,0,0],"split_type":[0,0,0,0,0,0,0,0,0,0,0,0,0,0,0,0,0,0,0,0,0,0,0,0,0,0,0,0,0,0,0],"sum_hessian":[1.16165344E2,1.5750295E1,1.0041505E2,1.0683776E1,5.0665183E0,3.157512E1,6.883993E1,2.2748177E1,8.826943E0,1.1464757E1,5.737517E1,1.6857954E1,5.8902235E0,5.545884E0,5.9188724E0,1.9917301E1,3.745787E1,1.1517915E1,5.340039E0,8.879583E0,1.1037719E1,6.237738E0,3.122013E1,5.9326153E0,5.5852995E0,5.1759024E0,5.8618164E0,2.5726526E1,5.493606E0,1.7641739E1,8.084787E0],"tree_param":{"num_deleted":"0","num_feature":"8","num_nodes":"31","size_leaf_vector":"1"}},{"base_weights":[7.009005E-2,-8.934601E-1,2.2648923E-1,-1.1248559E-1,-2.202381E-2,-2.1319588E-1,4.213609E-1,-9.543887E-2,5.825953E-2,1.9469537E-1,7.5154173E-1,-3.6181247E-1,5.7819074E-1,5.1485753E-1,-1.8732326E-1,5.955348E-1,1.03434294E-1,-1.0752376E-1,2.2117743E-2,8.058264E-2,2.0051464E-2,8.237536E-1,-1.0153291E-2,-7.885912E-2,1.04962654E-1,8.0023184E-2,2.9399845E-1,1.1390348E-1,1.3362031E-2,-3.512348E-2,4.518693E-2,-9.191389E-3,6.0726553E-2],"categories":[],"categories_nodes":[],"categories_segments":[],"categories_sizes":[],"default_left":[0,0,0,0,0,0,0,0,0,0,0,0,0,0,0,0,0,0,0,0,0,0,0,0,0,0,0,0,0,0,0,0,0],"id":14,"left_children":[1,3,5,-1,-1,7,9,-1,11,13,15,17,19,21,23,25,-1,-1,-1,-1,-1,27,-1,-1,29,-1,31,-1,-1,-1,-1,-1,-1],"loss_changes":[1.7489428E1,2.9093657E0,8.614462E0,0E0,0E0,6.815641E0,5.0381556E0,0E0,5.5021906E0,5.2853885E0,8.4075356E-1,6.756233E0,9.4741225E-1,4.5771184E0,3.8882666E0,1.3713646E0,0E0,0E0,0E0,0E0,0E0,3.9292269E0,0E0,0E0,2.7999787E0,0E0,1.5981176E0,0E0,0E0,0E0,0E0,0E0,0E0],"parents":[2147483647,0,0,1,1,2,2,5,5,6,6,8,8,9,9,10,10,11,11,12,12,13,13,14,14,15,15,21,21,24,24,26,26],"right_children":[2,4,6,-1,-1,8,10,-1,12,14,16,18,20,22,24,26,-1,-1,-1,-1,-1,28,-1,-1,30,-1,32,-1,-1,-1,-1,-1,-1],"split_conditions":[2.64E1,3.2E1,1.11E2,-1.1248559E-1,-2.202381E-2,2.44E-1,5.26E-1,-9.543887E-2,3.1E1,7.6E1,8.4E1,9.4E1,9.4E1,1.26E2,1.3E2,1.39E2,1.03434294E-1,-1.0752376E-1,2.2117743E-2,8.058264E-2,2.0051464E-2,2.71E-1,-1.0153291E-2,-7.885912E-2,3.43E1,8.0023184E-2,3.4E1,1.1390348E-1,1.3362031E-2,-3.512348E-2,4.518693E-2,-9.191389E-3,6.0726553E-2],"split_indices":[5,7,1,0,0,6,6,0,3,2,2,1,1,4,1,1,0,0,0,0,0,6,0,0,5,0,3,0,0,0,0,0,0],"split_type":[0,0,0,0,0,0,0,0,0,0,0,0,0,0,0,0,0,0,0,0,0,0,0,0,0,0,0,0,0,0,0,0,0],"sum_hessian":[1.1371298E2,1.5221722E1,9.8491264E1,9.938753E0,5.282968E0,3.021768E1,6.827358E1,6.983307E0,2.3234373E1,4.1425255E1,2.6848326E1,1.3019525E1,1.0214849E1,2.2348064E1,1.9077192E1,2.0345106E1,6.50322E0,5.257731E0,7.761793E0,5.0709643E0,5.143885E0,1.4719015E1,7.629049E0,5.354909E0,1.3722283E1,1.0101141E1,1.0243964E1,8.941402E0,5.777613E0,6.028948E0,7.6933355E0,5.16906E0,5.0749044E0],"tree_param":{"num_deleted":"0","num_feature":"8","num_nodes":"33","size_leaf_vector":"1"}},{"base_weights":[5.5211958E-2,-3.2440647E-1,4.0430555E-1,-1.0493721E-1,-1.2715647E-1,8.534216E-2,6.230497E-1,2.277262E-1,-4.927704E-1,-7.950467E-2,3.559895E-1,8.093989E-1,1.2540562E-2,7.203689E-1,-3.853385E-1,-6.951947E-1,1.3409265E-2,5.1640064E-1,2.5171656E-3,2.3308586E-2,9.3667597E-1,4.221139E-2,9.167787E-2,-6.2075127E-2,-4.604134E-3,-2.2319445E-2,-9.951339E-2,1.1691042E-2,7.760212E-2,1.0612951E-1,5.4864448E-2],"categories":[],"categories_nodes":[],"categories_segments":[],"categories_sizes":[],"default_left":[0,0,0,0,0,0,0,0,0,0,0,0,0,0,0,0,0,0,0,0,0,0,0,0,0,0,0,0,0,0,0],"id":15,"left_children":[1,3,5,-1,7,9,11,13,15,-1,17,19,-1,21,23,25,-1,27,-1,-1,29,-1,-1,-1,-1,-1,-1,-1,-1,-1,-1],"loss_changes":[1.5273235E1,8.4386635E0,4.1309156E0,0E0,5.9946804E0,6.7121167E0,3.1279936E0,7.4324856E0,3.0085793E0,0E0,1.0683477E0,1.5922394E0,0E0,4.890771E-1,9.93662E-1,2.603423E0,0E0,1.5426314E0,0E0,0E0,7.052822E-1,0E0,0E0,0E0,0E0,0E0,0E0,0E0,0E0,0E0,0E0],"parents":[2147483647,0,0,1,1,2,2,4,4,5,5,6,6,7,7,8,8,10,10,11,11,13,13,14,14,15,15,17,17,20,20],"right_children":[2,4,6,-1,8,10,12,14,16,-1,18,20,-1,22,24,26,-1,28,-1,-1,30,-1,-1,-1,-1,-1,-1,-1,-1,-1,-1],"split_conditions":[1.24E2,2.7E1,3.05E-1,-1.0493721E-1,1.4E1,2.8E1,1.88E2,3.26E1,7.42E-1,-7.950467E-2,2.4E-1,3E1,1.2540562E-2,7E0,1.07E2,2E0,1.3409265E-2,6E0,2.5171656E-3,2.3308586E-2,8.2E1,4.221139E-2,9.167787E-2,-6.2075127E-2,-4.604134E-3,-2.2319445E-2,-9.951339E-2,1.1691042E-2,7.760212E-2,1.0612951E-1,5.4864448E-2],"split_indices":[1,5,6,0,4,7,4,5,6,0,6,5,0,0,1,0,0,0,0,0,2,0,0,0,0,0,0,0,0,0,0],"split_type":[0,0,0,0,0,0,0,0,0,0,0,0,0,0,0,0,0,0,0,0,0,0,0,0,0,0,0,0,0,0,0],"sum_hessian":[1.1326054E2,5.4291977E1,5.8968563E1,9.955088E0,4.433689E1,2.4554451E1,3.4414112E1,2.2690006E1,2.1646883E1,5.0713067E0,1.9483145E1,2.4464346E1,9.949764E0,1.2483536E1,1.02064705E1,1.6340588E1,5.3062963E0,1.2719718E1,6.763427E0,5.0557027E0,1.9408644E1,7.2979317E0,5.185604E0,5.118526E0,5.0879445E0,7.894456E0,8.446132E0,6.178681E0,6.5410366E0,1.1305723E1,8.1029215E0],"tree_param":{"num_deleted":"0","num_feature":"8","num_nodes":"31","size_leaf_vector":"1"}},{"base_weights":[1.5997814E-2,-1.3078746E-1,7.548721E-1,-4.5603544E-1,2.1786378E-1,9.028964E-2,2.7599389E-2,-8.7574404E-1,-2.8184223E-1,-7.563656E-2,3.7435275E-1,-1.12062104E-1,-2.883059E-2,3.3553313E-2,-4.1831556E-1,1.728242E-1,8.513654E-2,-6.6697776E-1,2.795652E-2,-4.4520296E-2,4.0113714E-1,-1.9379733E-2,-7.7799186E-2,6.694827E-2,-6.0619336E-2,6.351235E-1,-1.9262288E-2,7.8703746E-2,3.0584453E-2],"categories":[],"categories_nodes":[],"categories_segments":[],"categories_sizes":[],"default_left":[0,0,0,0,0,0,0,0,0,0,0,0,0,0,0,0,0,0,0,0,0,0,0,0,0,0,0,0,0],"id":16,"left_children":[1,3,5,7,9,-1,-1,11,13,-1,15,-1,-1,-1,17,19,-1,21,23,-1,25,-1,-1,-1,-1,27,-1,-1,-1],"loss_changes":[1.1874008E1,1.0467362E1,1.4088087E0,3.2351322E0,7.4424276E0,0E0,0E0,2.0303602E0,3.2032766E0,0E0,4.0421515E0,0E0,0E0,0E0,3.2804322E0,4.5760007E0,0E0,1.2004232E0,5.6895046E0,0E0,3.3239074E0,0E0,0E0,0E0,0E0,7.490144E-1,0E0,0E0,0E0],"parents":[2147483647,0,0,1,1,2,2,3,3,4,4,7,7,8,8,10,10,14,14,15,15,17,17,18,18,20,20,25,25],"right_children":[2,4,6,8,10,-1,-1,12,14,-1,16,-1,-1,-1,18,20,-1,22,24,-1,26,-1,-1,-1,-1,28,-1,-1,-1],"split_conditions":[1.59E2,3.1E1,8E1,2.3E1,2.7E1,9.028964E-2,2.7599389E-2,4.55E-1,1E0,-7.563656E-2,1.27E2,-1.12062104E-1,-2.883059E-2,3.3553313E-2,3.2E1,2.54E-1,8.513654E-2,2.77E1,3.59E1,-4.4520296E-2,8.2E1,-1.9379733E-2,-7.7799186E-2,6.694827E-2,-6.0619336E-2,2.4E1,-1.9262288E-2,7.8703746E-2,3.0584453E-2],"split_indices":[1,7,2,7,5,0,0,6,0,0,4,0,0,0,3,6,0,5,5,0,2,0,0,0,0,3,0,0,0],"split_type":[0,0,0,0,0,0,0,0,0,0,0,0,0,0,0,0,0,0,0,0,0,0,0,0,0,0,0,0,0],"sum_hessian":[1.075721E2,9.043017E1,1.7141928E1,4.6625973E1,4.3804195E1,1.120438E1,5.937548E0,1.2494282E1,3.413169E1,5.28459E0,3.8519608E1,7.3889136E0,5.1053677E0,5.738559E0,2.8393133E1,2.882612E1,9.693487E0,1.7915876E1,1.0477258E1,7.2642875E0,2.1561832E1,5.126102E0,1.2789775E1,5.1666665E0,5.3105907E0,1.5513273E1,6.0485587E0,8.453515E0,7.0597577E0],"tree_param":{"num_deleted":"0","num_feature":"8","num_nodes":"29","size_leaf_vector":"1"}},{"base_weights":[-1.4852458E-2,-6.891467E-1,1.9023113E-1,-9.0473884E-1,6.990863E-3,7.290023E-2,7.7348065E-1,-1.0836549E-1,-4.922648E-2,-2.4113184E-1,3.2543445E-1,1.04884386E-1,2.502066E-2,4.8079923E-2,-7.736359E-2,4.48471E-1,-3.6560554E-2,-5.7895803E-1,7.027837E-2,2.8546864E-1,9.380498E-2,-1.1029658E-1,1.00815315E-2,5.147961E-1,-1.7612118E-2,-4.1886964E-3,7.4243836E-2],"categories":[],"categories_nodes":[],"categories_segments":[],"categories_sizes":[],"default_left":[0,0,0,0,0,0,0,0,0,0,0,0,0,0,0,0,0,0,0,0,0,0,0,0,0,0,0],"id":17,"left_children":[1,3,5,7,-1,9,11,-1,-1,13,15,-1,-1,17,-1,19,-1,21,-1,23,-1,-1,-1,25,-1,-1,-1],"loss_changes":[1.44832E1,4.0849466E0,5.44322E0,1.1810675E0,0E0,5.471885E0,1.9950471E0,0E0,0E0,5.202882E0,3.5156803E0,0E0,0E0,9.828257E0,0E0,2.6442242E0,0E0,4.92579E0,0E0,2.9945579E0,0E0,0E0,0E0,2.809443E0,0E0,0E0,0E0],"parents":[2147483647,0,0,1,1,2,2,3,3,5,5,6,6,9,9,10,10,13,13,15,15,17,17,19,19,23,23],"right_children":[2,4,6,8,-1,10,12,-1,-1,14,16,-1,-1,18,-1,20,-1,22,-1,24,-1,-1,-1,26,-1,-1,-1],"split_conditions":[1.04E2,3.79E1,4.18E1,3.1E1,6.990863E-3,3.2E1,3.75E-1,-1.0836549E-1,-4.922648E-2,3.49E1,5.9E1,1.04884386E-1,2.502066E-2,3.09E1,-7.736359E-2,1.66E2,-3.6560554E-2,2.6E1,7.027837E-2,3E1,9.380498E-2,-1.1029658E-1,1.00815315E-2,2.79E1,-1.7612118E-2,-4.1886964E-3,7.4243836E-2],"split_indices":[1,5,5,7,0,7,6,0,0,5,7,0,0,5,0,1,0,7,0,3,0,0,0,5,0,0,0],"split_type":[0,0,0,0,0,0,0,0,0,0,0,0,0,0,0,0,0,0,0,0,0,0,0,0,0,0,0],"sum_hessian":[1.0278513E2,2.3420513E1,7.936462E1,1.8117018E1,5.303497E0,6.7009476E1,1.2355145E1,9.876279E0,8.240738E0,2.9888098E1,3.7121376E1,6.7185335E0,5.6366115E0,2.0531738E1,9.3563595E0,3.1971424E1,5.1499524E0,1.0889786E1,9.641953E0,2.5781206E1,6.190218E0,5.4802046E0,5.409581E0,1.7289297E1,8.491911E0,5.9217777E0,1.1367518E1],"tree_param":{"num_deleted":"0","num_feature":"8","num_nodes":"27","size_leaf_vector":"1"}},{"base_weights":[3.9786894E-2,-1.648975E-1,5.141369E-1,-4.4891214E-1,1.497032E-1,2.5679874E-1,9.31689E-2,8.818346E-3,-6.0289866E-1,-5.3383157E-2,3.3151215E-1,4.8160192E-1,-2.0138767E-2,-1.0750656E0,-1.08353704E-1,5.8442235E-1,-5.3180037E-3,6.846858E-2,1.9448058E-3,-6.8914734E-2,-1.319656E-1,-4.200827E-2,2.5165576E-2,8.590639E-3,8.0306834E-1,3.6578245E-2,-4.529412E-2,4.3431703E-2,9.501114E-2],"categories":[],"categories_nodes":[],"categories_segments":[],"categories_sizes":[],"default_left":[0,0,0,0,0,0,0,0,0,0,0,0,0,0,0,0,0,0,0,0,0,0,0,0,0,0,0,0,0],"id":18,"left_children":[1,3,5,7,9,11,-1,-1,13,-1,15,17,-1,19,21,23,25,-1,-1,-1,-1,-1,-1,-1,27,-1,-1,-1,-1],"loss_changes":[1.016525E1,6.6152997E0,3.5804014E0,3.2933173E0,4.804357E0,2.4028254E0,0E0,0E0,6.964795E0,0E0,2.4692085E0,1.6715634E0,0E0,6.9444466E-1,2.1265566E0,1.711863E0,2.681966E0,0E0,0E0,0E0,0E0,0E0,0E0,0E0,3.2689714E-1,0E0,0E0,0E0,0E0],"parents":[2147483647,0,0,1,1,2,2,3,3,4,4,5,5,8,8,10,10,11,11,13,13,14,14,15,15,16,16,24,24],"right_children":[2,4,6,8,10,12,-1,-1,14,-1,16,18,-1,20,22,24,26,-1,-1,-1,-1,-1,-1,-1,28,-1,-1,-1,-1],"split_conditions":[1.44E2,3.2E1,7E0,1E0,9.7E1,1.88E2,9.31689E-2,8.818346E-3,3E0,-5.3383157E-2,1.22E2,7.8E1,-2.0138767E-2,3.37E1,1.15E2,2.89E-1,7E0,6.846858E-2,1.9448058E-3,-6.8914734E-2,-1.319656E-1,-4.200827E-2,2.5165576E-2,8.590639E-3,3.21E1,3.6578245E-2,-4.529412E-2,4.3431703E-2,9.501114E-2],"split_indices":[1,7,0,0,1,4,0,0,0,0,1,2,0,5,1,6,0,0,0,0,0,0,0,0,5,0,0,0,0],"split_type":[0,0,0,0,0,0,0,0,0,0,0,0,0,0,0,0,0,0,0,0,0,0,0,0,0,0,0,0,0],"sum_hessian":[1.0282385E2,7.228492E1,3.0538933E1,3.776478E1,3.4520145E1,2.0768179E1,9.770756E0,8.439093E0,2.9325684E1,6.5711474E0,2.7948997E1,1.4032313E1,6.7358656E0,1.4401756E1,1.4923927E1,1.5543236E1,1.2405763E1,8.809417E0,5.2228966E0,8.526691E0,5.875065E0,7.766156E0,7.1577716E0,5.2071714E0,1.0336064E1,6.887438E0,5.5183244E0,5.054269E0,5.281795E0],"tree_param":{"num_deleted":"0","num_feature":"8","num_nodes":"29","size_leaf_vector":"1"}},{"base_weights":[-5.9476737E-2,-6.636507E-1,1.2797508E-1,-9.052636E-2,-2.3355265E-1,-4.340208E-1,2.686744E-1,1.2366949E-2,-5.3883307E-2,3.4848712E-2,-8.457951E-2,-1.08858995E-1,3.932549E-1,-4.9137726E-2,3.3882655E-2,1.9912581E-1,7.457428E-1,5.1414704E-1,-2.7225864E-1,4.180173E-2,9.478271E-2,-7.849348E-3,7.3340625E-1,1.9637069E-2,-6.764775E-2,9.738308E-2,3.00529E-2],"categories":[],"categories_nodes":[],"categories_segments":[],"categories_sizes":[],"default_left":[0,0,0,0,0,0,0,0,0,0,0,0,0,0,0,0,0,0,0,0,0,0,0,0,0,0,0],"id":19,"left_children":[1,3,5,-1,7,9,11,-1,-1,-1,-1,13,15,-1,-1,17,19,21,23,-1,-1,-1,25,-1,-1,-1,-1],"loss_changes":[1.1738E1,2.8865576E0,6.3923907E0,0E0,1.4623687E0,6.361723E0,3.0573378E0,0E0,0E0,0E0,0E0,3.3967605E0,3.16397E0,0E0,0E0,4.9780326E0,8.710613E-1,2.6637206E0,3.0709E0,0E0,0E0,0E0,1.4815221E0,0E0,0E0,0E0,0E0],"parents":[2147483647,0,0,1,1,2,2,4,4,5,5,6,6,11,11,12,12,15,15,16,16,17,17,18,18,22,22],"right_children":[2,4,6,-1,8,10,12,-1,-1,-1,-1,14,16,-1,-1,18,20,22,24,-1,-1,-1,26,-1,-1,-1,-1],"split_conditions":[2.88E1,3.2E1,2.5E1,-9.052636E-2,2.78E-1,2.7E1,1.04E2,1.2366949E-2,-5.3883307E-2,3.4848712E-2,-8.457951E-2,3.1E1,7E0,-4.9137726E-2,3.3882655E-2,4E0,3.75E-1,1.21E2,2.65E-1,4.180173E-2,9.478271E-2,-7.849348E-3,7.5E1,1.9637069E-2,-6.764775E-2,9.738308E-2,3.00529E-2],"split_indices":[5,7,7,0,6,3,1,0,0,0,0,3,0,0,0,0,6,1,6,0,0,0,2,0,0,0,0],"split_type":[0,0,0,0,0,0,0,0,0,0,0,0,0,0,0,0,0,0,0,0,0,0,0,0,0,0,0],"sum_hessian":[1.0189368E2,2.352621E1,7.836746E1,1.3228507E1,1.0297704E1,1.5273947E1,6.3093517E1,5.240565E0,5.057139E0,5.647834E0,9.626113E0,1.568557E1,4.7407948E1,8.284233E0,7.401337E0,3.1580324E1,1.5827623E1,1.8875385E1,1.2704938E1,8.523409E0,7.304214E0,5.2353477E0,1.3640038E1,6.359316E0,6.345622E0,7.08004E0,6.559998E0],"tree_param":{"num_deleted":"0","num_feature":"8","num_nodes":"27","size_leaf_vector":"1"}},{"base_weights":[6.503006E-2,-1.04490355E-1,5.666768E-1,-3.9499354E-1,2.0951521E-1,-2.7131902E-3,7.444934E-1,-7.53198E-1,1.1579825E-1,4.6390334E-1,-8.664725E-2,3.018851E-2,9.1136515E-2,-1.0081949E0,-2.5920061E-2,-4.4797175E-2,4.8773512E-1,6.3431716E-1,7.7194492E-3,-4.8780676E-2,4.4339787E-2,-1.0821649E-1,-5.658487E-2,8.042822E-2,5.194506E-3,1.620321E-2,8.5210875E-2],"categories":[],"categories_nodes":[],"categories_segments":[],"categories_sizes":[],"default_left":[0,0,0,0,0,0,0,0,0,0,0,0,0,0,0,0,0,0,0,0,0,0,0,0,0,0,0],"id":20,"left_children":[1,3,5,7,9,-1,11,13,15,17,19,-1,-1,21,-1,-1,23,25,-1,-1,-1,-1,-1,-1,-1,-1,-1],"loss_changes":[8.9630785E0,7.2983932E0,2.837719E0,7.668525E0,2.9533486E0,0E0,1.6137705E0,2.7128744E0,4.1703877E0,1.3130574E0,4.714934E0,0E0,0E0,1.9197655E-1,0E0,0E0,1.7640896E0,1.6238723E0,0E0,0E0,0E0,0E0,0E0,0E0,0E0,0E0,0E0],"parents":[2147483647,0,0,1,1,2,2,3,3,4,4,6,6,7,7,8,8,9,9,10,10,13,13,16,16,17,17],"right_children":[2,4,6,8,10,-1,12,14,16,18,20,-1,-1,22,-1,-1,24,26,-1,-1,-1,-1,-1,-1,-1,-1,-1],"split_conditions":[7E0,1.24E2,2.89E1,4.96E-1,1.16E2,-2.7131902E-3,2.86E-1,1.12E2,2.2E1,3.9E1,3.3E1,3.018851E-2,9.1136515E-2,3.56E1,-2.5920061E-2,-4.4797175E-2,6.5E1,2.7E1,7.7194492E-3,-4.8780676E-2,4.4339787E-2,-1.0821649E-1,-5.658487E-2,8.042822E-2,5.194506E-3,1.620321E-2,8.5210875E-2],"split_indices":[0,1,5,6,4,0,6,1,3,7,3,0,0,5,0,0,2,7,0,0,0,0,0,0,0,0,0],"split_type":[0,0,0,0,0,0,0,0,0,0,0,0,0,0,0,0,0,0,0,0,0,0,0,0,0,0,0],"sum_hessian":[1.0370287E2,7.81018E1,2.5601068E1,4.0435165E1,3.7666634E1,6.080256E0,1.9520813E1,2.3488646E1,1.6946522E1,1.995766E1,1.7708973E1,7.5063744E0,1.2014439E1,1.4604146E1,8.8845E0,6.4451923E0,1.0501328E1,1.3346495E1,6.611166E0,1.0028659E1,7.6803145E0,9.579924E0,5.024222E0,5.178846E0,5.322483E0,5.4952536E0,7.8512416E0],"tree_param":{"num_deleted":"0","num_feature":"8","num_nodes":"27","size_leaf_vector":"1"}},{"base_weights":[-1.7428193E-2,-1.19097404E-1,7.1593285E-1,-7.257579E-1,-1.42899165E-2,8.121698E-2,3.9901357E-2,-9.929486E-2,-1.5503004E-2,7.2856635E-2,-7.592487E-2,-3.826689E-2,6.905924E-2,-4.938816E-1,1.6044782E-1,-1.0132027E-1,-1.9803582E-1,7.631058E-2,5.4778913E-3,1.5815608E-2,-5.6831148E-2,-4.32582E-2,3.6309104E-2],"categories":[],"categories_nodes":[],"categories_segments":[],"categories_sizes":[],"default_left":[0,0,0,0,0,0,0,0,0,0,0,0,0,0,0,0,0,0,0,0,0,0,0],"id":21,"left_children":[1,3,5,7,9,-1,-1,-1,-1,11,-1,13,-1,15,17,-1,19,-1,21,-1,-1,-1,-1],"loss_changes":[7.7722044E0,5.8011894E0,1.7318583E-1,2.2858672E0,5.491839E0,0E0,0E0,0E0,0E0,5.2973614E0,0E0,5.7446146E0,0E0,3.0843048E0,4.4437222E0,0E0,2.1613696E0,0E0,6.6355467E0,0E0,0E0,0E0,0E0],"parents":[2147483647,0,0,1,1,2,2,3,3,4,4,9,9,11,11,13,13,14,14,16,16,18,18],"right_children":[2,4,6,8,10,-1,-1,-1,-1,12,-1,14,-1,16,18,-1,20,-1,22,-1,-1,-1,-1],"split_conditions":[1.66E2,1.97E-1,4.6E-1,3.8E1,1.85E2,8.121698E-2,3.9901357E-2,-9.929486E-2,-1.5503004E-2,9E0,-7.592487E-2,3.05E1,6.905924E-2,2.95E-1,2.51E-1,-1.0132027E-1,4.9E1,7.631058E-2,4.88E-1,1.5815608E-2,-5.6831148E-2,-4.32582E-2,3.6309104E-2],"split_indices":[1,6,6,7,4,0,0,0,0,0,0,5,0,6,6,0,4,0,6,0,0,0,0],"split_type":[0,0,0,0,0,0,0,0,0,0,0,0,0,0,0,0,0,0,0,0,0,0,0],"sum_hessian":[1.0209702E2,9.04018E1,1.1695218E1,1.2444462E1,7.7957344E1,6.5501833E0,5.1450343E0,7.325414E0,5.1190476E0,7.102625E1,6.931088E0,6.157497E1,9.451283E0,1.8248737E1,4.3326233E1,5.2835274E0,1.296521E1,7.552791E0,3.577344E1,7.111765E0,5.8534455E0,1.5998123E1,1.977532E1],"tree_param":{"num_deleted":"0","num_feature":"8","num_nodes":"23","size_leaf_vector":"1"}},{"base_weights":[4.488183E-2,-3.6229774E-1,1.7173867E-1,-6.510058E-1,4.358207E-2,-2.9279858E-2,2.4251907E-1,-3.303024E-1,-1.1060677E-1,7.425761E-2,1.8169321E-1,-7.557808E-2,2.0174414E-2,9.4063655E-2,5.9176125E-2,1.7385887E-1,-3.939064E-2,4.9177572E-2,6.860128E-2,2.4211485E-2,-6.909651E-2],"categories":[],"categories_nodes":[],"categories_segments":[],"categories_sizes":[],"default_left":[0,0,0,0,0,0,0,0,0,0,0,0,0,0,0,0,0,0,0,0,0],"id":22,"left_children":[1,3,5,7,-1,-1,9,11,-1,-1,13,-1,-1,15,-1,17,-1,19,-1,-1,-1],"loss_changes":[5.305224E0,6.11119E0,2.7373219E0,2.7002378E0,0E0,0E0,2.1269841E0,3.4531522E0,0E0,0E0,2.3980987E0,0E0,0E0,2.2681031E0,0E0,3.2204494E0,0E0,6.599494E0,0E0,0E0,0E0],"parents":[2147483647,0,0,1,1,2,2,3,3,6,6,7,7,10,10,13,13,15,15,17,17],"right_children":[2,4,6,8,-1,-1,10,12,-1,-1,14,-1,-1,16,-1,18,-1,20,-1,-1,-1],"split_conditions":[1.04E2,8.8E1,2.63E1,3.7E1,4.358207E-2,-2.9279858E-2,2.76E1,2.2E1,-1.1060677E-1,7.425761E-2,1.66E2,-7.557808E-2,2.0174414E-2,1.53E2,5.9176125E-2,4.18E1,-3.939064E-2,3.67E1,6.860128E-2,2.4211485E-2,-6.909651E-2],"split_indices":[1,4,5,4,0,0,5,3,0,0,1,0,0,1,0,5,0,5,0,0,0],"split_type":[0,0,0,0,0,0,0,0,0,0,0,0,0,0,0,0,0,0,0,0,0],"sum_hessian":[1.0050333E2,2.3433033E1,7.707029E1,1.7506943E1,5.9260907E0,9.439705E0,6.7630585E1,1.1840968E1,5.665974E0,5.604466E0,6.2026123E1,6.0996623E0,5.7413063E0,5.283116E1,9.194959E0,4.6268032E1,6.5631313E0,3.863785E1,7.63018E0,3.106621E1,7.5716424E0],"tree_param":{"num_deleted":"0","num_feature":"8","num_nodes":"21","size_leaf_vector":"1"}},{"base_weights":[1.5659998E-1,-3.17979E-1,2.882868E-1,-7.847233E-2,2.4337943E-3,1.7636341E-1,7.635913E-1,-2.8726067E-2,4.498028E-2,8.3850294E-2,9.935075E-2,8.458753E-2,4.1411493E-2,-5.1926263E-2,1.9776943E-1,8.611436E-2,1.0082307E-1,-4.296834E-2,2.5139526E-1,5.790407E-2,2.7526666E-3],"categories":[],"categories_nodes":[],"categories_segments":[],"categories_sizes":[],"default_left":[0,0,0,0,0,0,0,0,0,0,0,0,0,0,0,0,0,0,0,0,0],"id":23,"left_children":[1,3,5,-1,7,9,11,-1,-1,-1,13,-1,-1,-1,15,-1,17,-1,19,-1,-1],"loss_changes":[6.231456E0,3.587106E0,3.9843369E0,0E0,2.2402737E0,3.4168782E0,2.2791958E-1,0E0,0E0,0E0,3.868548E0,0E0,0E0,0E0,3.496351E0,0E0,4.027871E0,0E0,2.9918864E0,0E0,0E0],"parents":[2147483647,0,0,1,1,2,2,4,4,5,5,6,6,10,10,14,14,16,16,18,18],"right_children":[2,4,6,-1,8,10,12,-1,-1,-1,14,-1,-1,-1,16,-1,18,-1,20,-1,-1],"split_conditions":[2.88E1,2.8E1,1.55E2,-7.847233E-2,2E1,5.2E1,3.79E1,-2.8726067E-2,4.498028E-2,8.3850294E-2,9E1,8.458753E-2,4.1411493E-2,-5.1926263E-2,9.9E1,8.611436E-2,2.5E1,-4.296834E-2,3.31E1,5.790407E-2,2.7526666E-3],"split_indices":[5,7,1,0,3,2,5,0,0,0,1,0,0,0,1,0,7,0,5,0,0],"split_type":[0,0,0,0,0,0,0,0,0,0,0,0,0,0,0,0,0,0,0,0,0],"sum_hessian":[9.7243195E1,2.0814888E1,7.642831E1,7.390805E0,1.3424083E1,6.2971104E1,1.3457207E1,8.367769E0,5.056313E0,5.122235E0,5.7848866E1,8.322389E0,5.134818E0,7.012016E0,5.0836853E1,5.0724006E0,4.576445E1,9.324595E0,3.6439857E1,1.3199422E1,2.3240433E1],"tree_param":{"num_deleted":"0","num_feature":"8","num_nodes":"21","size_leaf_vector":"1"}},{"base_weights":[1.0646664E-2,-7.3487645E-1,1.08952746E-1,-1.02049045E-1,-2.4176577E-2,1.6426958E-1,-5.189291E-2,4.1881242E-1,-7.829179E-2,2.9415733E-1,9.983091E-2,-4.167679E-1,1.7268212E-1,5.474019E-1,-1.9576178E-1,-8.006328E-2,-7.044772E-2,-1.8977214E-1,6.6812985E-2,8.7111644E-2,1.0090584E0,-3.704396E-2,7.909282E-3,5.174995E-2,-6.2582105E-2,-7.374043E-2,3.0662531E-2,4.937457E-2,-4.277847E-2,5.7629053E-2,1.2085318E-1],"categories":[],"categories_nodes":[],"categories_segments":[],"categories_sizes":[],"default_left":[0,0,0,0,0,0,0,0,0,0,0,0,0,0,0,0,0,0,0,0,0,0,0,0,0,0,0,0,0,0,0],"id":24,"left_children":[1,3,5,-1,-1,7,-1,9,11,13,-1,15,17,19,21,-1,23,25,-1,27,29,-1,-1,-1,-1,-1,-1,-1,-1,-1,-1],"loss_changes":[7.391999E0,1.6686578E0,3.332303E0,0E0,0E0,5.15039E0,0E0,2.9192452E0,3.7489412E0,4.4933896E0,0E0,2.7346265E0,5.0887556E0,4.9204946E0,7.348545E-1,0E0,4.563879E0,5.125337E0,0E0,3.2712743E0,4.78899E-1,0E0,0E0,0E0,0E0,0E0,0E0,0E0,0E0,0E0,0E0],"parents":[2147483647,0,0,1,1,2,2,5,5,7,7,8,8,9,9,11,11,12,12,13,13,14,14,16,16,17,17,19,19,20,20],"right_children":[2,4,6,-1,-1,8,-1,10,12,14,-1,16,18,20,22,-1,24,26,-1,28,30,-1,-1,-1,-1,-1,-1,-1,-1,-1,-1],"split_conditions":[2.63E1,4.8E1,5.7E1,-1.02049045E-1,-2.4176577E-2,3.7E1,-5.189291E-2,4.29E1,2.8E1,7.8E1,9.983091E-2,3.1E1,7.8E1,5E0,1.3E2,-8.006328E-2,3.64E1,5.01E-1,6.6812985E-2,3.31E1,2.4E1,-3.704396E-2,7.909282E-3,5.174995E-2,-6.2582105E-2,-7.374043E-2,3.0662531E-2,4.937457E-2,-4.277847E-2,5.7629053E-2,1.2085318E-1],"split_indices":[5,4,7,0,0,4,0,5,7,2,0,3,2,0,1,0,5,6,0,5,3,0,0,0,0,0,0,0,0,0,0],"split_type":[0,0,0,0,0,0,0,0,0,0,0,0,0,0,0,0,0,0,0,0,0,0,0,0,0,0,0,0,0,0,0],"sum_hessian":[9.876786E1,1.075207E1,8.8015785E1,5.5151525E0,5.236918E0,8.1886505E1,6.129286E0,3.960186E1,4.228464E1,3.4353046E1,5.248816E0,1.7722534E1,2.4562107E1,2.2569363E1,1.1783682E1,7.251253E0,1.047128E1,1.5023958E1,9.538149E0,1.1896632E1,1.067273E1,6.682907E0,5.1007752E0,5.158868E0,5.3124127E0,6.750679E0,8.273279E0,6.602353E0,5.294279E0,5.629257E0,5.0434737E0],"tree_param":{"num_deleted":"0","num_feature":"8","num_nodes":"31","size_leaf_vector":"1"}},{"base_weights":[4.414257E-2,-3.9842427E-1,1.4573906E-1,-1.00487635E-1,-3.0707113E-2,1.8140221E-2,4.1771385E-1,3.8405538E-2,-4.6942264E-2,-7.8606755E-2,1.22929074E-1,-2.6989538E-2,6.678667E-1,3.4858933E-1,-2.0148262E-1,1.0747067E-1,2.47007E-1,5.362889E-1,-2.5776917E-2,5.6041118E-2,-5.284932E-1,-2.278261E-2,6.4824186E-2,7.984058E-1,8.077284E-3,-9.0518296E-2,-2.9787275E-3,9.2799984E-2,3.5175975E-2],"categories":[],"categories_nodes":[],"categories_segments":[],"categories_sizes":[],"default_left":[0,0,0,0,0,0,0,0,0,0,0,0,0,0,0,0,0,0,0,0,0,0,0,0,0,0,0,0,0],"id":25,"left_children":[1,3,5,-1,7,9,11,-1,-1,-1,13,-1,15,17,19,-1,21,23,-1,-1,25,-1,-1,27,-1,-1,-1,-1,-1],"loss_changes":[4.476065E0,4.522604E0,2.7911072E0,0E0,2.857294E0,5.087324E0,4.7148604E0,0E0,0E0,0E0,3.7798123E0,0E0,3.5298576E0,3.6754372E0,5.881633E0,0E0,2.6198397E0,2.7167702E0,0E0,0E0,3.3255582E0,0E0,0E0,7.939377E-1,0E0,0E0,0E0,0E0,0E0],"parents":[2147483647,0,0,1,1,2,2,4,4,5,5,6,6,10,10,12,12,13,13,14,14,16,16,17,17,20,20,23,23],"right_children":[2,4,6,-1,8,10,12,-1,-1,-1,14,-1,16,18,20,-1,22,24,-1,-1,26,-1,-1,28,-1,-1,-1,-1,-1],"split_conditions":[2.2E-1,1.11E2,3.4E1,-1.00487635E-1,1.58E-1,2.3E1,3.32E-1,3.8405538E-2,-4.6942264E-2,-7.8606755E-2,3.35E1,-2.6989538E-2,5.36E-1,7.8E1,1.03E2,1.0747067E-1,7.17E-1,4.9E1,-2.5776917E-2,5.6041118E-2,1.3E2,-2.278261E-2,6.4824186E-2,3.6E1,8.077284E-3,-9.0518296E-2,-2.9787275E-3,9.2799984E-2,3.5175975E-2],"split_indices":[6,1,3,0,6,7,6,0,0,0,5,0,6,2,1,0,6,4,0,0,1,0,0,7,0,0,0,0,0],"split_type":[0,0,0,0,0,0,0,0,0,0,0,0,0,0,0,0,0,0,0,0,0,0,0,0,0,0,0,0,0],"sum_hessian":[9.725803E1,1.7612814E1,7.964522E1,5.594095E0,1.2018719E1,5.4937576E1,2.4707644E1,6.2680793E0,5.750639E0,5.2650113E0,4.9672565E1,6.4438157E0,1.8263828E1,2.9251053E1,2.0421513E1,7.8227706E0,1.0441057E1,2.257157E1,6.679484E0,5.715178E0,1.4706335E1,5.1591043E0,5.2819533E0,1.3784654E1,8.786916E0,7.3869567E0,7.319378E0,8.711163E0,5.073491E0],"tree_param":{"num_deleted":"0","num_feature":"8","num_nodes":"29","size_leaf_vector":"1"}},{"base_weights":[1.4924055E-1,-6.10781E-1,2.4979883E-1,-9.873597E-2,-2.4347987E-3,-2.0144372E-1,3.734447E-1,-7.583712E-2,9.9951245E-2,-3.117263E-2,4.4299254E-1,4.0971123E-2,-2.0746674E-2,3.1648687E-1,8.575741E-1,4.0525737E-1,-1.0895962E-2,1.0067759E-1,4.2105354E-2,3.1309396E-1,8.378631E-2,4.1989714E-2,-1.9826857E-2],"categories":[],"categories_nodes":[],"categories_segments":[],"categories_sizes":[],"default_left":[0,0,0,0,0,0,0,0,0,0,0,0,0,0,0,0,0,0,0,0,0,0,0],"id":26,"left_children":[1,3,5,-1,-1,7,9,-1,11,-1,13,-1,-1,15,17,19,-1,-1,-1,21,-1,-1,-1],"loss_changes":[7.9975023E0,3.096696E0,5.1727223E0,0E0,0E0,3.7605886E0,3.6720572E0,0E0,1.633295E0,0E0,3.1904278E0,0E0,0E0,2.0463314E0,7.989416E-1,1.6536307E0,0E0,0E0,0E0,2.7104516E0,0E0,0E0,0E0],"parents":[2147483647,0,0,1,1,2,2,5,5,6,6,8,8,10,10,13,13,14,14,15,15,19,19],"right_children":[2,4,6,-1,-1,8,10,-1,12,-1,14,-1,-1,16,18,20,-1,-1,-1,22,-1,-1,-1],"split_conditions":[9.5E1,4.6E1,2.5E1,-9.873597E-2,-2.4347987E-3,3.09E1,2.63E1,-7.583712E-2,2.3E1,-3.117263E-2,6.92E-1,4.0971123E-2,-2.0746674E-2,3.8E1,3.9E1,3.92E1,-1.0895962E-2,1.0067759E-1,4.2105354E-2,8.4E1,8.378631E-2,4.1989714E-2,-1.9826857E-2],"split_indices":[1,4,7,0,0,5,5,0,7,0,6,0,0,3,7,5,0,0,0,2,0,0,0],"split_type":[0,0,0,0,0,0,0,0,0,0,0,0,0,0,0,0,0,0,0,0,0,0,0],"sum_hessian":[1.0164679E2,1.1284489E1,9.03623E1,6.0225945E0,5.2618937E0,1.9299622E1,7.1062675E1,5.886622E0,1.3412999E1,6.0561466E0,6.500653E1,6.385631E0,7.027368E0,5.1159176E1,1.3847354E1,4.2487263E1,8.671916E0,8.138716E0,5.7086387E0,3.7050873E1,5.4363875E0,2.972671E1,7.324164E0],"tree_param":{"num_deleted":"0","num_feature":"8","num_nodes":"23","size_leaf_vector":"1"}},{"base_weights":[1.2145487E-1,-1.03250965E-1,3.4671044E-1,-2.9789358E-1,3.5300666E-1,-2.1205492E-2,4.7844523E-1,-7.658782E-2,-1.279803E-1,5.5950396E-2,1.4305335E-2,2.2248697E-1,8.028405E-1,3.0509847E-1,-4.4908282E-1,4.7710586E-1,-2.2188174E-2,1.0701826E-1,4.332877E-2,-2.0510614E-2,7.564559E-2,-1.1501414E-3,-6.861556E-2,-3.0237758E-3,8.050083E-2],"categories":[],"categories_nodes":[],"categories_segments":[],"categories_sizes":[],"default_left":[0,0,0,0,0,0,0,0,0,0,0,0,0,0,0,0,0,0,0,0,0,0,0,0,0],"id":27,"left_children":[1,3,5,7,9,-1,11,-1,13,-1,-1,15,17,19,21,23,-1,-1,-1,-1,-1,-1,-1,-1,-1],"loss_changes":[4.966791E0,4.504634E0,3.7857108E0,2.9705734E0,6.4713466E-1,0E0,3.1458912E0,0E0,3.9863846E0,0E0,0E0,2.879794E0,1.4433708E0,3.3802319E0,1.9669063E0,3.006913E0,0E0,0E0,0E0,0E0,0E0,0E0,0E0,0E0,0E0],"parents":[2147483647,0,0,1,1,2,2,3,3,4,4,6,6,8,8,11,11,12,12,13,13,14,14,15,15],"right_children":[2,4,6,8,10,-1,12,-1,14,-1,-1,16,18,20,22,24,-1,-1,-1,-1,-1,-1,-1,-1,-1],"split_conditions":[3.2E1,1.4E2,2.17E-1,2.3E1,2.6E1,-2.1205492E-2,3.37E1,-7.658782E-2,6.5E1,5.5950396E-2,1.4305335E-2,5.9E1,7.8E1,6E1,3.35E1,2.79E1,-2.2188174E-2,1.0701826E-1,4.332877E-2,-2.0510614E-2,7.564559E-2,-1.1501414E-3,-6.861556E-2,-3.0237758E-3,8.050083E-2],"split_indices":[7,1,6,7,7,0,5,0,2,0,0,4,2,2,5,5,0,0,0,0,0,0,0,0,0],"split_type":[0,0,0,0,0,0,0,0,0,0,0,0,0,0,0,0,0,0,0,0,0,0,0,0,0],"sum_hessian":[9.641918E1,4.853964E1,4.7879547E1,3.4267838E1,1.42718E1,8.840451E0,3.9039097E1,7.5870085E0,2.6680828E1,5.636583E0,8.635217E0,2.2763678E1,1.627542E1,1.138093E1,1.5299898E1,1.4595945E1,8.167731E0,7.13379E0,9.141629E0,5.8165503E0,5.56438E0,6.3475943E0,8.952304E0,6.5814085E0,8.014537E0],"tree_param":{"num_deleted":"0","num_feature":"8","num_nodes":"25","size_leaf_vector":"1"}},{"base_weights":[4.9364965E-2,-6.2378254E-2,1.3634767E-1,2.3173388E-2,6.415308E-1,-6.460815E-2,8.218012E-2,9.901858E-2,1.8577417E-2,-2.0539244E-1,3.526628E-1,-3.4082586E-1,4.790492E-2,8.098246E-2,5.4449707E-2,-3.7747625E-2,-8.11896E-1,2.6622368E-2,-1.9634679E-2,-1.82509E-2,3.9218605E-2,-4.3968447E-2,-1.2865661E-1],"categories":[],"categories_nodes":[],"categories_segments":[],"categories_sizes":[],"default_left":[0,0,0,0,0,0,0,0,0,0,0,0,0,0,0,0,0,0,0,0,0,0,0],"id":28,"left_children":[1,-1,3,5,7,9,-1,-1,-1,11,13,15,-1,-1,17,19,21,-1,-1,-1,-1,-1,-1],"loss_changes":[6.187813E0,0E0,5.06257E0,5.527563E0,2.7289543E0,4.0442452E0,0E0,0E0,0E0,5.1129885E0,2.5763798E0,6.1955814E0,0E0,0E0,7.7588457E-1,2.0233839E0,2.6108875E0,0E0,0E0,0E0,0E0,0E0,0E0],"parents":[2147483647,0,0,2,2,3,3,4,4,5,5,9,9,10,10,11,11,14,14,15,15,16,16],"right_children":[2,-1,4,6,8,10,-1,-1,-1,12,14,16,-1,-1,18,20,22,-1,-1,-1,-1,-1,-1],"split_conditions":[2.65E1,-6.2378254E-2,7.22E-1,1.67E2,9.17E-1,4.2E1,8.218012E-2,9.901858E-2,1.8577417E-2,4.18E1,4.5E1,7.2E1,4.790492E-2,8.098246E-2,2.99E-1,1.31E2,9.9E1,2.6622368E-2,-1.9634679E-2,-1.82509E-2,3.9218605E-2,-4.3968447E-2,-1.2865661E-1],"split_indices":[5,0,6,1,6,7,0,0,0,5,7,2,0,0,6,1,4,0,0,0,0,0,0],"split_type":[0,0,0,0,0,0,0,0,0,0,0,0,0,0,0,0,0,0,0,0,0,0,0],"sum_hessian":[9.775897E1,9.951825E0,8.7807144E1,7.2590775E1,1.5216367E1,6.661082E1,5.979958E0,7.238297E0,7.9780693E0,5.018614E1,1.6424679E1,4.2609875E1,7.5762653E0,5.4031672E0,1.1021512E1,2.6585417E1,1.6024458E1,5.863679E0,5.1578336E0,2.0218622E1,6.3667955E0,1.09679785E1,5.0564785E0],"tree_param":{"num_deleted":"0","num_feature":"8","num_nodes":"23","size_leaf_vector":"1"}},{"base_weights":[9.084977E-2,1.52605465E-2,6.2768064E-2,8.1114955E-2,-7.778323E-2,-5.0269085E-1,1.9129956E-1,-7.8772485E-2,-1.100131E-2,6.187653E-1,4.8461728E-2,8.146085E-2,3.555432E-2,-1.6809593E-1,4.2361137E-1,-8.171532E-2,4.2425703E-2,-1.9318918E-2,7.6060224E-1,3.462548E-2,-3.2311004E-2,1.09847955E-1,1.8624768E-2],"categories":[],"categories_nodes":[],"categories_segments":[],"categories_sizes":[],"default_left":[0,0,0,0,0,0,0,0,0,0,0,0,0,0,0,0,0,0,0,0,0,0,0],"id":29,"left_children":[1,3,-1,5,-1,7,9,-1,-1,11,13,-1,-1,15,17,-1,19,-1,21,-1,-1,-1,-1],"loss_changes":[3.9735181E0,4.6068387E0,0E0,5.05655E0,0E0,1.5049715E0,3.975066E0,0E0,0E0,6.4063597E-1,4.153618E0,0E0,0E0,4.817443E0,4.1088324E0,0E0,3.3634028E0,0E0,2.574913E0,0E0,0E0,0E0,0E0],"parents":[2147483647,0,0,1,1,3,3,5,5,6,6,9,9,10,10,13,13,14,14,16,16,18,18],"right_children":[2,4,-1,6,-1,8,10,-1,-1,12,14,-1,-1,16,18,-1,20,-1,22,-1,-1,-1,-1],"split_conditions":[1.67E2,4.2E1,6.2768064E-2,2.03E-1,-7.778323E-2,3.13E1,2.61E-1,-7.8772485E-2,-1.100131E-2,4E0,6.6E-1,8.146085E-2,3.555432E-2,9.6E1,2E0,-8.171532E-2,7.4E1,-1.9318918E-2,1.19E2,3.462548E-2,-3.2311004E-2,1.09847955E-1,1.8624768E-2],"split_indices":[1,3,0,6,0,5,6,0,0,0,6,0,0,1,0,0,2,0,1,0,0,0,0],"split_type":[0,0,0,0,0,0,0,0,0,0,0,0,0,0,0,0,0,0,0,0,0,0,0],"sum_hessian":[9.085383E1,8.118472E1,9.6691E0,7.611274E1,5.07199E0,1.1518812E1,6.4593925E1,5.575405E0,5.9434066E0,1.5343633E1,4.9250294E1,6.3728867E0,8.970745E0,3.157521E1,1.7675081E1,6.6023107E0,2.49729E1,6.308599E0,1.1366482E1,1.3574884E1,1.1398016E1,6.0091214E0,5.3573604E0],"tree_param":{"num_deleted":"0","num_feature":"8","num_nodes":"23","size_leaf_vector":"1"}},{"base_weights":[3.2923028E-2,-5.5664103E-2,7.074305E-1,-4.2933184E-1,3.7944015E-2,3.849703E-2,8.3790615E-2,-7.2569525E-1,1.9165821E-2,4.6252158E-1,-6.697245E-2,-3.444308E-2,-9.124804E-2,7.820118E-2,1.3518335E-2,-6.4138405E-2,3.742146E-2,-1.9306345E-1,3.1414607E-1,7.2003E-2,-5.910872E-2,6.0186677E-2,8.02804E-2,-4.084744E-2,3.454945E-2,-2.6790153E-2,2.9186198E-2],"categories":[],"categories_nodes":[],"categories_segments":[],"categories_sizes":[],"default_left":[0,0,0,0,0,0,0,0,0,0,0,0,0,0,0,0,0,0,0,0,0,0,0,0,0,0,0],"id":30,"left_children":[1,3,5,7,9,-1,-1,11,-1,13,15,-1,-1,-1,-1,-1,17,19,21,23,-1,-1,25,-1,-1,-1,-1],"loss_changes":[5.7996845E0,3.0292625E0,2.4546385E-1,3.3958805E0,3.1402826E0,0E0,0E0,6.9129944E-1,0E0,1.5107474E0,3.6579528E0,0E0,0E0,0E0,0E0,0E0,3.2184386E0,3.214881E0,1.6777425E0,2.8312519E0,0E0,0E0,1.2878747E0,0E0,0E0,0E0,0E0],"parents":[2147483647,0,0,1,1,2,2,3,3,4,4,7,7,9,9,10,10,16,16,17,17,18,18,19,19,22,22],"right_children":[2,4,6,8,10,-1,-1,12,-1,14,16,-1,-1,-1,-1,-1,18,20,22,24,-1,-1,26,-1,-1,-1,-1],"split_conditions":[4.18E1,2.33E-1,1.27E2,1.05E2,2.8E-1,3.849703E-2,8.3790615E-2,2.96E1,1.9165821E-2,1.16E2,3.23E-1,-3.444308E-2,-9.124804E-2,7.820118E-2,1.3518335E-2,-6.4138405E-2,1.28E2,1.1E2,2.4E1,5.03E-1,-5.910872E-2,6.0186677E-2,1.52E2,-4.084744E-2,3.454945E-2,-2.6790153E-2,2.9186198E-2],"split_indices":[5,6,1,4,6,0,0,5,0,1,6,0,0,0,0,0,1,1,3,6,0,0,4,0,0,0,0],"split_type":[0,0,0,0,0,0,0,0,0,0,0,0,0,0,0,0,0,0,0,0,0,0,0,0,0,0,0],"sum_hessian":[9.540248E1,8.513824E1,1.0264243E1,1.6337044E1,6.880119E1,5.072206E0,5.1920376E0,1.1022606E1,5.3144383E0,1.2957224E1,5.5843967E1,5.412879E0,5.6097274E0,5.2998304E0,7.657393E0,7.333988E0,4.850998E1,2.6631136E1,2.1878841E1,1.7032892E1,9.598244E0,8.462095E0,1.3416747E1,6.0950823E0,1.093781E1,5.085568E0,8.331179E0],"tree_param":{"num_deleted":"0","num_feature":"8","num_nodes":"27","size_leaf_vector":"1"}},{"base_weights":[-7.0068613E-3,-7.8332365E-2,5.1413435E-1,-1.6691247E-1,3.2050824E-1,2.368136E-2,6.476551E-2,4.899401E-2,-3.8707343E-1,3.3056634E-3,6.949361E-2,-4.5082867E-2,1.7270517E-1,-1.1235916E-1,-2.0232566E-1,5.0723124E-1,-2.5953364E-1,-4.1659066E-1,2.4495758E-2,7.38032E-3,7.37604E-2,-6.211485E-2,2.233083E-2,-1.3037959E-1,-8.338408E-2,-5.8904182E-2,4.0600404E-2],"categories":[],"categories_nodes":[],"categories_segments":[],"categories_sizes":[],"default_left":[0,0,0,0,0,0,0,0,0,0,0,0,0,0,0,0,0,0,0,0,0,0,0,0,0,0,0],"id":31,"left_children":[1,3,5,7,9,-1,-1,11,13,-1,-1,-1,15,-1,17,19,21,23,-1,-1,-1,-1,-1,25,-1,-1,-1],"loss_changes":[3.4666066E0,2.9487047E0,3.3564615E-1,3.2376866E0,1.7807332E0,0E0,0E0,2.366321E0,4.7473054E0,0E0,0E0,0E0,4.3442984E0,0E0,2.9323049E0,1.9079452E0,2.7961888E0,2.5385616E0,0E0,0E0,0E0,0E0,0E0,3.9977586E0,0E0,0E0,0E0],"parents":[2147483647,0,0,1,1,2,2,3,3,4,4,7,7,8,8,12,12,14,14,15,15,16,16,17,17,23,23],"right_children":[2,4,6,8,10,-1,-1,12,14,-1,-1,-1,16,-1,18,20,22,24,-1,-1,-1,-1,-1,26,-1,-1,-1],"split_conditions":[1.67E2,8E0,3.2E1,1.4E1,9.5E1,2.368136E-2,6.476551E-2,6.2E1,7.4E1,3.3056634E-3,6.949361E-2,-4.5082867E-2,7.8E1,-1.1235916E-1,3.8E1,3.09E1,3.23E-1,4E0,2.4495758E-2,7.38032E-3,7.37604E-2,-6.211485E-2,2.233083E-2,2.6E1,-8.338408E-2,-5.8904182E-2,4.0600404E-2],"split_indices":[1,0,3,4,4,0,0,2,4,0,0,0,2,0,3,5,6,0,0,0,0,0,0,7,0,0,0],"split_type":[0,0,0,0,0,0,0,0,0,0,0,0,0,0,0,0,0,0,0,0,0,0,0,0,0,0,0],"sum_hessian":[9.117843E1,8.09491E1,1.0229331E1,6.671386E1,1.4235242E1,5.006567E0,5.2227645E0,3.4074898E1,3.2638958E1,9.078443E0,5.1568E0,5.9407578E0,2.813414E1,5.089369E0,2.7549591E1,1.5761906E1,1.2372235E1,1.8883644E1,8.665946E0,6.6399918E0,9.121914E0,6.68207E0,5.690165E0,1.2494328E1,6.389317E0,6.583969E0,5.910359E0],"tree_param":{"num_deleted":"0","num_feature":"8","num_nodes":"27","size_leaf_vector":"1"}},{"base_weights":[-3.598165E-2,-6.501136E-1,6.506429E-2,-9.801624E-3,-9.408648E-2,-4.843857E-1,1.6534944E-1,-7.872216E-2,1.462582E-3,2.0541865E-2,5.052136E-1,2.6429337E-1,-3.785506E-1,1.8792778E-1,8.769926E-2,2.314899E-2,5.1870114E-1,-7.3387337E-1,1.4814672E-2,6.816725E-2,-2.5439318E-2,4.215512E-2,-5.196715E-2,7.360509E-2,1.2223621E-2,-8.922392E-2,-3.7339494E-2],"categories":[],"categories_nodes":[],"categories_segments":[],"categories_sizes":[],"default_left":[0,0,0,0,0,0,0,0,0,0,0,0,0,0,0,0,0,0,0,0,0,0,0,0,0,0,0],"id":32,"left_children":[1,3,5,-1,-1,7,9,-1,-1,11,13,15,17,19,-1,21,23,25,-1,-1,-1,-1,-1,-1,-1,-1,-1],"loss_changes":[5.664317E0,2.3341174E0,4.4168916E0,0E0,0E0,2.1774743E0,3.301928E0,0E0,0E0,4.7925043E0,2.520926E0,1.8613122E0,3.672954E0,3.3005118E0,0E0,4.303588E0,1.4020426E0,4.4141817E-1,0E0,0E0,0E0,0E0,0E0,0E0,0E0,0E0,0E0],"parents":[2147483647,0,0,1,1,2,2,5,5,6,6,9,9,10,10,11,11,12,12,13,13,15,15,16,16,17,17],"right_children":[2,4,6,-1,-1,8,10,-1,-1,12,14,16,18,20,-1,22,24,26,-1,-1,-1,-1,-1,-1,-1,-1,-1],"split_conditions":[9.7E1,3.17E-1,2.05E-1,-9.801624E-3,-9.408648E-2,1.33E2,4.1E1,-7.872216E-2,1.462582E-3,1.16E2,1.12E2,1.23E2,3.6E1,3.04E-1,8.769926E-2,3.38E1,3.89E-1,4.55E-1,1.4814672E-2,6.816725E-2,-2.5439318E-2,4.215512E-2,-5.196715E-2,7.360509E-2,1.2223621E-2,-8.922392E-2,-3.7339494E-2],"split_indices":[1,6,6,0,0,1,7,0,0,4,4,1,3,6,0,5,6,6,0,0,0,0,0,0,0,0,0],"split_type":[0,0,0,0,0,0,0,0,0,0,0,0,0,0,0,0,0,0,0,0,0,0,0,0,0,0,0],"sum_hessian":[8.959656E1,1.189117E1,7.770539E1,5.1156707E0,6.775499E0,1.1402487E1,6.63029E1,6.3204136E0,5.0820727E0,4.7236897E1,1.906601E1,2.9535454E1,1.7701443E1,1.1723726E1,7.342283E0,1.572308E1,1.3812374E1,1.04173565E1,7.284086E0,5.142222E0,6.5815043E0,9.173782E0,6.549297E0,7.672824E0,6.1395497E0,5.315617E0,5.1017394E0],"tree_param":{"num_deleted":"0","num_feature":"8","num_nodes":"27","size_leaf_vector":"1"}},{"base_weights":[-7.197524E-2,-1.6638604E-1,3.3562338E-1,-4.6668485E-1,-5.7002194E-3,-4.6054306E-3,5.6347903E-2,-7.091369E-1,-1.1528236E-1,-3.2425055E-1,2.1073091E-1,-1.0805457E-1,-1.5900198E-2,4.1936193E-2,-6.1637934E-2,-4.8125677E-2,-9.016793E-2,5.7160413E-1,-1.3061264E-1,3.590054E-2,-3.0147437E-2,8.1747614E-2,2.245461E-2,-3.9321795E-2,2.124096E-2],"categories":[],"categories_nodes":[],"categories_segments":[],"categories_sizes":[],"default_left":[0,0,0,0,0,0,0,0,0,0,0,0,0,0,0,0,0,0,0,0,0,0,0,0,0],"id":33,"left_children":[1,3,5,7,9,-1,-1,11,13,15,17,-1,-1,-1,-1,19,-1,21,23,-1,-1,-1,-1,-1,-1],"loss_changes":[3.476944E0,3.512681E0,1.7397301E0,2.0807014E0,3.4100351E0,0E0,0E0,3.2945485E0,3.7631044E0,3.436289E0,3.7044537E0,0E0,0E0,0E0,0E0,1.858463E0,0E0,1.2181649E0,1.7146386E0,0E0,0E0,0E0,0E0,0E0,0E0],"parents":[2147483647,0,0,1,1,2,2,3,3,4,4,7,7,8,8,9,9,10,10,15,15,17,17,18,18],"right_children":[2,4,6,8,10,-1,-1,12,14,16,18,-1,-1,-1,-1,20,-1,22,24,-1,-1,-1,-1,-1,-1],"split_conditions":[8E0,1.15E2,4.3E1,3.1E1,3.14E-1,-4.6054306E-3,5.6347903E-2,6.1E1,3.21E1,2.59E-1,5.59E-1,-1.0805457E-1,-1.5900198E-2,4.1936193E-2,-6.1637934E-2,7.2E1,-9.016793E-2,3.24E1,8.05E-1,3.590054E-2,-3.0147437E-2,8.1747614E-2,2.245461E-2,-3.9321795E-2,2.124096E-2],"split_indices":[0,1,7,7,6,0,0,4,5,6,6,0,0,0,0,2,0,5,6,0,0,0,0,0,0],"split_type":[0,0,0,0,0,0,0,0,0,0,0,0,0,0,0,0,0,0,0,0,0,0,0,0,0],"sum_hessian":[8.790199E1,7.1851135E1,1.6050863E1,2.4381418E1,4.7469715E1,6.8199835E0,9.230881E0,1.3824862E1,1.0556557E1,1.9002724E1,2.846699E1,7.043703E0,6.7811584E0,5.2576923E0,5.298865E0,1.3963497E1,5.039226E0,1.3509736E1,1.4957254E1,5.25676E0,8.706737E0,6.337132E0,7.172604E0,8.197589E0,6.7596655E0],"tree_param":{"num_deleted":"0","num_feature":"8","num_nodes":"25","size_leaf_vector":"1"}},{"base_weights":[8.865711E-2,-4.96265E-2,1.6125868E-1,2.207227E-1,-3.8267594E-2,-3.1567656E-2,2.8815892E-1,3.4081727E-1,-2.8983053E-2,2.5241187E-1,7.274279E-2,3.487785E-1,-2.120438E-2,4.8940334E-2,4.1054776E-3],"categories":[],"categories_nodes":[],"categories_segments":[],"categories_sizes":[],"default_left":[0,0,0,0,0,0,0,0,0,0,0,0,0,0,0],"id":34,"left_children":[1,-1,3,5,-1,-1,7,9,-1,11,-1,13,-1,-1,-1],"loss_changes":[4.1768193E0,0E0,2.8798146E0,2.9263623E0,0E0,0E0,2.234126E0,2.1937876E0,0E0,2.5444257E0,0E0,2.3065805E0,0E0,0E0,0E0],"parents":[2147483647,0,0,2,2,3,3,6,6,7,7,9,9,11,11],"right_children":[2,-1,4,6,-1,-1,8,10,-1,12,-1,14,-1,-1,-1],"split_conditions":[2.3E1,-4.96265E-2,5.7E1,9.5E1,-3.8267594E-2,-3.1567656E-2,2.55E2,1.71E2,-2.8983053E-2,3.8E1,7.274279E-2,4.9E1,-2.120438E-2,4.8940334E-2,4.1054776E-3],"split_indices":[7,0,7,1,0,0,4,4,0,3,0,4,0,0,0],"split_type":[0,0,0,0,0,0,0,0,0,0,0,0,0,0,0],"sum_hessian":[9.0780304E1,8.938106E0,8.184219E1,7.4619194E1,7.223004E0,7.656155E0,6.6963036E1,6.1911377E1,5.051659E0,5.2657932E1,9.253445E0,4.4030067E1,8.627866E0,2.7868689E1,1.6161379E1],"tree_param":{"num_deleted":"0","num_feature":"8","num_nodes":"15","size_leaf_vector":"1"}},{"base_weights":[2.7837938E-2,-2.8673643E-1,2.877868E-1,-6.9352336E-2,-1.2760693E-1,-3.344036E-2,4.117665E-1,-3.8397968E-1,3.0982494E-1,-3.9042127E-3,5.25029E-1,-6.55088E-1,2.2240205E-2,5.2623443E-2,2.7431804E-4,6.795138E-1,1.7115983E-1,6.3265017E-3,-1.25515E-1,1.1630679E-2,8.789669E-1,2.5052993E-2,4.5591434E-3,1.0480144E-1,3.1162987E-2],"categories":[],"categories_nodes":[],"categories_segments":[],"categories_sizes":[],"default_left":[0,0,0,0,0,0,0,0,0,0,0,0,0,0,0,0,0,0,0,0,0,0,0,0,0],"id":35,"left_children":[1,3,5,-1,7,-1,9,11,13,-1,15,17,-1,-1,-1,19,21,-1,-1,-1,23,-1,-1,-1,-1],"loss_changes":[7.0543094E0,2.6894696E0,3.9003556E0,0E0,3.4875774E0,0E0,2.0747714E0,3.4097989E0,8.8308656E-1,0E0,1.6373186E0,6.7789044E0,0E0,0E0,0E0,2.332304E0,1.1538684E-1,0E0,0E0,0E0,1.6636477E0,0E0,0E0,0E0,0E0],"parents":[2147483647,0,0,1,1,2,2,4,4,6,6,7,7,8,8,10,10,11,11,15,15,16,16,20,20],"right_children":[2,4,6,-1,8,-1,10,12,14,-1,16,18,-1,-1,-1,20,22,-1,-1,-1,24,-1,-1,-1,-1],"split_conditions":[3.43E-1,2.8E1,6.1E1,-6.9352336E-2,7.6E1,-3.344036E-2,1.03E2,1.44E2,3.7E1,-3.9042127E-3,1.65E2,7.5E1,2.2240205E-2,5.2623443E-2,2.7431804E-4,4.65E-1,1.49E2,6.3265017E-3,-1.25515E-1,1.1630679E-2,3.65E1,2.5052993E-2,4.5591434E-3,1.0480144E-1,3.1162987E-2],"split_indices":[6,7,2,0,4,0,1,1,7,0,4,2,0,0,0,6,1,0,0,0,5,0,0,0,0],"split_type":[0,0,0,0,0,0,0,0,0,0,0,0,0,0,0,0,0,0,0,0,0,0,0,0,0],"sum_hessian":[8.42576E1,3.807658E1,4.618102E1,9.03875E0,2.9037828E1,7.1756606E0,3.9005356E1,1.8384893E1,1.0652936E1,7.9273E0,3.1078056E1,1.2748158E1,5.6367354E0,5.4472613E0,5.205674E0,2.099309E1,1.0084967E1,6.588843E0,6.159315E0,5.966695E0,1.5026395E1,5.055107E0,5.02986E0,9.861371E0,5.165024E0],"tree_param":{"num_deleted":"0","num_feature":"8","num_nodes":"25","size_leaf_vector":"1"}},{"base_weights":[7.851647E-2,-6.222513E-2,1.4245313E-1,2.0159993E-1,-5.1687863E-2,-9.5634446E-2,3.425061E-1,-7.961E-2,2.0087807E-1,-2.2671413E-1,4.9855214E-1,4.7683504E-1,-3.174715E-2,4.377977E-2,-7.86585E-2,3.2573047E-1,9.198302E-2,7.074121E-2,5.312837E-3,1.11043476E-1,6.751287E-1,4.5615382E-2,-1.690438E-2,1.017572E-1,1.1971571E-2],"categories":[],"categories_nodes":[],"categories_segments":[],"categories_sizes":[],"default_left":[0,0,0,0,0,0,0,0,0,0,0,0,0,0,0,0,0,0,0,0,0,0,0,0,0],"id":36,"left_children":[1,-1,3,5,-1,7,9,-1,11,13,15,17,-1,-1,-1,19,-1,-1,-1,21,23,-1,-1,-1,-1],"loss_changes":[4.2935677E0,0E0,3.4880161E0,3.2571275E0,0E0,5.8286934E0,4.771527E0,0E0,2.9897783E0,5.394931E0,3.0901794E0,1.4490013E0,0E0,0E0,0E0,2.3193383E0,0E0,0E0,0E0,2.3483596E0,2.5000281E0,0E0,0E0,0E0,0E0],"parents":[2147483647,0,0,2,2,3,3,5,5,6,6,8,8,9,9,10,10,11,11,15,15,19,19,20,20],"right_children":[2,-1,4,6,-1,8,10,-1,12,14,16,18,-1,-1,-1,20,-1,-1,-1,22,24,-1,-1,-1,-1],"split_conditions":[9E1,-6.222513E-2,9.32E-1,2.7E1,-5.1687863E-2,3.09E1,2.17E-1,-7.961E-2,3.6E1,1.64E-1,3.78E1,1.22E2,-3.174715E-2,4.377977E-2,-7.86585E-2,9.5E1,9.198302E-2,7.074121E-2,5.312837E-3,7.4E1,4.34E-1,4.5615382E-2,-1.690438E-2,1.017572E-1,1.1971571E-2],"split_indices":[1,0,6,7,0,5,6,0,3,6,5,1,0,0,0,4,0,0,0,2,6,0,0,0,0],"split_type":[0,0,0,0,0,0,0,0,0,0,0,0,0,0,0,0,0,0,0,0,0,0,0,0,0],"sum_hessian":[8.808068E1,6.285562E0,8.179512E1,7.598676E1,5.808359E0,2.4540703E1,5.144606E1,6.447749E0,1.8092953E1,1.0971538E1,4.0474525E1,1.2025548E1,6.067405E0,5.2397847E0,5.7317524E0,3.0919312E1,9.555213E0,6.826614E0,5.1989346E0,1.9967894E1,1.0951417E1,8.45706E0,1.1510834E1,5.760539E0,5.1908774E0],"tree_param":{"num_deleted":"0","num_feature":"8","num_nodes":"25","size_leaf_vector":"1"}},{"base_weights":[-5.43004E-2,-1.6488002E-1,2.751003E-1,1.0681624E-2,-5.675198E-1,-1.134115E-1,6.6305056E-2,1.557146E-1,-3.2336062E-1,-9.522929E-2,-2.8599563E-1,3.3690296E-2,-5.4905187E-2,7.6153055E-2,-6.6682757E-3,-5.6849714E-2,1.1702314E-2,-5.1147982E-2,3.986974E-3,2.0085251E-1,-5.6816645E-2,5.1239435E-2,-5.2279398E-2,-2.9011754E-2,1.5330919E-2],"categories":[],"categories_nodes":[],"categories_segments":[],"categories_sizes":[],"default_left":[0,0,0,0,0,0,0,0,0,0,0,0,0,0,0,0,0,0,0,0,0,0,0,0,0],"id":37,"left_children":[1,3,5,7,9,11,-1,13,15,-1,17,-1,-1,-1,19,-1,-1,-1,-1,21,-1,-1,23,-1,-1],"loss_changes":[3.163697E0,4.580918E0,3.7108111E0,2.2813218E0,2.1524568E0,2.9182088E0,0E0,3.468917E0,1.852091E0,0E0,1.1467944E0,0E0,0E0,0E0,3.4822855E0,0E0,0E0,0E0,0E0,1.839119E0,0E0,0E0,7.576471E-1,0E0,0E0],"parents":[2147483647,0,0,1,1,2,2,3,3,4,4,5,5,7,7,8,8,10,10,14,14,19,19,22,22],"right_children":[2,4,6,8,10,12,-1,14,16,-1,18,-1,-1,-1,20,-1,-1,-1,-1,22,-1,-1,24,-1,-1],"split_conditions":[1.44E2,4.9E1,3.2E1,2.6E1,8.7E1,7E1,6.6305056E-2,2.6E1,4.41E-1,-9.522929E-2,3.2E1,3.3690296E-2,-5.4905187E-2,7.6153055E-2,5.43E-1,-5.6849714E-2,1.1702314E-2,-5.1147982E-2,3.986974E-3,7.4E1,-5.6816645E-2,5.1239435E-2,4.3E1,-2.9011754E-2,1.5330919E-2],"split_indices":[4,4,7,3,4,2,0,7,6,0,3,0,0,0,6,0,0,0,0,2,0,0,7,0,0],"split_type":[0,0,0,0,0,0,0,0,0,0,0,0,0,0,0,0,0,0,0,0,0,0,0,0,0],"sum_hessian":[8.460984E1,6.3718895E1,2.0890942E1,4.504956E1,1.8669336E1,1.1322371E1,9.568571E0,3.17837E1,1.3265859E1,6.270237E0,1.2399098E1,5.7664986E0,5.5558715E0,5.5562296E0,2.6227472E1,7.9613643E0,5.3044944E0,6.6054816E0,5.7936172E0,1.9935818E1,6.291654E0,7.9974303E0,1.1938387E1,5.259694E0,6.6786933E0],"tree_param":{"num_deleted":"0","num_feature":"8","num_nodes":"25","size_leaf_vector":"1"}},{"base_weights":[8.066409E-2,5.5600982E-2,1.818559E-2,-5.76521E-2,7.665768E-2,1.7426112E-1,-2.7020863E-1,1.6844207E-2,5.0595397E-1,-7.4186176E-2,1.4058614E-2,-5.8134157E-2,1.9450124E-1,9.290885E-1,-1.13125825E-2,5.2685326E-1,-1.6100787E-2,1.288084E-1,3.445495E-2,1.3251766E-2,7.827815E-2,2.2056382E-2,-4.4595502E-2],"categories":[],"categories_nodes":[],"categories_segments":[],"categories_sizes":[],"default_left":[0,0,0,0,0,0,0,0,0,0,0,0,0,0,0,0,0,0,0,0,0,0,0],"id":38,"left_children":[1,-1,3,-1,5,7,9,11,13,-1,-1,-1,15,17,-1,19,21,-1,-1,-1,-1,-1,-1],"loss_changes":[2.8494E0,0E0,3.0339558E0,0E0,2.5943933E0,3.089144E0,3.7694764E0,4.755945E0,5.157627E0,0E0,0E0,0E0,2.3166184E0,2.3199158E0,0E0,1.3801835E0,2.518996E0,0E0,0E0,0E0,0E0,0E0,0E0],"parents":[2147483647,0,0,2,2,4,4,5,5,6,6,7,7,8,8,12,12,13,13,15,15,16,16],"right_children":[2,-1,4,-1,6,8,10,12,14,-1,-1,-1,16,18,-1,20,22,-1,-1,-1,-1,-1,-1],"split_conditions":[5.4E1,5.5600982E-2,6.1E1,-5.76521E-2,3.87E1,5.01E-1,4.18E1,2.7E1,5E0,-7.4186176E-2,1.4058614E-2,-5.8134157E-2,3E1,6.5E1,-1.13125825E-2,1.3E1,2.9E1,1.288084E-1,3.445495E-2,1.3251766E-2,7.827815E-2,2.2056382E-2,-4.4595502E-2],"split_indices":[2,0,2,0,5,6,5,7,0,0,0,0,5,4,0,3,3,0,0,0,0,0,0],"split_type":[0,0,0,0,0,0,0,0,0,0,0,0,0,0,0,0,0,0,0,0,0,0,0],"sum_hessian":[8.910382E1,8.835345E0,8.026848E1,6.0275855E0,7.424089E1,5.8326283E1,1.5914607E1,4.026693E1,1.8059355E1,6.745617E0,9.16899E0,8.290735E0,3.1976194E1,1.0484632E1,7.5747237E0,1.1820521E1,2.0155672E1,5.1215305E0,5.3631015E0,5.8267164E0,5.9938054E0,1.334128E1,6.8143916E0],"tree_param":{"num_deleted":"0","num_feature":"8","num_nodes":"23","size_leaf_vector":"1"}},{"base_weights":[6.297006E-2,1.4321655E-1,-3.4540865E-1,-5.986245E-2,2.8708234E-1,-8.732955E-2,4.269363E-2,-4.114554E-2,9.764264E-2,1.6517496E-1,6.2237926E-2,3.4684065E-1,-4.4218823E-2,-1.5588617E-1,3.616844E-1,-2.1070782E-2,8.0617175E-2,1.5056808E-2,-4.5045864E-2,2.0119968E-1,6.9841824E-2,5.4686893E-2,-2.0288238E-2],"categories":[],"categories_nodes":[],"categories_segments":[],"categories_sizes":[],"default_left":[0,0,0,0,0,0,0,0,0,0,0,0,0,0,0,0,0,0,0,0,0,0,0],"id":39,"left_children":[1,3,5,7,9,-1,-1,-1,11,13,-1,15,-1,17,19,-1,-1,-1,-1,21,-1,-1,-1],"loss_changes":[2.9837518E0,2.2242036E0,7.3460946E0,1.9455919E0,1.9036899E0,0E0,0E0,0E0,3.4722304E0,2.2497935E0,0E0,5.062995E0,0E0,1.4830784E0,1.177098E0,0E0,0E0,0E0,0E0,2.7527974E0,0E0,0E0,0E0],"parents":[2147483647,0,0,1,1,2,2,3,3,4,4,8,8,9,9,11,11,13,13,14,14,19,19],"right_children":[2,4,6,8,10,-1,-1,-1,12,14,-1,16,-1,18,20,-1,-1,-1,-1,22,-1,-1,-1],"split_conditions":[8.6E1,3E0,1.38E2,6.1E1,6.52E-1,-8.732955E-2,4.269363E-2,-4.114554E-2,3.83E1,1.17E2,6.2237926E-2,3.29E1,-4.4218823E-2,3.25E1,8E1,-2.1070782E-2,8.0617175E-2,1.5056808E-2,-4.5045864E-2,1.4E1,6.9841824E-2,5.4686893E-2,-2.0288238E-2],"split_indices":[2,0,1,2,6,0,0,0,5,1,0,5,0,5,2,0,0,0,0,4,0,0,0],"split_type":[0,0,0,0,0,0,0,0,0,0,0,0,0,0,0,0,0,0,0,0,0,0,0],"sum_hessian":[8.853914E1,7.454111E1,1.3998035E1,3.1151695E1,4.338941E1,8.0159235E0,5.982112E0,8.678765E0,2.247293E1,3.3765545E1,9.623865E0,1.5870544E1,6.6023865E0,1.2898476E1,2.086707E1,7.7330055E0,8.137539E0,6.7616057E0,6.13687E0,1.5721576E1,5.1454926E0,8.033478E0,7.6880984E0],"tree_param":{"num_deleted":"0","num_feature":"8","num_nodes":"23","size_leaf_vector":"1"}},{"base_weights":[-1.2068451E-2,-4.6275616E-1,1.3085628E-1,-7.160383E-2,-2.8077257E-1,7.925226E-2,4.6540808E-2,-5.0589032E-2,1.2812505E-2,-3.6752094E-2,6.537321E-2,1.5489511E-1,-4.927349E-1,-1.2047249E-2,6.747809E-2,-8.338645E-2,1.8756723E-2,-1.9555938E-1,4.4755414E-2,1.3856187E-2,-8.141987E-2],"categories":[],"categories_nodes":[],"categories_segments":[],"categories_sizes":[],"default_left":[0,0,0,0,0,0,0,0,0,0,0,0,0,0,0,0,0,0,0,0,0],"id":40,"left_children":[1,3,5,-1,7,-1,9,-1,-1,11,-1,13,15,17,-1,-1,-1,19,-1,-1,-1],"loss_changes":[5.256114E0,8.4297705E-1,3.6646051E0,0E0,1.5311885E0,0E0,3.0627568E0,0E0,0E0,4.530919E0,0E0,3.4324753E0,4.30886E0,2.6976898E0,0E0,0E0,0E0,5.1255426E0,0E0,0E0,0E0],"parents":[2147483647,0,0,1,1,2,2,4,4,6,6,9,9,11,11,12,12,13,13,17,17],"right_children":[2,4,6,-1,8,-1,10,-1,-1,12,-1,14,16,18,-1,-1,-1,20,-1,-1,-1],"split_conditions":[2.9E1,2.9E1,5.4E1,-7.160383E-2,1.9E1,7.925226E-2,1.66E2,-5.0589032E-2,1.2812505E-2,1.37E2,6.537321E-2,7.22E-1,4.2E1,3.78E1,6.747809E-2,-8.338645E-2,1.8756723E-2,3.47E1,4.4755414E-2,1.3856187E-2,-8.141987E-2],"split_indices":[5,7,2,0,3,0,1,0,0,1,0,6,7,5,0,0,0,5,0,0,0],"split_type":[0,0,0,0,0,0,0,0,0,0,0,0,0,0,0,0,0,0,0,0,0],"sum_hessian":[7.9658325E1,1.8640635E1,6.1017693E1,5.8990374E0,1.2741598E1,5.5386133E0,5.547908E1,7.7264185E0,5.0151796E0,4.9975025E1,5.5040536E0,3.5651283E1,1.4323744E1,2.8212852E1,7.438431E0,8.979001E0,5.3447433E0,2.0912676E1,7.300176E0,1.4332613E1,6.580062E0],"tree_param":{"num_deleted":"0","num_feature":"8","num_nodes":"21","size_leaf_vector":"1"}},{"base_weights":[9.565928E-2,2.527173E-2,5.4534297E-2,-2.781654E-1,1.734376E-1,-7.196125E-2,7.093087E-2,2.6004267E-1,-4.44626E-2,-5.9523087E-2,4.4808645E-2,5.2449507E-1,9.728761E-2,1.6767422E-2,8.5609294E-2,-1.9205028E-1,3.3610195E-1,-5.6738924E-2,1.8666402E-2,1.7752083E-2,8.041003E-2,-1.1550667E-2,1.5436545E-2],"categories":[],"categories_nodes":[],"categories_segments":[],"categories_sizes":[],"default_left":[0,0,0,0,0,0,0,0,0,0,0,0,0,0,0,0,0,0,0,0,0,0,0],"id":41,"left_children":[1,3,-1,5,7,-1,9,11,-1,-1,-1,13,15,-1,-1,17,19,-1,-1,21,-1,-1,-1],"loss_changes":[2.9219465E0,3.492293E0,0E0,4.3634806E0,3.0284977E0,0E0,4.751395E0,1.9529097E0,0E0,0E0,0E0,2.1595402E0,2.1408637E0,0E0,0E0,2.3841763E0,2.7449942E0,0E0,0E0,2.5304225E-1,0E0,0E0,0E0],"parents":[2147483647,0,0,1,1,3,3,4,4,6,6,7,7,11,11,12,12,15,15,16,16,19,19],"right_children":[2,4,-1,6,8,-1,10,12,-1,-1,-1,14,16,-1,-1,18,20,-1,-1,22,-1,-1,-1],"split_conditions":[1.67E2,3.09E1,5.4534297E-2,1.3E1,1.53E2,-7.196125E-2,3E0,7E1,-4.44626E-2,-5.9523087E-2,4.4808645E-2,4.79E-1,3.5E1,1.6767422E-2,8.5609294E-2,8E1,1.06E2,-5.6738924E-2,1.8666402E-2,2.89E-1,8.041003E-2,-1.1550667E-2,1.5436545E-2],"split_indices":[1,5,0,3,1,0,0,2,0,0,0,6,7,0,0,2,4,0,0,6,0,0,0],"split_type":[0,0,0,0,0,0,0,0,0,0,0,0,0,0,0,0,0,0,0,0,0,0,0],"sum_hessian":[8.559778E1,7.560416E1,9.993627E0,2.451701E1,5.1087143E1,9.780539E0,1.4736472E1,4.5558815E1,5.5283294E0,5.177599E0,9.558873E0,1.6509983E1,2.9048832E1,9.418925E0,7.0910587E0,1.3223539E1,1.5825293E1,6.1898956E0,7.0336432E0,1.042142E1,5.4038725E0,5.3954296E0,5.02599E0],"tree_param":{"num_deleted":"0","num_feature":"8","num_nodes":"23","size_leaf_vector":"1"}},{"base_weights":[-1.6045402E-3,4.8558727E-2,-5.0721288E-2,-3.9597484E-1,3.5171293E-2,-6.40137E-2,1.2919874E-2,2.3445192E-1,-8.414159E-2,5.8919454E-1,-1.2017464E-1,-4.3667442E-1,1.17749795E-1,1.1810992E-2,8.977293E-2,-4.9538303E-2,2.6983958E-2,3.954026E-3,-6.8283305E-2,4.0305576E-1,-1.5164839E-1,7.048025E-2,1.2516086E-3,2.557065E-2,-5.9896227E-2],"categories":[],"categories_nodes":[],"categories_segments":[],"categories_sizes":[],"default_left":[0,0,0,0,0,0,0,0,0,0,0,0,0,0,0,0,0,0,0,0,0,0,0,0,0],"id":42,"left_children":[1,-1,3,5,7,-1,-1,9,11,13,15,17,19,-1,-1,-1,-1,-1,-1,21,23,-1,-1,-1,-1],"loss_changes":[2.1148672E0,0E0,2.2735052E0,2.3841302E0,1.4923381E0,0E0,0E0,3.0219326E0,2.861076E0,1.8763714E0,2.2115097E0,2.0290246E0,2.0509562E0,0E0,0E0,0E0,0E0,0E0,0E0,1.7087564E0,3.0338764E0,0E0,0E0,0E0,0E0],"parents":[2147483647,0,0,2,2,3,3,4,4,7,7,8,8,9,9,10,10,11,11,12,12,19,19,20,20],"right_children":[2,-1,4,6,8,-1,-1,10,12,14,16,18,20,-1,-1,-1,-1,-1,-1,22,24,-1,-1,-1,-1],"split_conditions":[5.2E1,4.8558727E-2,1.04E2,6E-1,1.5E1,-6.40137E-2,1.2919874E-2,2.8E-1,1.28E2,3.29E1,4.96E-1,7.5E1,3E1,1.1810992E-2,8.977293E-2,-4.9538303E-2,2.6983958E-2,3.954026E-3,-6.8283305E-2,4E-1,1.53E2,7.048025E-2,1.2516086E-3,2.557065E-2,-5.9896227E-2],"split_indices":[2,0,1,6,3,0,0,6,1,5,6,4,7,0,0,0,0,0,0,6,1,0,0,0,0],"split_type":[0,0,0,0,0,0,0,0,0,0,0,0,0,0,0,0,0,0,0,0,0,0,0,0,0],"sum_hessian":[8.145573E1,6.2594767E0,7.519625E1,1.4261331E1,6.093492E1,9.149429E0,5.111901E0,2.2458656E1,3.8476265E1,1.0896819E1,1.1561837E1,1.3587508E1,2.4888758E1,5.3591676E0,5.5376515E0,5.6454744E0,5.9163623E0,5.4060545E0,8.181454E0,1.1846546E1,1.3042211E1,5.8135247E0,6.033022E0,7.1886024E0,5.8536086E0],"tree_param":{"num_deleted":"0","num_feature":"8","num_nodes":"25","size_leaf_vector":"1"}},{"base_weights":[1.4786677E-2,7.756087E-2,-7.327959E-2,-4.940781E-2,4.3364286E-1,-3.528936E-1,1.063573E-1,1.9275048E-1,9.071424E-2,-7.535281E-2,-1.4297566E-1,2.4085042E-1,-5.7867035E-2,-1.8419787E-2,4.648372E-2,-4.9541596E-2,1.7121108E-2,6.152294E-2,7.7980965E-2,3.2773653E-1,-1.7618217E-1,-4.2267162E-3,5.8208335E-2,-5.3563125E-2,3.141256E-2],"categories":[],"categories_nodes":[],"categories_segments":[],"categories_sizes":[],"default_left":[0,0,0,0,0,0,0,0,0,0,0,0,0,0,0,0,0,0,0,0,0,0,0,0,0],"id":43,"left_children":[1,3,-1,5,7,9,11,13,-1,-1,15,17,-1,-1,-1,-1,-1,-1,19,21,23,-1,-1,-1,-1],"loss_changes":[4.2308893E0,3.5821102E0,0E0,2.8244038E0,2.4551444E0,1.7752221E0,3.9894955E0,1.8988976E0,0E0,0E0,1.9463089E0,2.2351007E0,0E0,0E0,0E0,0E0,0E0,0E0,1.6835207E0,1.4537662E0,2.842948E0,0E0,0E0,0E0,0E0],"parents":[2147483647,0,0,1,1,3,3,4,4,5,5,6,6,7,7,10,10,11,11,18,18,19,19,20,20],"right_children":[2,4,-1,6,8,10,12,14,-1,-1,16,18,-1,-1,-1,-1,-1,-1,20,22,24,-1,-1,-1,-1],"split_conditions":[5.7E1,4.1E1,-7.327959E-2,3.09E1,1.47E2,2E0,6E0,2.4E1,9.071424E-2,-7.535281E-2,1.3E1,2.51E-1,-5.7867035E-2,-1.8419787E-2,4.648372E-2,-4.9541596E-2,1.7121108E-2,6.152294E-2,2E0,2.5E1,3.2E1,-4.2267162E-3,5.8208335E-2,-5.3563125E-2,3.141256E-2],"split_indices":[7,7,0,5,1,0,0,3,0,0,3,6,0,0,0,0,0,0,0,7,3,0,0,0,0],"split_type":[0,0,0,0,0,0,0,0,0,0,0,0,0,0,0,0,0,0,0,0,0,0,0,0,0],"sum_hessian":[8.3027916E1,7.7756584E1,5.271332E0,5.7953327E1,1.9803257E1,1.9226915E1,3.8726414E1,1.4527027E1,5.276231E0,5.2653184E0,1.3961597E1,3.318466E1,5.5417523E0,6.4815745E0,8.045453E0,6.130081E0,7.831516E0,8.573228E0,2.4611433E1,1.2267347E1,1.2344086E1,5.724039E0,6.5433083E0,6.915469E0,5.428617E0],"tree_param":{"num_deleted":"0","num_feature":"8","num_nodes":"25","size_leaf_vector":"1"}},{"base_weights":[3.808533E-2,-4.7089364E-2,1.0919605E-1,3.0099094E-1,-8.0756776E-2,1.151196E-1,6.2776697E-1,-6.892427E-2,8.620274E-2,3.429885E-1,-9.716107E-2,8.4804535E-2,3.2700695E-2,-2.6842505E-1,3.0918473E-1,-1.105145E-2,6.6092476E-2,2.130323E-2,-3.5350636E-2,-7.985587E-2,4.025755E-2,-6.7164614E-3,6.308806E-2],"categories":[],"categories_nodes":[],"categories_segments":[],"categories_sizes":[],"default_left":[0,0,0,0,0,0,0,0,0,0,0,0,0,0,0,0,0,0,0,0,0,0,0],"id":44,"left_children":[1,-1,3,5,7,9,11,-1,13,15,17,-1,-1,19,21,-1,-1,-1,-1,-1,-1,-1,-1],"loss_changes":[3.2318323E0,0E0,2.7325287E0,2.1872196E0,4.1953897E0,1.2395887E0,6.978679E-1,0E0,2.552314E0,2.0921807E0,1.3088074E0,0E0,0E0,5.407968E0,2.7270522E0,0E0,0E0,0E0,0E0,0E0,0E0,0E0,0E0],"parents":[2147483647,0,0,2,2,3,3,4,4,5,5,6,6,8,8,9,9,10,10,13,13,14,14],"right_children":[2,-1,4,6,8,10,12,-1,14,16,18,-1,-1,20,22,-1,-1,-1,-1,-1,-1,-1,-1],"split_conditions":[1.97E-1,-4.7089364E-2,3.7E1,2E1,8.8E1,7.4E1,3.1E1,-6.892427E-2,3.42E1,1.24E2,2.8E-1,8.4804535E-2,3.2700695E-2,1.44E2,3.1E1,-1.105145E-2,6.6092476E-2,2.130323E-2,-3.5350636E-2,-7.985587E-2,4.025755E-2,-6.7164614E-3,6.308806E-2],"split_indices":[6,0,4,3,4,2,3,0,5,1,6,0,0,1,7,0,0,0,0,0,0,0,0],"split_type":[0,0,0,0,0,0,0,0,0,0,0,0,0,0,0,0,0,0,0,0,0,0,0],"sum_hessian":[8.225703E1,8.920647E0,7.333638E1,3.6200386E1,3.7135994E1,2.3937145E1,1.2263242E1,6.9086466E0,3.0227346E1,1.1247735E1,1.268941E1,5.1405797E0,7.122662E0,1.1590369E1,1.8636978E1,5.206974E0,6.040761E0,5.9485383E0,6.7408724E0,6.212322E0,5.378047E0,9.436743E0,9.200234E0],"tree_param":{"num_deleted":"0","num_feature":"8","num_nodes":"23","size_leaf_vector":"1"}},{"base_weights":[6.1620675E-2,-7.41156E-2,3.721422E-1,1.9322643E-1,-4.640045E-1,6.3382196E-1,-3.264893E-2,-4.1653823E-2,5.839993E-1,-7.044174E-1,2.6634818E-2,4.1651902E-1,8.872913E-2,1.6401869E-1,-5.129359E-2,2.8154675E-2,7.3053785E-2,-1.890269E-2,-1.13700055E-1,5.4137092E-2,1.5267661E-2,-3.204642E-2,4.5539226E-2],"categories":[],"categories_nodes":[],"categories_segments":[],"categories_sizes":[],"default_left":[0,0,0,0,0,0,0,0,0,0,0,0,0,0,0,0,0,0,0,0,0,0,0],"id":45,"left_children":[1,3,5,7,9,11,-1,13,15,17,-1,19,-1,21,-1,-1,-1,-1,-1,-1,-1,-1,-1],"loss_changes":[3.3164718E0,5.83605E0,4.7085896E0,3.09092E0,4.273412E0,7.9551077E-1,0E0,2.3375568E0,4.5258665E-1,4.158642E0,0E0,3.961525E-1,0E0,2.762421E0,0E0,0E0,0E0,0E0,0E0,0E0,0E0,0E0,0E0],"parents":[2147483647,0,0,1,1,2,2,3,3,4,4,5,5,7,7,8,8,9,9,11,11,13,13],"right_children":[2,4,6,8,10,12,-1,14,16,18,-1,20,-1,22,-1,-1,-1,-1,-1,-1,-1,-1,-1],"split_conditions":[4.1E1,1E2,5.7E1,4.79E-1,1.58E2,1.44E2,-3.264893E-2,3.38E-1,6.78E-1,7.2E1,2.6634818E-2,1.13E2,8.872913E-2,2.38E-1,-5.129359E-2,2.8154675E-2,7.3053785E-2,-1.890269E-2,-1.13700055E-1,5.4137092E-2,1.5267661E-2,-3.204642E-2,4.5539226E-2],"split_indices":[7,4,7,6,1,1,0,6,6,2,0,1,0,6,0,0,0,0,0,0,0,0,0],"split_type":[0,0,0,0,0,0,0,0,0,0,0,0,0,0,0,0,0,0,0,0,0,0,0],"sum_hessian":[7.703002E1,5.412989E1,2.2900131E1,3.2410686E1,2.1719204E1,1.6868088E1,6.032044E0,2.08012E1,1.1609488E1,1.6467987E1,5.2512174E0,1.1239989E1,5.6280985E0,1.522823E1,5.57297E0,5.653631E0,5.955856E0,8.891577E0,7.57641E0,6.1869307E0,5.053059E0,5.872075E0,9.356155E0],"tree_param":{"num_deleted":"0","num_feature":"8","num_nodes":"23","size_leaf_vector":"1"}},{"base_weights":[3.8812938E-3,9.047208E-2,-8.340045E-2,4.6690423E-3,5.8616024E-1,1.4452809E-1,-4.4389847E-1,2.582441E-2,7.60293E-2,2.5064507E-1,-6.435149E-2,4.1392507E-4,-7.04495E-2,1.3195144E-1,7.484043E-2,3.9472613E-1,-1.4672531E-1,6.258882E-2,-6.225626E-3,-5.6141376E-2,1.4834318E-2],"categories":[],"categories_nodes":[],"categories_segments":[],"categories_sizes":[],"default_left":[0,0,0,0,0,0,0,0,0,0,0,0,0,0,0,0,0,0,0,0,0],"id":46,"left_children":[1,3,-1,5,7,9,11,-1,-1,13,-1,-1,-1,15,-1,17,19,-1,-1,-1,-1],"loss_changes":[6.3955727E0,3.2222967E0,0E0,4.1825447E0,5.451107E-1,4.622762E0,2.149132E0,0E0,0E0,2.8371186E0,0E0,0E0,0E0,2.893637E0,0E0,2.5374296E0,2.7486515E0,0E0,0E0,0E0,0E0],"parents":[2147483647,0,0,1,1,3,3,4,4,5,5,6,6,9,9,13,13,15,15,16,16],"right_children":[2,4,-1,6,8,10,12,-1,-1,14,-1,-1,-1,16,-1,18,20,-1,-1,-1,-1],"split_conditions":[5.4E1,1.6E2,-8.340045E-2,1.37E2,2.9E1,8.6E1,2.5E1,2.582441E-2,7.60293E-2,8E1,-6.435149E-2,4.1392507E-4,-7.04495E-2,4.9E1,7.484043E-2,3.8E-1,9.5E1,6.258882E-2,-6.225626E-3,-5.6141376E-2,1.4834318E-2],"split_indices":[7,1,0,1,7,2,3,0,0,2,0,0,0,4,0,6,4,0,0,0,0],"split_type":[0,0,0,0,0,0,0,0,0,0,0,0,0,0,0,0,0,0,0,0,0],"sum_hessian":[8.123407E1,7.482686E1,6.4072113E0,6.464611E1,1.0180747E1,4.979752E1,1.4848588E1,5.1175766E0,5.0631704E0,4.47449E1,5.05262E0,6.373938E0,8.47465E0,3.7723907E1,7.020992E0,1.9201588E1,1.8522322E1,1.1862156E1,7.3394322E0,7.1008453E0,1.1421476E1],"tree_param":{"num_deleted":"0","num_feature":"8","num_nodes":"21","size_leaf_vector":"1"}},{"base_weights":[5.389793E-3,-1.1879743E-1,1.9426447E-1,-3.924749E-1,1.0050074E-1,3.681615E-1,-2.446361E-2,-4.533676E-2,-8.326538E-2,3.9122918E-1,-2.8851765E-1,3.3300564E-2,8.227381E-2,-5.261893E-2,4.438479E-2,1.4618312E-1,7.8283295E-2,2.157061E-2,-6.0236346E-2,3.938941E-2,-2.3784427E-2,5.9828307E-2,-3.923647E-2],"categories":[],"categories_nodes":[],"categories_segments":[],"categories_sizes":[],"default_left":[0,0,0,0,0,0,0,0,0,0,0,0,0,0,0,0,0,0,0,0,0,0,0],"id":47,"left_children":[1,3,5,7,9,11,-1,13,-1,15,17,19,-1,-1,-1,21,-1,-1,-1,-1,-1,-1,-1],"loss_changes":[2.011342E0,3.145997E0,2.7758455E0,3.9045541E0,3.4528635E0,4.1799E0,0E0,4.123222E0,0E0,1.7368906E0,2.5300126E0,1.8603879E0,0E0,0E0,0E0,3.6350908E0,0E0,0E0,0E0,0E0,0E0,0E0,0E0],"parents":[2147483647,0,0,1,1,2,2,3,3,4,4,5,5,7,7,9,9,10,10,11,11,15,15],"right_children":[2,4,6,8,10,12,-1,14,-1,16,18,20,-1,-1,-1,22,-1,-1,-1,-1,-1,-1,-1],"split_conditions":[1.34E2,2.2E1,5.46E-1,3.21E1,3.52E1,3.42E-1,-2.446361E-2,2.79E1,-8.326538E-2,3.35E1,1.01E2,7.4E1,8.227381E-2,-5.261893E-2,4.438479E-2,3.24E-1,7.8283295E-2,2.157061E-2,-6.0236346E-2,3.938941E-2,-2.3784427E-2,5.9828307E-2,-3.923647E-2],"split_indices":[1,3,6,5,5,6,0,5,0,5,1,2,0,0,0,6,0,0,0,0,0,0,0],"split_type":[0,0,0,0,0,0,0,0,0,0,0,0,0,0,0,0,0,0,0,0,0,0,0],"sum_hessian":[8.376633E1,5.0761253E1,3.300507E1,2.2229647E1,2.8531609E1,2.3989664E1,9.015408E0,1.3641471E1,8.588175E0,1.6325357E1,1.2206251E1,1.5041676E1,8.9479885E0,6.803158E0,6.838313E0,1.13207655E1,5.004591E0,5.06155E0,7.144701E0,6.21467E0,8.827005E0,5.9930263E0,5.3277397E0],"tree_param":{"num_deleted":"0","num_feature":"8","num_nodes":"23","size_leaf_vector":"1"}},{"base_weights":[-7.43171E-2,4.8366103E-2,-1.3914776E-1,-3.0919468E-1,1.9593292E-1,-4.3919563E-1,3.6556683E-2,-7.4667625E-2,6.757864E-2,-2.7724373E-1,-7.527785E-1,-3.331227E-2,1.6253266E-2,-4.441941E-1,1.8282574E-2,-3.1389117E-2,-1.0942498E-1,4.141235E-3,-6.199293E-1,-3.4081995E-2,-9.116165E-2],"categories":[],"categories_nodes":[],"categories_segments":[],"categories_sizes":[],"default_left":[0,0,0,0,0,0,0,0,0,0,0,0,0,0,0,0,0,0,0,0,0],"id":48,"left_children":[1,-1,3,5,7,9,-1,11,-1,13,15,-1,-1,17,-1,-1,-1,-1,19,-1,-1],"loss_changes":[3.2479386E0,0E0,4.3924217E0,4.769932E0,3.7380188E0,1.9899082E0,0E0,1.3051096E0,0E0,2.454434E0,2.0311222E0,0E0,0E0,1.9609838E0,0E0,0E0,0E0,0E0,1.140594E0,0E0,0E0],"parents":[2147483647,0,0,2,2,3,3,4,4,5,5,7,7,9,9,10,10,13,13,18,18],"right_children":[2,-1,4,6,8,10,-1,12,-1,14,16,-1,-1,18,-1,-1,-1,-1,20,-1,-1],"split_conditions":[5.4E1,4.8366103E-2,4.1E1,1.58E2,1.06E2,3.4E1,3.6556683E-2,1.22E2,6.757864E-2,6.26E-1,5.36E-1,-3.331227E-2,1.6253266E-2,2.29E-1,1.8282574E-2,-3.1389117E-2,-1.0942498E-1,4.141235E-3,2.7E1,-3.4081995E-2,-9.116165E-2],"split_indices":[2,0,7,1,4,3,0,1,0,6,6,0,0,6,0,0,0,0,3,0,0],"split_type":[0,0,0,0,0,0,0,0,0,0,0,0,0,0,0,0,0,0,0,0,0],"sum_hessian":[8.2556E1,7.5313754E0,7.502462E1,4.9819466E1,2.5205156E1,4.2292225E1,7.527244E0,1.7136894E1,8.068262E0,2.9131294E1,1.316093E1,7.8556967E0,9.281197E0,2.1547342E1,7.5839524E0,7.357728E0,5.803201E0,5.9033527E0,1.5643989E1,1.0106729E1,5.5372605E0],"tree_param":{"num_deleted":"0","num_feature":"8","num_nodes":"21","size_leaf_vector":"1"}},{"base_weights":[2.2267355E-2,-1.3341011E-1,2.6301926E-1,-2.5499496E-1,4.3924525E-2,4.9442878E-1,-2.364288E-2,-4.2834243E-1,1.9046964E-1,9.810141E-3,6.851628E-1,-1.199123E-1,-8.3131355E-1,4.3158058E-2,-1.30323535E-2,9.480147E-2,2.3296967E-2,-4.9541343E-2,1.5595666E-1,-4.193226E-2,-1.08862765E-1,4.921203E-2,-2.3397405E-2],"categories":[],"categories_nodes":[],"categories_segments":[],"categories_sizes":[],"default_left":[0,0,0,0,0,0,0,0,0,0,0,0,0,0,0,0,0,0,0,0,0,0,0],"id":49,"left_children":[1,3,5,7,-1,9,-1,11,13,-1,15,17,19,-1,-1,-1,-1,-1,21,-1,-1,-1,-1],"loss_changes":[3.0316522E0,3.7000926E0,3.8935676E0,3.2903647E0,0E0,1.5832753E0,0E0,3.6564412E0,1.1425753E0,0E0,1.8122029E0,2.1231768E0,1.098073E0,0E0,0E0,0E0,0E0,0E0,1.8454355E0,0E0,0E0,0E0,0E0],"parents":[2147483647,0,0,1,1,2,2,3,3,5,5,7,7,8,8,10,10,11,11,12,12,18,18],"right_children":[2,4,6,8,-1,10,-1,12,14,-1,16,18,20,-1,-1,-1,-1,-1,22,-1,-1,-1,-1],"split_conditions":[4.96E-1,3.92E1,1.39E2,1.1E2,4.3924525E-2,3.23E1,-2.364288E-2,1.9E1,2.61E-1,9.810141E-3,1.14E2,3E1,1.4E1,4.3158058E-2,-1.30323535E-2,9.480147E-2,2.3296967E-2,-4.9541343E-2,7.4E1,-4.193226E-2,-1.08862765E-1,4.921203E-2,-2.3397405E-2],"split_indices":[6,5,1,4,0,5,0,3,6,0,1,5,4,0,0,0,0,0,2,0,0,0,0],"split_type":[0,0,0,0,0,0,0,0,0,0,0,0,0,0,0,0,0,0,0,0,0,0,0],"sum_hessian":[7.895174E1,4.821823E1,3.0733507E1,4.0553635E1,7.664596E0,2.1209566E1,9.523941E0,2.9221039E1,1.1332597E1,7.46613E0,1.3743436E1,1.7287174E1,1.1933864E1,6.0404134E0,5.292184E0,7.21306E0,6.530376E0,6.6425104E0,1.0644665E1,6.4914E0,5.4424634E0,5.436758E0,5.2079062E0],"tree_param":{"num_deleted":"0","num_feature":"8","num_nodes":"23","size_leaf_vector":"1"}}]},"name":"gbtree"},"learner_model_param":{"base_score":"5E-1","boost_from_average":"1","num_class":"0","num_feature":"8","num_target":"1"},"objective":{"name":"binary:logistic","reg_loss_param":{"scale_pos_weight":"1.92380953"}}},"version":[2,1,2]}