{"learner":{"attributes":{"scikit_learn":"{\"_estimator_type\": \"classifier\"}"},"feature_names":["Pregnancies","Glucose","Insulin","BMI","DiabetesPedigreeFunction","Age"],"feature_types":["float","float","float","float","float","float"],"gradient_booster":{"model":{"gbtree_model_param":{"num_parallel_tree":"1","num_trees":"150"},"iteration_indptr":[0,1,2,3,4,5,6,7,8,9,10,11,12,13,14,15,16,17,18,19,20,21,22,23,24,25,26,27,28,29,30,31,32,33,34,35,36,37,38,39,40,41,42,43,44,45,46,47,48,49,50,51,52,53,54,55,56,57,58,59,60,61,62,63,64,65,66,67,68,69,70,71,72,73,74,75,76,77,78,79,80,81,82,83,84,85,86,87,88,89,90,91,92,93,94,95,96,97,98,99,100,101,102,103,104,105,106,107,108,109,110,111,112,113,114,115,116,117,118,119,120,121,122,123,124,125,126,127,128,129,130,131,132,133,134,135,136,137,138,139,140,141,142,143,144,145,146,147,148,149,150],"tree_info":[0,0,0,0,0,0,0,0,0,0,0,0,0,0,0,0,0,0,0,0,0,0,0,0,0,0,0,0,0,0,0,0,0,0,0,0,0,0,0,0,0,0,0,0,0,0,0,0,0,0,0,0,0,0,0,0,0,0,0,0,0,0,0,0,0,0,0,0,0,0,0,0,0,0,0,0,0,0,0,0,0,0,0,0,0,0,0,0,0,0,0,0,0,0,0,0,0,0,0,0,0,0,0,0,0,0,0,0,0,0,0,0,0,0,0,0,0,0,0,0,0,0,0,0,0,0,0,0,0,0,0,0,0,0,0,0,0,0,0,0,0,0,0,0,0,0,0,0,0,0],"trees":[{"base_weights":[-0E0,-7.020545E-1,1.0471498E0,-9.1093206E-1,8.742776E-2,-0E0,1.4807022E0,-9.708571E-1,2.0306341E-2,-4.011306E-2,5.60668E-1,-4.8298024E-2,3.398688E-1,2.5939927E-1,1.6830124E0,-6.099954E-2,-2.509933E-1,-4.433514E-2,9.158754E-1,-1.01550914E-1,1.0188314E0,-1.1958915E-1,5.9843037E-2,9.1731304E-1,1.0830639E-1,3.2237243E-2,-5.418075E-1,-1.800358E-2,-0E0,-1.8246889E-3,6.739729E-2,-3.5094E-1,6.478615E-3,7.2630085E-2,-0E0,-2.717936E-2,6.478615E-3,-0E0,1.2150697E0,-4.398572E-2,-0E0,-3.2982893E-2,-0E0,-8.672904E-3,6.478615E-3,7.310142E-2,-0E0],"categories":[],"categories_nodes":[],"categories_segments":[],"categories_sizes":[],"default_left":[0,0,0,0,0,0,0,0,0,0,0,0,0,0,0,0,0,0,0,0,0,0,0,0,0,0,0,0,0,0,0,0,0,0,0,0,0,0,0,0,0,0,0,0,0,0,0],"id":0,"left_children":[1,3,5,7,9,11,13,15,-1,-1,17,-1,19,21,23,-1,25,27,29,31,33,35,-1,37,-1,-1,39,-1,-1,-1,-1,41,-1,-1,-1,-1,-1,43,45,-1,-1,-1,-1,-1,-1,-1,-1],"loss_changes":[8.254726E1,1.1942665E1,2.0708878E1,5.1676865E0,5.8579297E0,4.8363338E0,5.539032E0,5.7650795E0,0E0,0E0,3.1237345E0,0E0,4.308838E0,3.3267007E0,3.070984E0,0E0,3.715982E0,2.4620911E-1,3.998433E0,6.4544135E-1,2.1253152E0,9.127696E-1,0E0,3.3826323E0,0E0,0E0,2.2730691E0,0E0,0E0,0E0,0E0,4.4072825E-1,0E0,0E0,0E0,0E0,0E0,1.04163125E-1,1.2063599E0,0E0,0E0,0E0,0E0,0E0,0E0,0E0,0E0],"parents":[2147483647,0,0,1,1,2,2,3,3,4,4,5,5,6,6,7,7,10,10,12,12,13,13,14,14,16,16,17,17,18,18,19,19,20,20,21,21,23,23,26,26,31,31,37,37,38,38],"right_children":[2,4,6,8,10,12,14,16,-1,-1,18,-1,20,22,24,-1,26,28,30,32,34,36,-1,38,-1,-1,40,-1,-1,-1,-1,42,-1,-1,-1,-1,-1,44,46,-1,-1,-1,-1,-1,-1,-1,-1],"split_conditions":[1.25E2,6.6E-1,3E1,4.56E1,2.62E1,2.3E1,2.5E1,3.6E1,2.0306341E-2,-4.011306E-2,2.8E1,-4.8298024E-2,7.6E1,1.59E2,3.42E-1,-6.099954E-2,3E0,2E0,9.7E1,1.63E2,4.52E-1,5.26E-1,5.9843037E-2,3.1E1,1.0830639E-1,3.2237243E-2,9E0,-1.800358E-2,-0E0,-1.8246889E-3,6.739729E-2,2.17E-1,6.478615E-3,7.2630085E-2,-0E0,-2.717936E-2,6.478615E-3,4.07E1,2.89E-1,-4.398572E-2,-0E0,-3.2982893E-2,-0E0,-8.672904E-3,6.478615E-3,7.310142E-2,-0E0],"split_indices":[1,4,3,3,3,5,5,5,0,0,5,0,2,1,4,0,0,0,1,1,4,4,0,5,0,0,0,0,0,0,0,4,0,0,0,0,0,3,4,0,0,0,0,0,0,0,0],"split_type":[0,0,0,0,0,0,0,0,0,0,0,0,0,0,0,0,0,0,0,0,0,0,0,0,0,0,0,0,0,0,0,0,0,0,0,0,0,0,0,0,0,0,0,0,0,0,0],"sum_hessian":[1.1013437E2,6.594465E1,4.4189716E1,5.3027657E1,1.2916994E1,1.3143607E1,3.1046108E1,5.1667976E1,1.3596835E0,3.6258228E0,9.291171E0,3.172595E0,9.971013E0,5.438734E0,2.5607374E1,3.8977596E1,1.269038E1,2.719367E0,6.5718036E0,5.665348E0,4.3056645E0,3.6258228E0,1.8129114E0,1.0650854E1,1.4956519E1,2.0395253E0,1.0650854E1,1.1330696E0,1.5862975E0,1.3596835E0,5.21212E0,4.5322785E0,1.1330696E0,2.945981E0,1.3596835E0,2.4927533E0,1.1330696E0,2.719367E0,7.9314876E0,7.0250316E0,3.6258228E0,1.8129114E0,2.719367E0,1.5862975E0,1.1330696E0,6.34519E0,1.5862975E0],"tree_param":{"num_deleted":"0","num_feature":"6","num_nodes":"47","size_leaf_vector":"1"}},{"base_weights":[5.101672E-2,-3.991694E-1,1.4542565E0,-1.0501083E0,6.9228937E-3,2.964573E-1,1.7355524E0,-1.2960104E0,-5.0365716E-1,-5.476259E-1,5.822572E-1,-1.8262811E-2,6.305757E-1,1.8252904E0,-0E0,-6.961926E-2,-0E0,-5.4090682E-2,1.7510364E-3,-7.622508E-1,5.1612962E-2,7.566742E-2,1.3778838E0,8.309742E-1,-0E0,8.569191E-1,1.1068561E-1,4.5975414E-1,-2.8740529E-2,-8.670325E-1,-0E0,-2.9942054E-2,8.781347E-1,-4.1209608E-1,4.7753358E-1,1.6203158E0,-0E0,5.3463373E-2,-0E0,1.0860777E0,-0E0,4.6932094E-2,-0E0,-4.837462E-2,-0E0,5.9151067E-3,-8.867461E-3,5.951165E-2,-0E0,-4.0230453E-2,1.0835595E-2,2.8991675E-2,-0E0,9.655529E-2,-0E0,-0E0,6.838579E-2],"categories":[],"categories_nodes":[],"categories_segments":[],"categories_sizes":[],"default_left":[0,0,0,0,0,0,0,0,0,0,0,0,0,0,0,0,0,0,0,0,0,0,0,0,0,0,0,0,0,0,0,0,0,0,0,0,0,0,0,0,0,0,0,0,0,0,0,0,0,0,0,0,0,0,0,0,0],"id":1,"left_children":[1,3,5,7,9,11,13,15,17,19,21,-1,23,25,-1,-1,-1,-1,27,29,31,33,35,37,-1,39,-1,41,-1,43,45,-1,47,49,51,53,-1,-1,-1,55,-1,-1,-1,-1,-1,-1,-1,-1,-1,-1,-1,-1,-1,-1,-1,-1,-1],"loss_changes":[7.246913E1,2.3555958E1,6.569435E0,2.0707474E0,1.7096313E1,2.0929904E0,3.0480804E0,8.255768E-2,4.6246223E0,4.1390796E0,9.375297E0,0E0,8.816974E-1,1.036583E0,0E0,0E0,0E0,0E0,1.9017283E0,1.4817791E0,4.2469745E0,3.8687468E0,3.4626389E0,5.430167E-1,0E0,1.5937877E0,0E0,1.709454E0,0E0,5.593014E-1,1.02099754E-1,0E0,6.106374E-1,2.4373188E0,5.11616E-1,2.700508E0,0E0,0E0,0E0,1.1599975E0,0E0,0E0,0E0,0E0,0E0,0E0,0E0,0E0,0E0,0E0,0E0,0E0,0E0,0E0,0E0,0E0,0E0],"parents":[2147483647,0,0,1,1,2,2,3,3,4,4,5,5,6,6,7,7,8,8,9,9,10,10,12,12,13,13,18,18,19,19,20,20,21,21,22,22,23,23,25,25,27,27,29,29,30,30,32,32,33,33,34,34,35,35,39,39],"right_children":[2,4,6,8,10,12,14,16,18,20,22,-1,24,26,-1,-1,-1,-1,28,30,32,34,36,38,-1,40,-1,42,-1,44,46,-1,48,50,52,54,-1,-1,-1,56,-1,-1,-1,-1,-1,-1,-1,-1,-1,-1,-1,-1,-1,-1,-1,-1,-1],"split_conditions":[1.44E2,2.96E1,3E1,2.64E1,1.09E2,2.8E1,5.1E2,5.9E1,2.8E1,7E0,5.26E-1,-1.8262811E-2,5.4E1,1.55E2,-0E0,-6.961926E-2,-0E0,-5.4090682E-2,1.3E2,6.87E-1,9.6E1,3E0,2.25E2,2.96E1,-0E0,1.52E2,1.1068561E-1,2.77E1,-2.8740529E-2,1.5E2,8.75E-1,-2.9942054E-2,1E1,2.9E1,4.7E1,4.4E1,-0E0,5.3463373E-2,-0E0,3.32E-1,-0E0,4.6932094E-2,-0E0,-4.837462E-2,-0E0,5.9151067E-3,-8.867461E-3,5.951165E-2,-0E0,-4.0230453E-2,1.0835595E-2,2.8991675E-2,-0E0,9.655529E-2,-0E0,-0E0,6.838579E-2],"split_indices":[1,3,3,3,1,5,2,5,5,0,4,0,5,1,0,0,0,0,1,4,1,0,2,3,0,1,0,3,0,2,4,0,0,5,5,5,0,0,0,4,0,0,0,0,0,0,0,0,0,0,0,0,0,0,0,0,0],"split_type":[0,0,0,0,0,0,0,0,0,0,0,0,0,0,0,0,0,0,0,0,0,0,0,0,0,0,0,0,0,0,0,0,0,0,0,0,0,0,0,0,0,0,0,0,0,0,0,0,0,0,0,0,0,0,0,0,0],"sum_hessian":[1.1112825E2,8.4138054E1,2.6990194E1,3.26611E1,5.147696E1,6.3720484E0,2.0618145E1,2.0316868E1,1.2344231E1,2.5351442E1,2.6125515E1,1.1358118E0,5.2362366E0,1.945962E1,1.1585262E0,1.9192614E1,1.1242547E0,6.4658413E0,5.87839E0,1.96944E1,5.6570425E0,1.7399141E1,8.726372E0,3.8679178E0,1.3683187E0,6.2384114E0,1.3221208E1,4.2944217E0,1.5839678E0,1.6965883E1,2.7285182E0,2.7067518E0,2.9502904E0,6.72403E0,1.0675113E1,7.352472E0,1.3738999E0,2.7252252E0,1.1426926E0,4.857269E0,1.3811426E0,2.5021577E0,1.7922642E0,1.5391453E1,1.5744294E0,1.1393814E0,1.5891368E0,1.8158305E0,1.1344601E0,5.128883E0,1.5951468E0,9.298393E0,1.3767186E0,6.2046075E0,1.1478645E0,1.1518302E0,3.7054386E0],"tree_param":{"num_deleted":"0","num_feature":"6","num_nodes":"57","size_leaf_vector":"1"}},{"base_weights":[2.0320788E-2,-5.677631E-1,9.738526E-1,-6.814017E-2,-2.2363167E-1,-0E0,1.415987E0,-6.9908476E-1,3.0623746E-1,-4.9071372E-1,6.924316E-1,1.4725436E0,-0E0,-8.4253496E-1,7.972564E-2,-5.302089E-1,7.556519E-1,-4.149559E-2,-0E0,8.2292616E-1,-0E0,4.0036312E-1,1.632187E0,-2.4117577E-1,-1.1718895E0,-1.832933E-2,3.782877E-2,-3.4671452E-2,-0E0,-1.4594252E-1,9.9040204E-1,-7.884119E-3,1.915135E-2,5.40887E-2,-0E0,-0E0,6.49189E-1,8.92671E-2,-0E0,-4.245862E-2,1.925614E-2,-0E0,-6.3871585E-2,-1.7572692E-2,-0E0,6.0396716E-2,-0E0,4.2695187E-2,-0E0],"categories":[],"categories_nodes":[],"categories_segments":[],"categories_sizes":[],"default_left":[0,0,0,0,0,0,0,0,0,0,0,0,0,0,0,0,0,0,0,0,0,0,0,0,0,0,0,0,0,0,0,0,0,0,0,0,0,0,0,0,0,0,0,0,0,0,0,0,0],"id":2,"left_children":[1,3,5,-1,7,9,11,13,15,17,19,21,-1,23,25,27,29,-1,31,33,-1,35,37,39,41,-1,-1,-1,-1,43,45,-1,-1,-1,-1,-1,47,-1,-1,-1,-1,-1,-1,-1,-1,-1,-1,-1,-1],"loss_changes":[6.236255E1,1.5354485E1,1.9399868E1,0E0,1.2773017E1,4.914791E0,2.3120575E0,3.818757E0,9.099009E0,1.7678592E0,3.2761025E-1,2.2311668E0,0E0,3.0105953E0,1.7356098E0,7.3101306E-1,4.344063E0,0E0,3.7777895E-1,5.3195834E-1,0E0,1.0542603E0,2.7529602E0,4.490834E0,7.88517E-2,0E0,0E0,0E0,0E0,1.7119975E-1,2.727416E0,0E0,0E0,0E0,0E0,0E0,3.9040756E-1,0E0,0E0,0E0,0E0,0E0,0E0,0E0,0E0,0E0,0E0,0E0,0E0],"parents":[2147483647,0,0,1,1,2,2,4,4,5,5,6,6,7,7,8,8,9,9,10,10,11,11,13,13,14,14,15,15,16,16,18,18,19,19,21,21,22,22,23,23,24,24,29,29,30,30,36,36],"right_children":[2,4,6,-1,8,10,12,14,16,18,20,22,-1,24,26,28,30,-1,32,34,-1,36,38,40,42,-1,-1,-1,-1,44,46,-1,-1,-1,-1,-1,48,-1,-1,-1,-1,-1,-1,-1,-1,-1,-1,-1,-1],"split_conditions":[1.28E2,2.7E1,3E1,-6.814017E-2,3E1,1.52E2,1.394E0,7.31E-1,1E2,2.77E1,1.46E2,2.38E-1,-0E0,3.7E1,2.5E1,7.3E1,1.98E-1,-4.149559E-2,3E1,2.69E1,-0E0,2.9E1,4.8E2,1.11E2,8.4E1,-1.832933E-2,3.782877E-2,-3.4671452E-2,-0E0,1.07E2,5.3E1,-7.884119E-3,1.915135E-2,5.40887E-2,-0E0,-0E0,5.3E1,8.92671E-2,-0E0,-4.245862E-2,1.925614E-2,-0E0,-6.3871585E-2,-1.7572692E-2,-0E0,6.0396716E-2,-0E0,4.2695187E-2,-0E0],"split_indices":[1,3,3,0,5,1,4,4,1,3,2,4,0,2,5,2,4,0,5,3,0,5,2,1,1,0,0,0,0,1,5,0,0,0,0,0,5,0,0,0,0,0,0,0,0,0,0,0,0],"split_type":[0,0,0,0,0,0,0,0,0,0,0,0,0,0,0,0,0,0,0,0,0,0,0,0,0,0,0,0,0,0,0,0,0,0,0,0,0,0,0,0,0,0,0,0,0,0,0,0,0],"sum_hessian":[1.0850123E2,6.671256E1,4.1788662E1,1.9420639E1,4.7291927E1,1.2873659E1,2.8915E1,2.5752258E1,2.1539669E1,8.287446E0,4.5862136E0,2.772747E1,1.1875308E0,2.2761898E1,2.9903593E0,6.6876945E0,1.48519745E1,5.342066E0,2.9453802E0,3.4387949E0,1.1474185E0,4.8598785E0,2.2867592E1,9.742271E0,1.3019628E1,1.1358143E0,1.8545451E0,5.561351E0,1.1263436E0,2.2663116E0,1.2585663E1,1.5723435E0,1.3730369E0,2.2979832E0,1.1408117E0,1.1296356E0,3.7302427E0,2.1703045E1,1.1645472E0,5.702272E0,4.0399995E0,1.096128E0,1.1923499E1,1.1263554E0,1.1399562E0,1.1002036E1,1.5836272E0,2.5665655E0,1.1636775E0],"tree_param":{"num_deleted":"0","num_feature":"6","num_nodes":"49","size_leaf_vector":"1"}},{"base_weights":[-0E0,-3.9977625E-1,1.276651E0,-8.062377E-1,1.3483405E-1,1.360622E0,-0E0,-1.0451916E0,-2.9452166E-1,-5.3026367E-2,4.600993E-1,1.4208556E0,-0E0,-1.0939729E0,-0E0,-4.532285E-2,3.3210844E-3,-3.9505687E-1,9.764269E-1,4.3501693E-1,1.6186249E0,-5.927276E-2,-5.9933987E-2,5.003868E-1,-1.529823E-1,-6.810752E-1,1.3986918E-2,-0E0,1.1063691E0,-7.097451E-5,8.586183E-1,8.869345E-2,6.438834E-3,-1.4299462E-2,-0E0,-0E0,5.133191E-2,-1.4152441E-2,-0E0,-4.9774725E-2,-0E0,-0E0,6.716134E-2,-0E0,5.788605E-2],"categories":[],"categories_nodes":[],"categories_segments":[],"categories_sizes":[],"default_left":[0,0,0,0,0,0,0,0,0,0,0,0,0,0,0,0,0,0,0,0,0,0,0,0,0,0,0,0,0,0,0,0,0,0,0,0,0,0,0,0,0,0,0,0,0],"id":3,"left_children":[1,3,5,7,9,11,-1,13,15,-1,17,19,-1,21,-1,-1,23,25,27,29,31,-1,33,35,37,39,-1,-1,41,-1,43,-1,-1,-1,-1,-1,-1,-1,-1,-1,-1,-1,-1,-1,-1],"loss_changes":[5.6316574E1,1.930241E1,3.1922607E0,4.4209213E0,1.3608791E1,1.8048477E0,0E0,2.0357895E0,4.030559E0,0E0,1.4171566E1,1.8479538E0,0E0,5.2841187E-2,0E0,0E0,1.3592587E0,2.7270174E0,2.7805233E0,1.9970192E0,1.709938E-1,0E0,1.4420047E-1,2.0545769E0,3.038013E-1,1.6480675E0,0E0,0E0,3.3969097E0,0E0,6.950488E-1,0E0,0E0,0E0,0E0,0E0,0E0,0E0,0E0,0E0,0E0,0E0,0E0,0E0,0E0],"parents":[2147483647,0,0,1,1,2,2,3,3,4,4,5,5,7,7,8,8,10,10,11,11,13,13,16,16,17,17,18,18,19,19,20,20,22,22,23,23,24,24,25,25,28,28,30,30],"right_children":[2,4,6,8,10,12,-1,14,16,-1,18,20,-1,22,-1,-1,24,26,28,30,32,-1,34,36,38,40,-1,-1,42,-1,44,-1,-1,-1,-1,-1,-1,-1,-1,-1,-1,-1,-1,-1,-1],"split_conditions":[1.47E2,3E1,6E1,4.96E-1,2.68E1,5.43E2,-0E0,4.07E1,3.09E1,-5.3026367E-2,1.04E2,1.55E2,-0E0,6E0,-0E0,-4.532285E-2,3.49E1,5.59E-1,2.03E-1,2.9E1,3.3E2,-5.927276E-2,2.07E-1,9.6E1,4.28E1,4.3E1,1.3986918E-2,-0E0,2.79E1,-7.097451E-5,5E0,8.869345E-2,6.438834E-3,-1.4299462E-2,-0E0,-0E0,5.133191E-2,-1.4152441E-2,-0E0,-4.9774725E-2,-0E0,-0E0,6.716134E-2,-0E0,5.788605E-2],"split_indices":[1,5,5,4,3,2,0,3,3,0,1,1,0,0,0,0,3,4,4,5,2,0,4,1,3,5,0,0,3,0,0,0,0,0,0,0,0,0,0,0,0,0,0,0,0],"split_type":[0,0,0,0,0,0,0,0,0,0,0,0,0,0,0,0,0,0,0,0,0,0,0,0,0,0,0,0,0,0,0,0,0,0,0,0,0,0,0,0,0,0,0,0,0],"sum_hessian":[1.0943396E2,8.423897E1,2.5194994E1,4.8629017E1,3.560995E1,2.3785852E1,1.4091429E0,3.1106571E1,1.7522446E1,6.704548E0,2.8905401E1,2.262293E1,1.1629201E0,3.0008154E1,1.0984181E0,6.483995E0,1.103845E1,1.0241409E1,1.8663992E1,5.15957E0,1.7463362E1,2.7838608E1,2.1695464E0,3.644592E0,7.393858E0,8.189144E0,2.0522656E0,2.0762217E0,1.658777E1,1.8696345E0,3.2899358E0,1.5815239E1,1.6481218E0,1.0751101E0,1.0944363E0,1.3144912E0,2.3301008E0,5.811348E0,1.5825101E0,5.5061297E0,2.6830144E0,2.5178177E0,1.4069953E1,1.1502141E0,2.1397219E0],"tree_param":{"num_deleted":"0","num_feature":"6","num_nodes":"45","size_leaf_vector":"1"}},{"base_weights":[-1.6007617E-2,-6.538079E-1,7.756639E-1,-6.660473E-2,-3.9734808E-1,-1.5540919E-1,1.0714009E0,-7.066022E-1,4.493193E-3,-4.97519E-2,2.111058E-1,6.4809304E-1,1.5559323E0,-7.831956E-1,-0E0,-7.835993E-1,4.14268E-1,-1.204471E-1,7.3281246E-1,-0E0,9.893059E-1,1.669155E0,-0E0,-8.6398256E-1,-0E0,3.6342395E-3,-0E0,-0E0,-5.3023927E-2,-5.8096163E-3,5.5838156E-1,-2.3744132E-2,-0E0,4.9408503E-2,-0E0,-3.6369067E-2,4.913819E-1,-0E0,1.2217127E0,9.589695E-2,-0E0,-4.7697786E-2,-0E0,3.8948055E-2,-0E0,4.2892724E-2,-0E0,1.0057065E-2,-1.8266791E-2,7.0072755E-2,-0E0],"categories":[],"categories_nodes":[],"categories_segments":[],"categories_sizes":[],"default_left":[0,0,0,0,0,0,0,0,0,0,0,0,0,0,0,0,0,0,0,0,0,0,0,0,0,0,0,0,0,0,0,0,0,0,0,0,0,0,0,0,0,0,0,0,0,0,0,0,0,0,0],"id":4,"left_children":[1,3,5,-1,7,9,11,13,15,-1,17,19,21,23,25,27,29,31,33,35,37,39,-1,41,-1,-1,-1,-1,-1,-1,43,-1,-1,-1,-1,-1,45,47,49,-1,-1,-1,-1,-1,-1,-1,-1,-1,-1,-1,-1],"loss_changes":[5.7277344E1,7.966196E0,1.4858503E1,0E0,6.626302E0,4.4839816E0,4.768627E0,1.8159714E0,6.5137444E0,0E0,2.1296437E0,5.1995325E0,1.9476585E0,2.4555435E0,1.0472831E-2,1.5677063E0,1.63392E0,6.339553E-1,5.751991E-1,3.4701867E0,3.848816E0,2.381836E0,0E0,1.0547428E0,0E0,0E0,0E0,0E0,0E0,0E0,1.2097802E0,0E0,0E0,0E0,0E0,0E0,1.7765456E0,3.5759044E-1,1.7766399E0,0E0,0E0,0E0,0E0,0E0,0E0,0E0,0E0,0E0,0E0,0E0,0E0],"parents":[2147483647,0,0,1,1,2,2,4,4,5,5,6,6,7,7,8,8,10,10,11,11,12,12,13,13,14,14,15,15,16,16,17,17,18,18,19,19,20,20,21,21,23,23,30,30,36,36,37,37,38,38],"right_children":[2,4,6,-1,8,10,12,14,16,-1,18,20,22,24,26,28,30,32,34,36,38,40,-1,42,-1,-1,-1,-1,-1,-1,44,-1,-1,-1,-1,-1,46,48,50,-1,-1,-1,-1,-1,-1,-1,-1,-1,-1,-1,-1],"split_conditions":[1.24E2,2.65E1,2.79E1,-6.660473E-2,3.1E1,2.6E1,1.55E2,7.31E-1,9.4E1,-4.97519E-2,1.46E2,3.05E-1,5.3E1,4.28E1,3.63E1,2.98E1,1.98E-1,2.48E-1,5.4E1,3.7E1,2.4E1,3.26E2,-0E0,6E0,-0E0,3.6342395E-3,-0E0,-0E0,-5.3023927E-2,-5.8096163E-3,4.5E1,-2.3744132E-2,-0E0,4.9408503E-2,-0E0,-3.6369067E-2,2.61E-1,6.52E-1,1.52E2,9.589695E-2,-0E0,-4.7697786E-2,-0E0,3.8948055E-2,-0E0,4.2892724E-2,-0E0,1.0057065E-2,-1.8266791E-2,7.0072755E-2,-0E0],"split_indices":[1,3,3,0,5,5,1,4,1,0,1,4,5,3,3,3,4,4,5,5,5,2,0,0,0,0,0,0,0,0,5,0,0,0,0,0,4,4,1,0,0,0,0,0,0,0,0,0,0,0,0],"split_type":[0,0,0,0,0,0,0,0,0,0,0,0,0,0,0,0,0,0,0,0,0,0,0,0,0,0,0,0,0,0,0,0,0,0,0,0,0,0,0,0,0,0,0,0,0,0,0,0,0,0,0],"sum_hessian":[1.1167356E2,6.2643166E1,4.903039E1,1.59971695E1,4.6645996E1,1.1118615E1,3.7911777E1,2.7337439E1,1.930856E1,3.85715E0,7.261465E0,2.258337E1,1.5328405E1,2.5026403E1,2.3110352E0,5.4583144E0,1.3850245E1,3.7381525E0,3.5233126E0,8.149913E0,1.4433458E1,1.3887417E1,1.4409887E0,2.367631E1,1.3500943E0,1.162458E0,1.1485773E0,1.091081E0,4.3672333E0,1.5364816E0,1.2313764E1,2.3991034E0,1.3390491E0,2.3562007E0,1.1671118E0,3.185579E0,4.9643335E0,2.7346947E0,1.1698764E1,1.2006583E1,1.8808334E0,2.2344599E1,1.3317097E0,8.637735E0,3.6760285E0,3.768152E0,1.1961817E0,1.6002793E0,1.1344154E0,1.0513938E1,1.1848255E0],"tree_param":{"num_deleted":"0","num_feature":"6","num_nodes":"51","size_leaf_vector":"1"}},{"base_weights":[-6.971037E-2,-6.19608E-1,6.0638314E-1,-7.463929E-1,3.2406408E-1,-3.9656743E-1,9.310065E-1,-1.0971966E0,-4.554892E-1,-2.9992968E-2,6.824234E-2,-5.243018E-2,-0E0,2.7566886E-1,1.2263509E0,-1.1523153E0,-5.970757E-2,-7.1410424E-1,-0E0,4.657175E-1,-3.5043445E-1,-4.787104E-2,4.956588E-1,1.2923617E0,-0E0,-6.185745E-2,-0E0,-0E0,-1.377138E-2,-7.967458E-1,-0E0,4.724266E-1,-4.7890058E-1,-0E0,4.2206254E-2,-0E0,-3.1617813E-2,-2.6127933E-2,1.0569143E-2,6.772782E-1,-0E0,2.4783874E-2,7.439555E-2,-4.6402507E-2,-1.0823001E-3,-9.650574E-3,5.4696985E-3,5.7940874E-2,-0E0,-4.195735E-2,-0E0,4.6807133E-2,-0E0,-0E0,2.1703957E-2],"categories":[],"categories_nodes":[],"categories_segments":[],"categories_sizes":[],"default_left":[0,0,0,0,0,0,0,0,0,0,0,0,0,0,0,0,0,0,0,0,0,0,0,0,0,0,0,0,0,0,0,0,0,0,0,0,0,0,0,0,0,0,0,0,0,0,0,0,0,0,0,0,0,0,0],"id":5,"left_children":[1,3,5,7,9,11,13,15,17,-1,-1,-1,19,21,23,25,27,29,31,33,35,37,39,41,-1,-1,-1,-1,-1,43,45,47,49,-1,-1,-1,-1,-1,-1,51,-1,53,-1,-1,-1,-1,-1,-1,-1,-1,-1,-1,-1,-1,-1],"loss_changes":[4.2196198E1,8.240414E0,1.7224281E1,3.7705421E0,7.895238E0,3.7587051E0,5.693329E0,6.867409E-2,4.744874E0,0E0,0E0,0E0,1.4930134E0,1.4988387E0,2.2064667E0,1.0658646E-1,1.3235262E-1,1.173069E0,2.9657707E0,1.0280588E0,5.408354E-1,9.556078E-1,1.4766228E0,2.5837746E0,0E0,0E0,0E0,0E0,0E0,5.389805E-1,1.12187825E-1,3.1642854E0,1.2606658E0,0E0,0E0,0E0,0E0,0E0,0E0,2.1095057E0,0E0,3.783488E-1,0E0,0E0,0E0,0E0,0E0,0E0,0E0,0E0,0E0,0E0,0E0,0E0,0E0],"parents":[2147483647,0,0,1,1,2,2,3,3,4,4,5,5,6,6,7,7,8,8,12,12,13,13,14,14,15,15,16,16,17,17,18,18,19,19,20,20,21,21,22,22,23,23,29,29,30,30,31,31,32,32,39,39,41,41],"right_children":[2,4,6,8,10,12,14,16,18,-1,-1,-1,20,22,24,26,28,30,32,34,36,38,40,42,-1,-1,-1,-1,-1,44,46,48,50,-1,-1,-1,-1,-1,-1,52,-1,54,-1,-1,-1,-1,-1,-1,-1,-1,-1,-1,-1,-1,-1],"split_conditions":[1.23E2,1.44E2,2.88E1,2.96E1,2.9E1,2.8E1,3.05E-1,4.9E1,1.07E2,-2.9992968E-2,6.824234E-2,-5.243018E-2,5.2E1,2.9E1,1.394E0,1E1,1.09E2,7.17E-1,1.4E1,2.48E-1,2.39E1,1.59E2,2.8E-1,2.4E1,-0E0,-6.185745E-2,-0E0,-0E0,-1.377138E-2,4.3E1,3E0,3.37E1,4.71E-1,-0E0,4.2206254E-2,-0E0,-3.1617813E-2,-2.6127933E-2,1.0569143E-2,5.5E1,-0E0,1.44E2,7.439555E-2,-4.6402507E-2,-1.0823001E-3,-9.650574E-3,5.4696985E-3,5.7940874E-2,-0E0,-4.195735E-2,-0E0,4.6807133E-2,-0E0,-0E0,2.1703957E-2],"split_indices":[1,2,3,3,5,5,4,5,1,0,0,0,5,5,4,0,1,4,2,4,3,1,4,5,0,0,0,0,0,5,0,3,4,0,0,0,0,0,0,5,0,1,0,0,0,0,0,0,0,0,0,0,0,0,0],"split_type":[0,0,0,0,0,0,0,0,0,0,0,0,0,0,0,0,0,0,0,0,0,0,0,0,0,0,0,0,0,0,0,0,0,0,0,0,0,0,0,0,0,0,0,0,0,0,0,0,0,0,0,0,0,0,0],"sum_hessian":[1.1145092E2,6.232323E1,4.912769E1,5.6060143E1,6.2630877E0,1.1205441E1,3.792225E1,2.259879E1,3.3461353E1,2.9573805E0,3.305707E0,4.6332483E0,6.5721936E0,1.3433659E1,2.4488588E1,2.0438416E1,2.1603727E0,2.232524E1,1.1136114E1,3.6797564E0,2.892437E0,3.9140239E0,9.519635E0,2.3272375E1,1.2162133E0,1.936503E1,1.0733865E0,1.0951414E0,1.0652312E0,1.9585344E1,2.7398956E0,6.6217422E0,4.514372E0,1.5519555E0,2.127801E0,1.1130152E0,1.7794218E0,2.4611237E0,1.4529002E0,7.853304E0,1.6663312E0,3.0249898E0,2.0247385E1,1.6231333E1,3.3540115E0,1.5966201E0,1.1432755E0,2.9523504E0,3.669392E0,2.912177E0,1.6021945E0,6.6808925E0,1.1724113E0,1.8202678E0,1.204722E0],"tree_param":{"num_deleted":"0","num_feature":"6","num_nodes":"55","size_leaf_vector":"1"}},{"base_weights":[3.7909072E-2,-4.422129E-1,9.4168633E-1,-9.580038E-1,-7.183176E-2,4.5928478E-1,1.403215E0,-5.7226688E-2,-9.4051175E-2,-5.6890722E-2,1.24166824E-1,-1.8062228E-1,6.6275126E-1,1.4899098E0,-0E0,-3.3067882E-1,-0E0,-5.6277353E-2,9.3855995E-1,-2.7582979E-2,2.2406655E-3,8.8909364E-1,-2.9436705E-1,1.5961052E0,-0E0,-2.9602911E-2,-0E0,-3.2836303E-2,5.161458E-2,-0E0,6.438395E-2,2.4070992E-1,1.189599E0,-0E0,-2.3082249E-2,8.7384365E-2,-0E0,4.1133426E-2,-4.6986896E-3,2.640161E-2,-0E0,7.1019076E-2,-0E0],"categories":[],"categories_nodes":[],"categories_segments":[],"categories_sizes":[],"default_left":[0,0,0,0,0,0,0,0,0,0,0,0,0,0,0,0,0,0,0,0,0,0,0,0,0,0,0,0,0,0,0,0,0,0,0,0,0,0,0,0,0,0,0],"id":6,"left_children":[1,3,5,7,9,11,13,-1,15,-1,17,19,21,23,-1,25,-1,27,29,-1,-1,31,33,35,-1,-1,-1,-1,37,-1,-1,39,41,-1,-1,-1,-1,-1,-1,-1,-1,-1,-1],"loss_changes":[4.966429E1,1.2909386E1,6.4026985E0,2.2123165E0,1.0053045E1,3.4808702E0,2.1452255E0,0E0,3.9269626E-1,0E0,6.4769845E0,8.9132756E-1,4.794386E0,1.4268532E0,0E0,4.7089484E-1,0E0,2.5127106E0,2.6606402E0,0E0,0E0,1.3608446E0,1.347445E-1,6.1631775E-1,0E0,0E0,0E0,0E0,3.41345E0,0E0,0E0,9.678421E-1,1.9124098E0,0E0,0E0,0E0,0E0,0E0,0E0,0E0,0E0,0E0,0E0],"parents":[2147483647,0,0,1,1,2,2,3,3,4,4,5,5,6,6,8,8,10,10,11,11,12,12,13,13,15,15,17,17,18,18,21,21,22,22,23,23,28,28,31,31,32,32],"right_children":[2,4,6,8,10,12,14,-1,16,-1,18,20,22,24,-1,26,-1,28,30,-1,-1,32,34,36,-1,-1,-1,-1,38,-1,-1,40,42,-1,-1,-1,-1,-1,-1,-1,-1,-1,-1],"split_conditions":[1.32E2,2.6E1,1.58E2,3.58E1,2.61E1,2.74E1,6.1E1,-5.7226688E-2,6.1E-1,-5.6890722E-2,7.31E-1,1.46E2,1.53E2,4.58E1,-0E0,2.3E1,-0E0,2.05E-1,9.7E1,-2.7582979E-2,2.2406655E-3,3.1E1,3.44E1,1.076E0,-0E0,-2.9602911E-2,-0E0,-3.2836303E-2,2.61E-1,-0E0,6.438395E-2,1.68E2,5.9E1,-0E0,-2.3082249E-2,8.7384365E-2,-0E0,4.1133426E-2,-4.6986896E-3,2.640161E-2,-0E0,7.1019076E-2,-0E0],"split_indices":[1,5,1,3,3,3,5,0,4,0,4,1,1,3,0,5,0,4,1,0,0,5,3,4,0,0,0,0,4,0,0,2,5,0,0,0,0,0,0,0,0,0,0],"split_type":[0,0,0,0,0,0,0,0,0,0,0,0,0,0,0,0,0,0,0,0,0,0,0,0,0,0,0,0,0,0,0,0,0,0,0,0,0,0,0,0,0,0,0],"sum_hessian":[1.1134334E2,7.2325455E1,3.9017883E1,2.8437325E1,4.388813E1,2.1112457E1,1.7905426E1,2.3295181E1,5.1421432E0,7.176066E0,3.6712063E1,3.934818E0,1.7177639E1,1.6735693E1,1.1697328E0,3.088098E0,2.0540454E0,2.9810068E1,6.901995E0,2.7576838E0,1.1771343E0,1.4794794E1,2.3828447E0,1.5014236E1,1.7214563E0,1.8565887E0,1.2315092E0,5.4312243E0,2.4378843E1,1.5720956E0,5.3299E0,6.3096213E0,8.485173E0,1.1927093E0,1.1901352E0,1.379055E1,1.2236868E0,4.336325E0,2.0042519E1,4.4436812E0,1.8659401E0,7.2918854E0,1.1932874E0],"tree_param":{"num_deleted":"0","num_feature":"6","num_nodes":"43","size_leaf_vector":"1"}},{"base_weights":[-4.4160817E-2,-3.729066E-1,1.2954575E0,-6.209581E-2,-1.2911788E-1,1.3697286E0,-0E0,-5.0952256E-1,3.6649245E-1,7.5827345E-2,-0E0,-8.578797E-1,-5.2361753E-2,-1.7646933E-1,6.9028306E-1,-9.906812E-1,2.806912E-3,2.7103138E-1,-3.9753702E-1,-4.0971532E-2,1.5618989E-1,8.524179E-1,-3.25649E-2,-0E0,-5.3324513E-2,-0E0,3.1054161E-2,-3.0809961E-2,5.4561687E-3,4.2834368E-2,-1.1687117E-2,4.8107762E-2,-0E0,-2.314589E-2,-0E0],"categories":[],"categories_nodes":[],"categories_segments":[],"categories_sizes":[],"default_left":[0,0,0,0,0,0,0,0,0,0,0,0,0,0,0,0,0,0,0,0,0,0,0,0,0,0,0,0,0,0,0,0,0,0,0],"id":7,"left_children":[1,3,5,-1,7,9,-1,11,13,-1,-1,15,17,19,21,23,-1,25,27,-1,29,31,33,-1,-1,-1,-1,-1,-1,-1,-1,-1,-1,-1,-1],"loss_changes":[4.774801E1,1.6283321E1,1.9737244E0,0E0,1.367327E1,2.149475E0,0E0,5.6701097E0,5.940399E0,0E0,0E0,3.6904278E0,2.5000188E0,2.9588199E0,3.221981E0,2.0224762E-1,0E0,4.9251586E-1,1.6793219E0,0E0,2.5024214E0,1.1319294E0,4.5607966E-1,0E0,0E0,0E0,0E0,0E0,0E0,0E0,0E0,0E0,0E0,0E0,0E0],"parents":[2147483647,0,0,1,1,2,2,4,4,5,5,7,7,8,8,11,11,12,12,13,13,14,14,15,15,17,17,18,18,20,20,21,21,22,22],"right_children":[2,4,6,-1,8,10,-1,12,14,-1,-1,16,18,20,22,24,-1,26,28,-1,30,32,34,-1,-1,-1,-1,-1,-1,-1,-1,-1,-1,-1,-1],"split_conditions":[1.55E2,2.64E1,6E1,-6.209581E-2,3.2E1,5.1E2,-0E0,1.13E2,1.07E2,7.5827345E-2,-0E0,7.31E-1,1.4E1,2.93E-1,5.7E1,2.69E1,2.806912E-3,5.15E-1,2.9E1,-4.0971532E-2,1.4E1,2.15E2,2.89E1,-0E0,-5.3324513E-2,-0E0,3.1054161E-2,-3.0809961E-2,5.4561687E-3,4.2834368E-2,-1.1687117E-2,4.8107762E-2,-0E0,-2.314589E-2,-0E0],"split_indices":[1,3,5,0,5,2,0,1,1,0,0,4,2,4,5,3,0,4,5,0,2,2,3,0,0,0,0,0,0,0,0,0,0,0,0],"split_type":[0,0,0,0,0,0,0,0,0,0,0,0,0,0,0,0,0,0,0,0,0,0,0,0,0,0,0,0,0,0,0,0,0,0,0],"sum_hessian":[1.0841905E2,8.823425E1,2.0184801E1,1.8458626E1,6.977563E1,1.900167E1,1.1831288E0,4.0601597E1,2.9174028E1,1.7818455E1,1.1832161E0,2.1303982E1,1.9297615E1,9.914709E0,1.925932E1,1.9476908E1,1.8270731E0,8.578335E0,1.071928E1,4.0885596E0,5.826149E0,1.6714437E1,2.5448809E0,1.0081725E0,1.8468735E1,6.195768E0,2.3825667E0,9.062176E0,1.6571047E0,2.656639E0,3.1695101E0,1.5501289E1,1.2131486E0,1.3408237E0,1.2040573E0],"tree_param":{"num_deleted":"0","num_feature":"6","num_nodes":"35","size_leaf_vector":"1"}},{"base_weights":[-3.928225E-2,-5.342868E-1,6.5226454E-1,-8.968511E-1,-1.1665879E-1,2.1208714E-1,1.3270613E0,-6.346346E-2,-4.318391E-1,-4.6932437E-2,1.0883095E-1,-4.065027E-1,5.7623297E-1,7.463396E-2,-0E0,1.97837E-1,-7.4086046E-1,-4.568236E-2,3.804447E-1,-5.810471E-1,-0E0,7.661635E-1,-0E0,-0E0,2.9743599E-2,-8.513108E-1,-0E0,-2.3065913E-1,5.9837943E-1,-3.641723E-2,-0E0,2.8286213E-3,-8.586214E-4,-0E0,8.890406E-1,-3.2715935E-2,1.2932266E-2,-0E0,-4.6780337E-2,-3.628725E-2,2.0461367E-3,3.9458048E-2,-1.0035443E-2,2.2619924E-2,-9.377923E-3,5.1273588E-2,-0E0],"categories":[],"categories_nodes":[],"categories_segments":[],"categories_sizes":[],"default_left":[0,0,0,0,0,0,0,0,0,0,0,0,0,0,0,0,0,0,0,0,0,0,0,0,0,0,0,0,0,0,0,0,0,0,0,0,0,0,0,0,0,0,0,0,0,0,0],"id":8,"left_children":[1,3,5,7,9,11,13,-1,15,-1,17,19,21,-1,-1,23,25,-1,27,29,31,33,35,-1,-1,37,-1,39,41,-1,-1,-1,-1,43,45,-1,-1,-1,-1,-1,-1,-1,-1,-1,-1,-1,-1],"loss_changes":[3.779834E1,8.777605E0,1.1661867E1,2.795929E0,6.672129E0,7.062172E0,1.2074566E0,0E0,3.8932798E0,0E0,6.613734E0,7.8739846E-1,2.8479996E0,0E0,0E0,8.204052E-1,1.3984222E0,0E0,3.3513176E0,4.6034503E-1,7.1418565E-3,1.0872889E0,1.231654E0,0E0,0E0,6.807041E-2,0E0,1.325776E0,2.8503547E0,0E0,0E0,0E0,0E0,4.9702796E-1,1.1714973E0,0E0,0E0,0E0,0E0,0E0,0E0,0E0,0E0,0E0,0E0,0E0,0E0],"parents":[2147483647,0,0,1,1,2,2,3,3,4,4,5,5,6,6,8,8,10,10,11,11,12,12,15,15,16,16,18,18,19,19,20,20,21,21,22,22,25,25,27,27,28,28,33,33,34,34],"right_children":[2,4,6,8,10,12,14,-1,16,-1,18,20,22,-1,-1,24,26,-1,28,30,32,34,36,-1,-1,38,-1,40,42,-1,-1,-1,-1,44,46,-1,-1,-1,-1,-1,-1,-1,-1,-1,-1,-1,-1],"split_conditions":[1.28E2,2.9E1,1.6E2,3.09E1,9.7E1,3.02E1,4.58E1,-6.346346E-2,3.43E1,-4.6932437E-2,2.63E1,1.46E2,1.52E2,7.463396E-2,-0E0,9.7E1,5E0,-4.568236E-2,2.2E-1,2.81E1,1.51E2,2.33E-1,1.55E2,-0E0,2.9743599E-2,1.75E-1,-0E0,1.08E2,5.3E1,-3.641723E-2,-0E0,2.8286213E-3,-8.586214E-4,1.58E-1,2.55E2,-3.2715935E-2,1.2932266E-2,-0E0,-4.6780337E-2,-3.628725E-2,2.0461367E-3,3.9458048E-2,-1.0035443E-2,2.2619924E-2,-9.377923E-3,5.1273588E-2,-0E0],"split_indices":[1,5,1,3,1,3,3,0,3,0,3,1,1,0,0,1,0,0,4,3,1,4,1,0,0,4,0,1,5,0,0,0,0,4,2,0,0,0,0,0,0,0,0,0,0,0,0],"split_type":[0,0,0,0,0,0,0,0,0,0,0,0,0,0,0,0,0,0,0,0,0,0,0,0,0,0,0,0,0,0,0,0,0,0,0,0,0,0,0,0,0,0,0,0,0,0,0],"sum_hessian":[1.08745125E2,6.435423E1,4.4390892E1,3.2552113E1,3.1802118E1,2.8558252E1,1.5832639E1,1.7087772E1,1.5464339E1,7.441745E0,2.4360374E1,9.521392E0,1.903686E1,1.4104654E1,1.7279843E0,4.1440353E0,1.1320304E1,3.994108E0,2.0366266E1,6.481879E0,3.0395129E0,1.5185726E1,3.8511336E0,1.9943725E0,2.149663E0,1.0260358E1,1.059946E0,4.1322474E0,1.6234018E1,5.1409693E0,1.3409103E0,1.169878E0,1.8696349E0,2.789334E0,1.2396393E1,1.6357915E0,2.215342E0,1.005726E0,9.254632E0,2.3023508E0,1.8298969E0,1.4633357E1,1.6006618E0,1.2049584E0,1.5843756E0,1.1199091E1,1.1973014E0],"tree_param":{"num_deleted":"0","num_feature":"6","num_nodes":"47","size_leaf_vector":"1"}},{"base_weights":[-7.2680344E-3,-4.5087752E-1,7.324655E-1,-8.6375743E-1,-7.818355E-3,-8.39098E-2,9.343391E-1,-6.011084E-2,-4.0619823E-1,-7.4620026E-1,2.857561E-1,-3.175171E-2,2.0461811E-1,9.7932225E-1,-0E0,-0E0,-5.556939E-1,-8.253934E-1,-0E0,-4.295716E-2,5.5447423E-1,2.9153442E-2,-0E0,1.0339234E0,-0E0,3.3454217E-2,-2.0991227E-2,-7.287748E-1,-0E0,-9.275654E-1,-0E0,-4.2273468E-1,8.059747E-1,1.0988641E0,-0E0,-4.600153E-2,-4.9584196E-4,-1.7362958E-2,1.7904583E-2,-0E0,-5.277615E-2,-3.0074561E-2,-0E0,4.970426E-2,-0E0,3.3712897E-2,7.4445054E-2],"categories":[],"categories_nodes":[],"categories_segments":[],"categories_sizes":[],"default_left":[0,0,0,0,0,0,0,0,0,0,0,0,0,0,0,0,0,0,0,0,0,0,0,0,0,0,0,0,0,0,0,0,0,0,0,0,0,0,0,0,0,0,0,0,0,0,0],"id":9,"left_children":[1,3,5,7,9,11,13,-1,15,17,19,-1,21,23,-1,25,27,29,-1,-1,31,-1,-1,33,-1,-1,-1,35,37,39,-1,41,43,45,-1,-1,-1,-1,-1,-1,-1,-1,-1,-1,-1,-1,-1],"loss_changes":[3.532461E1,1.1682341E1,7.4937916E0,2.4927025E0,8.3254E0,1.7122927E0,1.6571465E0,0E0,1.3808331E0,1.4878416E-1,7.6370287E0,0E0,5.7562125E-1,9.0380096E-1,0E0,1.4712853E0,1.1350446E0,3.287506E-2,0E0,0E0,5.9966345E0,0E0,0E0,1.4871597E0,0E0,0E0,0E0,1.6818905E-1,6.075399E-1,5.046463E-2,0E0,1.9449371E-1,3.002777E0,1.0382271E0,0E0,0E0,0E0,0E0,0E0,0E0,0E0,0E0,0E0,0E0,0E0,0E0,0E0],"parents":[2147483647,0,0,1,1,2,2,3,3,4,4,5,5,6,6,8,8,9,9,10,10,12,12,13,13,15,15,16,16,17,17,20,20,23,23,27,27,28,28,29,29,31,31,32,32,33,33],"right_children":[2,4,6,8,10,12,14,-1,16,18,20,-1,22,24,-1,26,28,30,-1,-1,32,-1,-1,34,-1,-1,-1,36,38,40,-1,42,44,46,-1,-1,-1,-1,-1,-1,-1,-1,-1,-1,-1,-1,-1],"split_conditions":[1.32E2,2.8E1,2.78E1,3.13E1,1E2,1.46E2,1.39E0,-6.011084E-2,1E0,7.17E-1,2.63E1,-3.175171E-2,2.56E1,5.8E1,-0E0,7.5E1,5.97E-1,4.3E1,-0E0,-4.295716E-2,1.98E-1,2.9153442E-2,-0E0,3.75E2,-0E0,3.3454217E-2,-2.0991227E-2,3E0,5.8E1,1.7E-1,-0E0,1.11E2,5.3E1,1.55E2,-0E0,-4.600153E-2,-4.9584196E-4,-1.7362958E-2,1.7904583E-2,-0E0,-5.277615E-2,-3.0074561E-2,-0E0,4.970426E-2,-0E0,3.3712897E-2,7.4445054E-2],"split_indices":[1,5,3,3,1,1,4,0,0,4,3,0,3,5,0,2,4,5,0,0,4,0,0,2,0,0,0,0,2,4,0,1,5,1,0,0,0,0,0,0,0,0,0,0,0,0,0],"split_type":[0,0,0,0,0,0,0,0,0,0,0,0,0,0,0,0,0,0,0,0,0,0,0,0,0,0,0,0,0,0,0,0,0,0,0,0,0,0,0,0,0,0,0,0,0,0,0],"sum_hessian":[1.0649854E2,6.766373E1,3.8834816E1,3.3364918E1,3.429881E1,6.832993E0,3.2001823E1,1.8222107E1,1.5142812E1,1.0287867E1,2.4010942E1,3.2635112E0,3.5694818E0,3.0767572E1,1.2342504E0,3.0456476E0,1.2097164E1,8.444119E0,1.8437469E0,3.5570831E0,2.045386E1,1.4608876E0,2.1085944E0,2.8346365E1,2.421207E0,1.636728E0,1.4089196E0,8.751966E0,3.3451974E0,6.516364E0,1.9277552E0,3.2334094E0,1.7220451E1,2.6211836E1,2.134529E0,5.8912086E0,2.8607583E0,1.9668913E0,1.3783063E0,1.1350814E0,5.381283E0,1.8674997E0,1.3659097E0,1.5380197E1,1.8402544E0,1.3506947E1,1.2704888E1],"tree_param":{"num_deleted":"0","num_feature":"6","num_nodes":"47","size_leaf_vector":"1"}},{"base_weights":[-0E0,-4.5789924E-1,5.250915E-1,-8.500785E-1,-8.937086E-2,-1.2572283E-1,8.3610296E-1,-1.031209E0,-0E0,-3.7431762E-1,3.0727613E-1,-4.3449573E-2,1.6698319E-1,2.673804E-1,1.1068486E0,-5.5327166E-2,-0E0,-3.4350697E-2,4.429402E-1,-7.544146E-1,2.2920396E-2,-9.2200495E-2,6.070625E-1,-1.440804E-1,7.8696156E-1,-1.5643519E-1,4.7645804E-1,1.2285851E0,-0E0,3.3582255E-2,-0E0,1.6909894E-3,-9.583413E-1,-3.5997838E-2,4.8926732E-1,-1.70098E-2,-0E0,4.7800835E-2,-0E0,-0E0,-2.9455082E-2,5.332423E-2,-0E0,-0E0,-2.864933E-2,-0E0,4.8507284E-2,6.66545E-2,-0E0,-2.1427782E-2,3.2204494E-2,-5.8078375E-2,-0E0,3.80392E-2,-0E0,4.4510504E-3,-1.0538314E-2,1.3919672E-2,-1.3637694E-2,7.1480833E-3,-1.12736365E-2],"categories":[],"categories_nodes":[],"categories_segments":[],"categories_sizes":[],"default_left":[0,0,0,0,0,0,0,0,0,0,0,0,0,0,0,0,0,0,0,0,0,0,0,0,0,0,0,0,0,0,0,0,0,0,0,0,0,0,0,0,0,0,0,0,0,0,0,0,0,0,0,0,0,0,0,0,0,0,0,0,0],"id":10,"left_children":[1,3,5,7,9,11,13,15,17,19,21,-1,23,25,27,-1,-1,-1,29,31,33,35,37,39,41,43,45,47,49,-1,-1,-1,51,-1,53,-1,-1,-1,55,57,-1,-1,-1,-1,-1,59,-1,-1,-1,-1,-1,-1,-1,-1,-1,-1,-1,-1,-1,-1,-1],"loss_changes":[2.6074833E1,7.2703037E0,1.1133138E1,3.3673954E0,3.7974248E0,4.1762795E0,3.8209553E0,9.4387054E-2,2.2628536E0,3.849036E0,2.0623941E0,0E0,2.94796E0,1.6361058E0,2.0834198E0,0E0,0E0,0E0,3.2375348E-1,2.851696E0,3.367101E0,2.87292E-1,1.9091461E0,6.196415E-1,9.036453E-1,6.316595E-1,2.975088E0,3.3644104E-1,1.3990257E0,0E0,0E0,0E0,1.9964437E0,0E0,1.041378E0,0E0,0E0,0E0,1.1513797E-1,4.8282668E-1,0E0,0E0,0E0,0E0,0E0,2.4881648E-1,0E0,0E0,0E0,0E0,0E0,0E0,0E0,0E0,0E0,0E0,0E0,0E0,0E0,0E0,0E0],"parents":[2147483647,0,0,1,1,2,2,3,3,4,4,5,5,6,6,7,7,8,8,9,9,10,10,12,12,13,13,14,14,18,18,19,19,20,20,21,21,22,22,23,23,24,24,25,25,26,26,27,27,28,28,32,32,34,34,38,38,39,39,45,45],"right_children":[2,4,6,8,10,12,14,16,18,20,22,-1,24,26,28,-1,-1,-1,30,32,34,36,38,40,42,44,46,48,50,-1,-1,-1,52,-1,54,-1,-1,-1,56,58,-1,-1,-1,-1,-1,60,-1,-1,-1,-1,-1,-1,-1,-1,-1,-1,-1,-1,-1,-1,-1],"split_conditions":[1.24E2,3.09E1,3E1,6E0,5.01E-1,2.8E1,3.42E-1,4.1E1,2.53E1,3.1E1,9.7E1,-4.3449573E-2,7.6E1,1.32E2,2.91E2,-5.5327166E-2,-0E0,-3.4350697E-2,4.85E-1,3.25E1,9.3E1,3.73E1,1.17E2,2.96E1,4.52E-1,3.41E1,3.43E1,1.394E0,1.56E2,3.3582255E-2,-0E0,1.6909894E-3,4.07E1,-3.5997838E-2,3.67E1,-1.70098E-2,-0E0,4.7800835E-2,7.27E-1,5.4E1,-2.9455082E-2,5.332423E-2,-0E0,-0E0,-2.864933E-2,3.1E1,4.8507284E-2,6.66545E-2,-0E0,-2.1427782E-2,3.2204494E-2,-5.8078375E-2,-0E0,3.80392E-2,-0E0,4.4510504E-3,-1.0538314E-2,1.3919672E-2,-1.3637694E-2,7.1480833E-3,-1.12736365E-2],"split_indices":[1,3,3,0,4,5,4,5,3,5,1,0,2,1,2,0,0,0,4,3,1,3,1,3,4,3,3,4,1,0,0,0,3,0,3,0,0,0,4,5,0,0,0,0,0,3,0,0,0,0,0,0,0,0,0,0,0,0,0,0,0],"split_type":[0,0,0,0,0,0,0,0,0,0,0,0,0,0,0,0,0,0,0,0,0,0,0,0,0,0,0,0,0,0,0,0,0,0,0,0,0,0,0,0,0,0,0,0,0,0,0,0,0,0,0,0,0,0,0,0,0,0,0,0,0],"sum_hessian":[1.0630286E2,5.632908E1,4.9973778E1,2.5341291E1,3.0987787E1,1.5312238E1,3.4661537E1,2.0067013E1,5.274279E0,1.9532959E1,1.1454829E1,4.947643E0,1.0364594E1,1.3011316E1,2.1650223E1,1.9042696E1,1.0243169E0,2.533818E0,2.740461E0,1.0808798E1,8.724161E0,3.777674E0,7.677155E0,6.338836E0,4.0257583E0,2.801449E0,1.02098675E1,1.876421E1,2.8860126E0,1.5575225E0,1.1829386E0,1.3886319E0,9.420166E0,2.4143412E0,6.30982E0,2.0907402E0,1.6869336E0,5.0953193E0,2.581836E0,4.912217E0,1.4266192E0,2.8518586E0,1.1738998E0,1.3935789E0,1.4078702E0,4.8121476E0,5.3977203E0,1.7518766E1,1.245443E0,1.1662705E0,1.7197421E0,8.3515625E0,1.0686035E0,4.2606826E0,2.049137E0,1.135378E0,1.446458E0,3.0106916E0,1.9015254E0,1.4635148E0,3.3486326E0],"tree_param":{"num_deleted":"0","num_feature":"6","num_nodes":"61","size_leaf_vector":"1"}},{"base_weights":[-1.837119E-2,-7.9781294E-1,2.5971034E-1,-9.7933024E-1,-0E0,1.749774E-2,9.8764277E-1,-1.0375724E0,-0E0,-3.0678285E-2,2.9953508E-2,-8.1649953E-1,1.9627768E-1,-0E0,1.1313244E0,-5.5664077E-2,-0E0,-9.2284805E-1,-0E0,-1.7763549E-1,4.8972538E-1,2.548508E-2,-2.2729766E-2,1.2389286E0,-0E0,-0E0,-5.2511908E-2,1.17249176E-1,-5.0330245E-1,5.695102E-1,-7.555509E-3,6.8311326E-2,-0E0,-7.622963E-4,2.9489908E-2,-3.3389773E-2,-0E0,1.3302215E-2,5.4372653E-2],"categories":[],"categories_nodes":[],"categories_segments":[],"categories_sizes":[],"default_left":[0,0,0,0,0,0,0,0,0,0,0,0,0,0,0,0,0,0,0,0,0,0,0,0,0,0,0,0,0,0,0,0,0,0,0,0,0,0,0],"id":11,"left_children":[1,3,5,7,9,11,13,15,-1,-1,-1,17,19,21,23,-1,-1,25,-1,27,29,-1,-1,31,-1,-1,-1,33,35,37,-1,-1,-1,-1,-1,-1,-1,-1,-1],"loss_changes":[2.4639286E1,4.928377E0,1.3269517E1,1.7714233E0,2.3547573E0,8.914138E0,2.4283638E0,2.97657E-1,0E0,0E0,0E0,3.623209E-1,6.276535E0,1.0051106E0,1.9406967E0,0E0,0E0,2.9799986E-1,0E0,2.633589E0,2.1156397E0,0E0,0E0,5.3736305E-1,0E0,0E0,0E0,1.2166876E0,1.4758742E0,2.8678465E0,0E0,0E0,0E0,0E0,0E0,0E0,0E0,0E0,0E0],"parents":[2147483647,0,0,1,1,2,2,3,3,4,4,5,5,6,6,7,7,11,11,12,12,13,13,14,14,17,17,19,19,20,20,23,23,27,27,28,28,29,29],"right_children":[2,4,6,8,10,12,14,16,-1,-1,-1,18,20,22,24,-1,-1,26,-1,28,30,-1,-1,32,-1,-1,-1,34,36,38,-1,-1,-1,-1,-1,-1,-1,-1,-1],"split_conditions":[1.04E2,6.6E-1,1.58E2,1.2E1,2E0,2.64E1,2.78E1,4.28E1,-0E0,-3.0678285E-2,2.9953508E-2,4.9E1,2.9E1,2.59E1,4.58E1,-5.5664077E-2,-0E0,1.08E2,-0E0,7.5E1,1.53E2,2.548508E-2,-2.2729766E-2,1.222E0,-0E0,-0E0,-5.2511908E-2,4.6E-1,8.32E-1,1.25E2,-7.555509E-3,6.8311326E-2,-0E0,-7.622963E-4,2.9489908E-2,-3.3389773E-2,-0E0,1.3302215E-2,5.4372653E-2],"split_indices":[1,4,1,0,0,3,3,3,0,0,0,5,5,3,3,0,0,1,0,2,1,0,0,4,0,0,0,4,4,2,0,0,0,0,0,0,0,0,0],"split_type":[0,0,0,0,0,0,0,0,0,0,0,0,0,0,0,0,0,0,0,0,0,0,0,0,0,0,0,0,0,0,0,0,0,0,0,0,0,0,0],"sum_hessian":[1.0923835E2,2.9178968E1,8.005939E1,2.4167097E1,5.0118713E0,6.1870388E1,1.8188993E1,2.306644E1,1.1006578E0,1.9733187E0,3.0385525E0,9.304578E0,5.256581E1,2.667289E0,1.5521705E1,2.2065895E1,1.0005449E0,7.49187E0,1.8127079E0,2.1789003E1,3.0776808E1,1.4823971E0,1.1848918E0,1.4040771E1,1.4809349E0,1.044632E0,6.4472384E0,1.015931E1,1.1629693E1,2.8829668E1,1.9471397E0,1.2806403E1,1.2343668E0,6.8680587E0,3.2912517E0,1.0436124E1,1.1935695E0,1.9485445E1,9.344222E0],"tree_param":{"num_deleted":"0","num_feature":"6","num_nodes":"39","size_leaf_vector":"1"}},{"base_weights":[-8.897683E-2,-3.359108E-1,8.735349E-1,-7.367271E-1,7.7458436E-4,9.9651676E-1,-0E0,-8.3303523E-1,1.797269E-2,-1.9886917E-1,8.954829E-1,1.0704763E0,-0E0,-4.9160734E-2,-0E0,3.006292E-2,-2.5655492E-3,-4.921937E-2,-0E0,-0E0,1.0285573E0,3.4011185E-1,7.153849E-2,-7.3923506E-3,2.0079436E-2,-6.7045957E-1,2.547139E-1,6.4365834E-2,-0E0,-0E0,4.5197863E-2,-4.281431E-2,-0E0,-2.0307869E-2,3.1005733E-2,4.1515524E-3,-2.1422796E-2],"categories":[],"categories_nodes":[],"categories_segments":[],"categories_sizes":[],"default_left":[0,0,0,0,0,0,0,0,0,0,0,0,0,0,0,0,0,0,0,0,0,0,0,0,0,0,0,0,0,0,0,0,0,0,0,0,0],"id":12,"left_children":[1,3,5,7,9,11,-1,13,15,17,19,21,-1,-1,23,-1,-1,-1,25,-1,27,29,-1,-1,-1,31,33,-1,-1,35,-1,-1,-1,-1,-1,-1,-1],"loss_changes":[2.347003E1,1.1661044E1,2.6392937E0,3.6148224E0,8.669663E0,1.3571243E0,0E0,3.8496513E0,7.0974374E-1,5.6557455E0,1.0719185E0,1.4731655E0,0E0,0E0,4.619565E-1,0E0,0E0,0E0,4.886693E0,0E0,9.895077E-1,1.953974E0,0E0,0E0,0E0,9.58102E-1,5.2194123E0,0E0,0E0,4.3564683E-1,0E0,0E0,0E0,0E0,0E0,0E0,0E0],"parents":[2147483647,0,0,1,1,2,2,3,3,4,4,5,5,7,7,8,8,9,9,10,10,11,11,14,14,18,18,20,20,21,21,25,25,26,26,29,29],"right_children":[2,4,6,8,10,12,-1,14,16,18,20,22,-1,-1,24,-1,-1,-1,26,-1,28,30,-1,-1,-1,32,34,-1,-1,36,-1,-1,-1,-1,-1,-1,-1],"split_conditions":[1.55E2,2.9E1,5.8E1,4.18E1,1.42E2,5.43E2,-0E0,8.39E-1,4.97E-1,9.7E1,2.95E1,3.42E-1,-0E0,-4.9160734E-2,2.5E1,3.006292E-2,-2.5655492E-3,-4.921937E-2,2.2E-1,-0E0,1.44E2,4E0,7.153849E-2,-7.3923506E-3,2.0079436E-2,1E1,2.79E1,6.4365834E-2,-0E0,2.7E-1,4.5197863E-2,-4.281431E-2,-0E0,-2.0307869E-2,3.1005733E-2,4.1515524E-3,-2.1422796E-2],"split_indices":[1,5,5,3,2,2,0,4,4,1,3,4,0,0,5,0,0,0,4,0,1,0,0,0,0,0,3,0,0,4,0,0,0,0,0,0,0],"split_type":[0,0,0,0,0,0,0,0,0,0,0,0,0,0,0,0,0,0,0,0,0,0,0,0,0,0,0,0,0,0,0,0,0,0,0,0,0],"sum_hessian":[9.877508E1,7.995297E1,1.8822111E1,3.731375E1,4.263922E1,1.6889223E1,1.9328868E0,3.4174E1,3.1397524E0,3.4582565E1,8.056653E0,1.5686981E1,1.2022423E0,3.0887762E1,3.2862356E0,1.1237274E0,2.0160248E0,6.9511094E0,2.7631456E1,1.1786716E0,6.877981E0,6.1531506E0,9.533831E0,1.500437E0,1.7857984E0,6.7065654E0,2.092489E1,5.1375604E0,1.740421E0,3.4400067E0,2.7131438E0,5.579359E0,1.1272066E0,6.1509695E0,1.4773922E1,1.9624968E0,1.4775101E0],"tree_param":{"num_deleted":"0","num_feature":"6","num_nodes":"37","size_leaf_vector":"1"}},{"base_weights":[-2.3397092E-2,-4.7660476E-1,4.653712E-1,-6.590503E-1,6.101526E-2,-2.1177135E-1,7.864372E-1,-8.513782E-1,-6.893997E-2,-2.882322E-1,5.79483E-1,-3.9701108E-2,-0E0,9.079435E-2,1.0339133E0,-9.682782E-1,-3.5794787E-2,-3.7176467E-2,7.932626E-2,-0E0,-4.0121693E-2,-0E0,7.332239E-1,3.2977888E-1,-1.6423917E-1,-4.8455268E-1,6.7827934E-1,1.1034874E0,-0E0,-1.0401868E0,-0E0,-2.5427468E-2,2.1142532E-1,7.063307E-1,-3.6459708E-1,-5.4922504E-3,2.0705062E-1,-0E0,8.765697E-1,-0E0,3.6005866E-2,-2.6968211E-2,-0E0,-0E0,-4.065034E-2,4.955134E-2,-0E0,6.109122E-2,-0E0,-5.7443824E-2,-0E0,2.9637229E-2,-0E0,6.581779E-2,-0E0,-4.1526463E-2,5.6081247E-3,-0E0,1.4400622E-2,-0E0,5.3121153E-2,2.1236222E-2,-2.1900138E-2],"categories":[],"categories_nodes":[],"categories_segments":[],"categories_sizes":[],"default_left":[0,0,0,0,0,0,0,0,0,0,0,0,0,0,0,0,0,0,0,0,0,0,0,0,0,0,0,0,0,0,0,0,0,0,0,0,0,0,0,0,0,0,0,0,0,0,0,0,0,0,0,0,0,0,0,0,0,0,0,0,0,0,0],"id":13,"left_children":[1,3,5,7,9,11,13,15,17,19,21,-1,23,25,27,29,31,-1,33,35,-1,-1,37,39,41,43,45,47,-1,49,-1,-1,51,53,55,-1,57,-1,59,-1,-1,-1,61,-1,-1,-1,-1,-1,-1,-1,-1,-1,-1,-1,-1,-1,-1,-1,-1,-1,-1,-1,-1],"loss_changes":[2.3406004E1,6.1150208E0,1.1562834E1,3.9196796E0,2.9342628E0,2.2979422E0,4.8033466E0,1.9346542E0,1.9259806E0,1.4112927E0,8.5713553E-1,0E0,7.8301525E-1,4.353814E0,2.15687E0,1.3848934E0,1.0498589E0,0E0,3.4327955E0,1.8141878E-1,0E0,0E0,4.9641228E-1,1.1131028E0,6.739298E-1,1.0391734E0,1.7333925E0,9.1887474E-1,0E0,5.053005E-1,0E0,0E0,5.4171073E-1,2.0602834E0,1.928771E0,0E0,2.9826805E-2,0E0,1.6625452E-1,0E0,0E0,0E0,1.0033785E0,0E0,0E0,0E0,0E0,0E0,0E0,0E0,0E0,0E0,0E0,0E0,0E0,0E0,0E0,0E0,0E0,0E0,0E0,0E0,0E0],"parents":[2147483647,0,0,1,1,2,2,3,3,4,4,5,5,6,6,7,7,8,8,9,9,10,10,12,12,13,13,14,14,15,15,16,16,18,18,19,19,22,22,23,23,24,24,25,25,26,26,27,27,29,29,32,32,33,33,34,34,36,36,38,38,42,42],"right_children":[2,4,6,8,10,12,14,16,18,20,22,-1,24,26,28,30,32,-1,34,36,-1,-1,38,40,42,44,46,48,-1,50,-1,-1,52,54,56,-1,58,-1,60,-1,-1,-1,62,-1,-1,-1,-1,-1,-1,-1,-1,-1,-1,-1,-1,-1,-1,-1,-1,-1,-1,-1,-1],"split_conditions":[1.24E2,6.6E-1,3E1,1.12E2,3E0,2E0,3.05E-1,7E0,2.88E1,8.75E-1,2.5E1,-3.9701108E-2,3.5E1,3.8E1,1.441E0,4.1E1,9.6E1,-3.7176467E-2,1.4E1,3.09E1,-4.0121693E-2,-0E0,3.2E1,2.8E1,4.1E1,2.29E-1,4.7E1,3.26E2,-0E0,3.82E1,-0E0,-2.5427468E-2,3.9E1,3.37E1,3.1E1,-5.4922504E-3,4.9E1,-0E0,9.7E1,-0E0,3.6005866E-2,-2.6968211E-2,6E1,-0E0,-4.065034E-2,4.955134E-2,-0E0,6.109122E-2,-0E0,-5.7443824E-2,-0E0,2.9637229E-2,-0E0,6.581779E-2,-0E0,-4.1526463E-2,5.6081247E-3,-0E0,1.4400622E-2,-0E0,5.3121153E-2,2.1236222E-2,-2.1900138E-2],"split_indices":[1,4,3,1,0,0,4,0,3,4,3,0,5,5,4,5,1,0,2,3,0,0,5,5,5,4,5,2,0,3,0,0,5,3,5,0,2,0,1,0,0,0,5,0,0,0,0,0,0,0,0,0,0,0,0,0,0,0,0,0,0,0,0],"split_type":[0,0,0,0,0,0,0,0,0,0,0,0,0,0,0,0,0,0,0,0,0,0,0,0,0,0,0,0,0,0,0,0,0,0,0,0,0,0,0,0,0,0,0,0,0,0,0,0,0,0,0,0,0,0,0,0,0,0,0,0,0,0,0],"sum_hessian":[1.0361199E2,5.483624E1,4.8775753E1,4.216231E1,1.2673926E1,1.4796039E1,3.3979713E1,3.01866E1,1.1975714E1,6.68567E0,5.9882565E0,4.2016935E0,1.0594344E1,1.0335318E1,2.3644396E1,2.5166124E1,5.0204744E0,2.795659E0,9.180055E0,4.2129965E0,2.4726737E0,1.0290066E0,4.95925E0,4.4205317E0,6.173813E0,4.4501495E0,5.885168E0,2.2406027E1,1.2383704E0,2.2953377E1,2.2127478E0,2.8660676E0,2.1544065E0,4.494078E0,4.685976E0,1.6700602E0,2.542936E0,1.1436182E0,3.8156319E0,1.8389175E0,2.5816143E0,2.252713E0,3.9210997E0,1.6232281E0,2.8269217E0,4.443583E0,1.4415852E0,2.0497902E1,1.9081235E0,2.083731E1,2.116066E0,1.1197022E0,1.0347044E0,2.0226128E0,2.4714653E0,3.2002997E0,1.4856764E0,1.1532953E0,1.3896408E0,1.0789211E0,2.7367108E0,2.6132727E0,1.307827E0],"tree_param":{"num_deleted":"0","num_feature":"6","num_nodes":"63","size_leaf_vector":"1"}},{"base_weights":[-0E0,-6.533148E-1,3.0021966E-1,-7.945974E-1,-0E0,-7.809155E-1,5.0435793E-1,-8.422276E-1,-0E0,1.8619135E-1,-2.0817814E-2,-4.9827047E-2,-0E0,3.317952E-1,1.1942846E0,-4.9029205E-2,-7.349647E-2,-0E0,3.5564058E-2,-0E0,5.97705E-1,1.2966179E0,-0E0,-2.4811542E-2,-0E0,-2.0361423E-2,5.3986553E-3,2.9826516E-1,-2.589819E-1,6.9023997E-1,-4.679126E-3,7.551619E-2,-0E0,1.3089345E-2,-0E0,-2.0313125E-2,3.4327053E-2,9.57831E-4,-3.432487E-2,4.1081864E-2,1.8542897E-3],"categories":[],"categories_nodes":[],"categories_segments":[],"categories_sizes":[],"default_left":[0,0,0,0,0,0,0,0,0,0,0,0,0,0,0,0,0,0,0,0,0,0,0,0,0,0,0,0,0,0,0,0,0,0,0,0,0,0,0,0,0],"id":14,"left_children":[1,3,5,7,9,11,13,15,-1,17,-1,-1,-1,19,21,-1,23,25,-1,27,29,31,-1,-1,33,-1,-1,35,37,39,-1,-1,-1,-1,-1,-1,-1,-1,-1,-1,-1],"loss_changes":[1.9975826E1,2.6178007E0,1.5825384E1,1.1095448E0,6.8891406E-1,2.173123E0,5.370392E0,7.2904396E-1,0E0,9.326458E-1,0E0,0E0,0E0,4.696512E0,6.559906E-1,0E0,5.821798E-1,3.8478896E-1,0E0,1.8837907E0,2.5087547E0,1.3598948E0,0E0,0E0,1.32315E-1,0E0,0E0,3.2249932E0,2.1497293E0,8.5349274E-1,0E0,0E0,0E0,0E0,0E0,0E0,0E0,0E0,0E0,0E0,0E0],"parents":[2147483647,0,0,1,1,2,2,3,3,4,4,5,5,6,6,7,7,9,9,13,13,14,14,16,16,17,17,19,19,20,20,21,21,24,24,27,27,28,28,29,29],"right_children":[2,4,6,8,10,12,14,16,-1,18,-1,-1,-1,20,22,-1,24,26,-1,28,30,32,-1,-1,34,-1,-1,36,38,40,-1,-1,-1,-1,-1,-1,-1,-1,-1,-1,-1],"split_conditions":[1.08E2,6.6E-1,2.64E1,1.2E1,8.75E-1,1.58E2,1.66E2,3.74E1,-0E0,8.9E1,-2.0817814E-2,-4.9827047E-2,-0E0,3.1E1,5.3E1,-4.9029205E-2,2.2E-1,4E1,3.5564058E-2,3.37E1,5.9E1,1.9E2,-0E0,-2.4811542E-2,9.6E1,-2.0361423E-2,5.3986553E-3,2.3E1,1.32E2,1.53E2,-4.679126E-3,7.551619E-2,-0E0,1.3089345E-2,-0E0,-2.0313125E-2,3.4327053E-2,9.57831E-4,-3.432487E-2,4.1081864E-2,1.8542897E-3],"split_indices":[1,4,3,0,4,1,1,3,0,2,0,0,0,5,5,0,4,5,0,3,5,1,0,0,1,0,0,5,2,1,0,0,0,0,0,0,0,0,0,0,0],"split_type":[0,0,0,0,0,0,0,0,0,0,0,0,0,0,0,0,0,0,0,0,0,0,0,0,0,0,0,0,0,0,0,0,0,0,0,0,0,0,0,0,0],"sum_hessian":[1.00945305E2,3.0771738E1,7.017356E1,2.4624022E1,6.147718E0,9.918772E0,6.025479E1,2.3371937E1,1.252084E0,3.876337E0,2.271381E0,8.701189E0,1.2175825E0,5.0543354E1,9.711437E0,1.9409952E1,3.9619849E0,2.500868E0,1.3754691E0,2.2513876E1,2.802948E1,8.477583E0,1.233854E0,1.6977916E0,2.2641933E0,1.382203E0,1.1186651E0,9.945631E0,1.2568244E1,2.5982084E1,2.0473948E0,7.270283E0,1.2072995E0,1.106124E0,1.1580693E0,2.4287255E0,7.516906E0,6.49165E0,6.0765944E0,2.1139616E1,4.8424697E0],"tree_param":{"num_deleted":"0","num_feature":"6","num_nodes":"41","size_leaf_vector":"1"}},{"base_weights":[2.6304578E-2,-4.6010497E-1,5.7356596E-1,-5.294127E-2,-2.3273E-1,9.904845E-2,8.5451066E-1,-6.1077195E-1,9.740918E-2,-9.940122E-2,7.804344E-1,-0E0,9.482456E-1,-7.4128914E-1,-0E0,-2.9604298E-1,5.891929E-1,-4.460279E-2,9.951647E-2,5.0903473E-2,-0E0,-1.1330656E-2,-0E0,1.0092751E0,-0E0,-4.6881814E-2,-0E0,-0E0,3.7044184E-3,7.11505E-2,-7.118862E-1,7.79167E-1,-0E0,2.5787652E-1,-1.2111324E-2,1.3637349E-1,5.7153806E-2,1.8215356E-2,-0E0,-4.63763E-2,-0E0,5.2721746E-2,-0E0,3.2242606E-3,-0E0,-0E0,2.9245045E-2,1.839288E-2,-0E0],"categories":[],"categories_nodes":[],"categories_segments":[],"categories_sizes":[],"default_left":[0,0,0,0,0,0,0,0,0,0,0,0,0,0,0,0,0,0,0,0,0,0,0,0,0,0,0,0,0,0,0,0,0,0,0,0,0,0,0,0,0,0,0,0,0,0,0,0,0],"id":15,"left_children":[1,3,5,-1,7,9,11,13,15,17,19,21,23,25,27,29,31,-1,33,-1,-1,-1,-1,35,-1,-1,-1,-1,-1,37,39,41,43,45,-1,47,-1,-1,-1,-1,-1,-1,-1,-1,-1,-1,-1,-1,-1],"loss_changes":[2.726134E1,5.1969185E0,5.4857407E0,0E0,5.588789E0,3.551418E0,2.9223614E0,1.9108472E0,4.5124536E0,3.2033443E0,3.846178E-1,9.871674E-2,1.9671993E0,2.819417E0,1.0759617E-2,2.3938134E0,1.0729237E0,0E0,7.3177314E-1,0E0,0E0,0E0,0E0,5.371494E-1,0E0,0E0,0E0,0E0,0E0,4.1350624E-1,9.603791E-1,1.5083079E0,8.211632E-3,1.2319132E0,0E0,2.997936E-1,0E0,0E0,0E0,0E0,0E0,0E0,0E0,0E0,0E0,0E0,0E0,0E0,0E0],"parents":[2147483647,0,0,1,1,2,2,4,4,5,5,6,6,7,7,8,8,9,9,10,10,11,11,12,12,13,13,14,14,15,15,16,16,18,18,23,23,29,29,30,30,31,31,32,32,33,33,35,35],"right_children":[2,4,6,-1,8,10,12,14,16,18,20,22,24,26,28,30,32,-1,34,-1,-1,-1,-1,36,-1,-1,-1,-1,-1,38,40,42,44,46,-1,48,-1,-1,-1,-1,-1,-1,-1,-1,-1,-1,-1,-1,-1],"split_conditions":[1.24E2,2.7E1,3.05E-1,-5.294127E-2,1.04E2,1.6E2,2.65E1,4.3E1,3E1,2.8E1,2.59E-1,1.42E2,1.394E0,7.42E-1,9E0,7.5E1,4.5E1,-4.460279E-2,2.78E-1,5.0903473E-2,-0E0,-1.1330656E-2,-0E0,2.4E1,-0E0,-4.6881814E-2,-0E0,-0E0,3.7044184E-3,2.6E1,7.27E-1,3.52E1,1.09E2,2.17E-1,-1.2111324E-2,1.88E2,5.7153806E-2,1.8215356E-2,-0E0,-4.63763E-2,-0E0,5.2721746E-2,-0E0,3.2242606E-3,-0E0,-0E0,2.9245045E-2,1.839288E-2,-0E0],"split_indices":[1,3,4,0,1,1,3,5,5,5,4,1,4,4,0,2,5,0,4,0,0,0,0,5,0,0,0,0,0,5,4,3,1,4,0,2,0,0,0,0,0,0,0,0,0,0,0,0,0],"split_type":[0,0,0,0,0,0,0,0,0,0,0,0,0,0,0,0,0,0,0,0,0,0,0,0,0,0,0,0,0,0,0,0,0,0,0,0,0,0,0,0,0,0,0,0,0,0,0,0,0],"sum_hessian":[9.9994255E1,5.2057327E1,4.7936924E1,1.2867655E1,3.9189674E1,1.965369E1,2.8283234E1,1.9285198E1,1.9904474E1,1.4745633E1,4.9080567E0,2.2531369E0,2.6030098E1,1.6248264E1,3.0369341E0,1.0149202E1,9.755273E0,3.437444E0,1.1308189E1,3.1921363E0,1.7159207E0,1.0969665E0,1.1561702E0,2.4791191E1,1.2389054E0,1.4258746E1,1.9895177E0,1.8986399E0,1.1382941E0,4.5530047E0,5.596197E0,6.917292E0,2.8379805E0,9.843892E0,1.4642972E0,3.4786298E0,2.1312563E1,2.6297927E0,1.9232119E0,4.4564643E0,1.1397328E0,5.1958094E0,1.721483E0,1.1541697E0,1.6838107E0,4.616357E0,5.2275352E0,2.0882142E0,1.3904154E0],"tree_param":{"num_deleted":"0","num_feature":"6","num_nodes":"49","size_leaf_vector":"1"}},{"base_weights":[-0E0,-3.8797563E-1,5.261982E-1,-5.5265284E-1,1.3963376E-1,-0E0,8.0062586E-1,-7.914911E-1,-1.9789083E-2,-1.2220746E-2,3.2547286E-1,-4.555145E-1,2.7469257E-1,-0E0,9.1071576E-1,-8.710116E-1,-0E0,-3.5237852E-2,1.6051088E-1,7.144504E-1,-0E0,-3.4357846E-2,-0E0,-1.8299911E-2,4.9277276E-1,5.803504E-4,-2.0719295E-2,9.742202E-1,-0E0,-9.14806E-1,-0E0,-0E0,7.96689E-4,-1.9406836E-1,7.608456E-1,-0E0,5.0637737E-2,-2.4552676E-1,3.003657E-1,7.365893E-1,-5.7311356E-3,1.0626655E0,4.235708E-2,-4.9924456E-2,-0E0,1.396597E-2,-4.267787E-2,5.926304E-2,-0E0,-2.0149536E-2,-0E0,3.4240175E-2,-0E0,4.8484143E-2,-0E0,2.5612123E-2,6.9633156E-2,2.6238134E-2,-3.8517201E-3],"categories":[],"categories_nodes":[],"categories_segments":[],"categories_sizes":[],"default_left":[0,0,0,0,0,0,0,0,0,0,0,0,0,0,0,0,0,0,0,0,0,0,0,0,0,0,0,0,0,0,0,0,0,0,0,0,0,0,0,0,0,0,0,0,0,0,0,0,0,0,0,0,0,0,0,0,0,0,0],"id":16,"left_children":[1,3,5,7,9,11,13,15,17,-1,19,21,23,25,27,29,31,-1,33,35,37,-1,-1,-1,39,-1,-1,41,-1,43,-1,-1,-1,45,47,-1,-1,49,51,53,-1,55,57,-1,-1,-1,-1,-1,-1,-1,-1,-1,-1,-1,-1,-1,-1,-1,-1],"loss_changes":[2.101265E1,5.581295E0,6.4207306E0,5.066024E0,1.0906157E0,2.1407616E0,3.307991E0,2.1558018E0,2.5890658E0,0E0,1.211188E0,7.6282156E-1,1.7460277E0,3.372983E-1,1.8413582E0,7.1455765E-1,5.08453E-4,0E0,3.411098E0,8.540175E-1,6.349383E-1,0E0,0E0,0E0,2.0861695E0,0E0,0E0,9.1347504E-1,0E0,4.8381615E-1,0E0,0E0,0E0,2.9868176E0,7.2383237E-1,0E0,0E0,1.9898136E-1,8.3859193E-1,1.513607E0,0E0,9.0641594E-1,6.8967E-1,0E0,0E0,0E0,0E0,0E0,0E0,0E0,0E0,0E0,0E0,0E0,0E0,0E0,0E0,0E0,0E0],"parents":[2147483647,0,0,1,1,2,2,3,3,4,4,5,5,6,6,7,7,8,8,10,10,11,11,12,12,13,13,14,14,15,15,16,16,18,18,19,19,20,20,24,24,27,27,29,29,33,33,34,34,37,37,38,38,39,39,41,41,42,42],"right_children":[2,4,6,8,10,12,14,16,18,-1,20,22,24,26,28,30,32,-1,34,36,38,-1,-1,-1,40,-1,-1,42,-1,44,-1,-1,-1,46,48,-1,-1,50,52,54,-1,56,58,-1,-1,-1,-1,-1,-1,-1,-1,-1,-1,-1,-1,-1,-1,-1,-1],"split_conditions":[1.28E2,6.6E-1,3.16E1,1.12E2,2.54E1,1.44E2,2.03E-1,1E1,2.9E1,-1.2220746E-2,3.31E1,2.81E1,2.5E1,1.58E-1,4.78E2,1.27E2,9.3E1,-3.5237852E-2,3E1,3.1E1,7.3E1,-3.4357846E-2,-0E0,-1.8299911E-2,5.4E1,5.803504E-4,-2.0719295E-2,1.076E0,-0E0,5.1E1,-0E0,-0E0,7.96689E-4,1.4E1,5E0,-0E0,5.0637737E-2,6E0,1.21E2,3.09E1,-5.7311356E-3,3.1E1,3.4E1,-4.9924456E-2,-0E0,1.396597E-2,-4.267787E-2,5.926304E-2,-0E0,-2.0149536E-2,-0E0,3.4240175E-2,-0E0,4.8484143E-2,-0E0,2.5612123E-2,6.9633156E-2,2.6238134E-2,-3.8517201E-3],"split_indices":[1,4,3,1,3,1,4,0,3,0,3,3,5,4,2,2,1,0,5,5,2,0,0,0,5,0,0,4,0,5,0,0,0,2,0,0,0,0,1,3,0,5,5,0,0,0,0,0,0,0,0,0,0,0,0,0,0,0,0],"split_type":[0,0,0,0,0,0,0,0,0,0,0,0,0,0,0,0,0,0,0,0,0,0,0,0,0,0,0,0,0,0,0,0,0,0,0,0,0,0,0,0,0,0,0,0,0,0,0,0,0,0,0,0,0,0,0,0,0,0,0],"sum_hessian":[1.00630424E2,5.7595753E1,4.303467E1,4.5303516E1,1.2292238E1,1.499692E1,2.803775E1,2.965131E1,1.5652206E1,2.2095292E0,1.0082709E1,5.499989E0,9.496931E0,2.6076157E0,2.5430134E1,2.7151644E1,2.499665E0,3.983852E0,1.1668354E1,3.672852E0,6.4098573E0,3.878153E0,1.6218362E0,1.1133213E0,8.38361E0,1.4667845E0,1.1408312E0,2.4036848E1,1.393287E0,2.5374613E1,1.777032E0,1.3150048E0,1.1846601E0,6.713887E0,4.9544673E0,1.2277406E0,2.4451115E0,3.1353068E0,3.2745504E0,6.991566E0,1.3920434E0,2.0844923E1,3.191925E0,2.3679985E1,1.6946275E0,3.263308E0,3.4505792E0,2.2386289E0,2.7158384E0,2.011077E0,1.1242299E0,1.8477725E0,1.426778E0,5.7863E0,1.205266E0,8.784134E0,1.2060789E1,1.7083057E0,1.4836193E0],"tree_param":{"num_deleted":"0","num_feature":"6","num_nodes":"59","size_leaf_vector":"1"}},{"base_weights":[1.6948164E-2,-8.052692E-1,2.999083E-1,-9.3126065E-1,-0E0,7.087225E-2,9.011331E-1,-1.00482E0,-0E0,-1.9384421E-2,9.036603E-2,-3.9984755E-2,2.3848149E-1,9.6976364E-1,-0E0,-5.399169E-2,-0E0,-0E0,1.7575655E-2,-4.5790408E-2,4.466366E-1,5.2940868E-2,-0E0,3.095918E-1,-4.3011197E-1,5.5339885E-1,-2.4074519E-1,2.4509072E-2,-0E0,-3.727918E-2,-0E0,3.278617E-2,-6.301646E-3,-0E0,-2.3671998E-2],"categories":[],"categories_nodes":[],"categories_segments":[],"categories_sizes":[],"default_left":[0,0,0,0,0,0,0,0,0,0,0,0,0,0,0,0,0,0,0,0,0,0,0,0,0,0,0,0,0,0,0,0,0,0,0],"id":17,"left_children":[1,3,5,7,9,11,13,15,-1,-1,17,-1,19,21,-1,-1,-1,-1,-1,23,25,-1,-1,27,29,31,33,-1,-1,-1,-1,-1,-1,-1,-1],"loss_changes":[2.228753E1,1.8986521E0,9.11923E0,1.7226315E0,3.656519E-1,7.464185E0,1.3175373E0,6.0907364E-2,0E0,0E0,2.4531735E-1,0E0,3.2707634E0,4.0029526E-2,0E0,0E0,0E0,0E0,0E0,2.8804092E0,2.64183E0,0E0,0E0,6.764432E-1,1.3174534E0,1.9605799E0,2.7993914E-1,0E0,0E0,0E0,0E0,0E0,0E0,0E0,0E0],"parents":[2147483647,0,0,1,1,2,2,3,3,4,4,5,5,6,6,7,7,10,10,12,12,13,13,19,19,20,20,23,23,24,24,25,25,26,26],"right_children":[2,4,6,8,10,12,14,16,-1,-1,18,-1,20,22,-1,-1,-1,-1,-1,24,26,-1,-1,28,30,32,34,-1,-1,-1,-1,-1,-1,-1,-1],"split_conditions":[1.04E2,3.79E1,1.55E2,7.61E-1,3.26E-1,2.64E1,6E1,1.22E2,-0E0,-1.9384421E-2,8.7E1,-3.9984755E-2,2.9E1,4.46E1,-0E0,-5.399169E-2,-0E0,-0E0,1.7575655E-2,7.5E1,5.9E1,5.2940868E-2,-0E0,2.6E1,1.28E2,1.52E2,5E0,2.4509072E-2,-0E0,-3.727918E-2,-0E0,3.278617E-2,-6.301646E-3,-0E0,-2.3671998E-2],"split_indices":[1,3,1,4,4,3,5,2,0,0,1,0,5,3,0,0,0,0,0,2,5,0,0,5,1,1,0,0,0,0,0,0,0,0,0],"split_type":[0,0,0,0,0,0,0,0,0,0,0,0,0,0,0,0,0,0,0,0,0,0,0,0,0,0,0,0,0,0,0,0,0,0,0],"sum_hessian":[9.593069E1,2.3183834E1,7.274685E1,1.9272053E1,3.9117827E0,5.4692818E1,1.8054031E1,1.8118748E1,1.1533046E0,1.4485735E0,2.4632092E0,7.5377073E0,4.7155113E1,1.6853518E1,1.2005136E0,1.7115942E1,1.0028058E0,1.0477451E0,1.415464E0,1.8232025E1,2.8923086E1,1.5376401E1,1.4771168E0,8.221791E0,1.0010234E1,2.6462688E1,2.4603987E0,6.0838943E0,2.1378975E0,5.5823436E0,4.42789E0,2.522935E1,1.2333393E0,1.1219264E0,1.3384721E0],"tree_param":{"num_deleted":"0","num_feature":"6","num_nodes":"35","size_leaf_vector":"1"}},{"base_weights":[-4.4419743E-2,-2.6937866E-1,8.368153E-1,-5.524745E-1,6.0041416E-2,9.0205795E-1,-0E0,-6.630498E-1,2.7510324E-1,-3.8673922E-2,2.444766E-1,5.3133167E-2,-0E0,-7.547148E-1,-0E0,5.8406794E-1,-0E0,-3.4702212E-1,3.9364797E-1,-8.2606566E-1,-2.5563166E-1,-1.5355313E-2,3.2230575E-2,-0E0,4.1737426E-2,-0E0,-2.9240958E-2,1.5553155E-2,6.469013E-1,-4.4867877E-2,-0E0,-2.8337214E-2,-0E0,1.4830579E-2,-1.12931775E-2,4.0752593E-2,-0E0],"categories":[],"categories_nodes":[],"categories_segments":[],"categories_sizes":[],"default_left":[0,0,0,0,0,0,0,0,0,0,0,0,0,0,0,0,0,0,0,0,0,0,0,0,0,0,0,0,0,0,0,0,0,0,0,0,0],"id":18,"left_children":[1,3,5,7,9,11,-1,13,15,-1,17,-1,-1,19,21,23,-1,25,27,29,31,-1,-1,-1,-1,-1,-1,33,35,-1,-1,-1,-1,-1,-1,-1,-1],"loss_changes":[1.8906767E1,7.8940606E0,1.1879091E0,4.617318E0,4.969348E0,1.4240608E0,0E0,3.1267242E0,9.0050274E-1,0E0,2.9056072E0,0E0,0E0,1.2218475E-2,1.3265189E0,3.9033115E-1,0E0,7.001169E-1,1.8609853E0,6.2906265E-2,8.2487106E-1,0E0,0E0,0E0,0E0,0E0,0E0,9.518831E-1,1.8237762E0,0E0,0E0,0E0,0E0,0E0,0E0,0E0,0E0],"parents":[2147483647,0,0,1,1,2,2,3,3,4,4,5,5,7,7,8,8,10,10,13,13,14,14,15,15,17,17,18,18,19,19,20,20,27,27,28,28],"right_children":[2,4,6,8,10,12,-1,14,16,-1,18,-1,-1,20,22,24,-1,26,28,30,32,-1,-1,-1,-1,-1,-1,34,36,-1,-1,-1,-1,-1,-1,-1,-1],"split_conditions":[1.55E2,3.2E1,6E1,4.22E1,2.68E1,3.3E2,-0E0,7.27E-1,6.45E-1,-3.8673922E-2,9.5E1,5.3133167E-2,-0E0,1.32E2,2.5E1,2.5E1,-0E0,3.05E1,3.4E-1,6E0,2E0,-1.5355313E-2,3.2230575E-2,-0E0,4.1737426E-2,-0E0,-2.9240958E-2,3.51E1,1.159E0,-4.4867877E-2,-0E0,-2.8337214E-2,-0E0,1.4830579E-2,-1.12931775E-2,4.0752593E-2,-0E0],"split_indices":[1,5,5,3,3,2,0,4,4,0,1,0,0,1,5,5,0,3,4,0,0,0,0,0,0,0,0,3,4,0,0,0,0,0,0,0,0],"split_type":[0,0,0,0,0,0,0,0,0,0,0,0,0,0,0,0,0,0,0,0,0,0,0,0,0,0,0,0,0,0,0,0,0,0,0,0,0],"sum_hessian":[9.609756E1,7.8011986E1,1.8085567E1,4.3224445E1,3.4787544E1,1.6884495E1,1.2010725E0,3.9371098E1,3.8533452E0,4.9337206E0,2.9853823E1,1.4433689E1,2.4508057E0,3.564937E1,3.7217307E0,2.7164502E0,1.1368951E0,4.3953238E0,2.54585E1,2.8864014E1,6.7853537E0,1.8967506E0,1.82498E0,1.1205883E0,1.5958618E0,1.0899445E0,3.3053794E0,1.2221872E1,1.3236627E1,2.6692074E1,2.1719398E0,3.5292892E0,3.2560647E0,7.558165E0,4.663707E0,1.1778081E1,1.4585459E0],"tree_param":{"num_deleted":"0","num_feature":"6","num_nodes":"37","size_leaf_vector":"1"}},{"base_weights":[-8.466141E-2,-7.7359116E-1,1.6042061E-1,-4.87374E-2,-0E0,-7.2797155E-4,9.1153336E-1,1.1411301E-2,-1.679528E-3,-5.889088E-1,1.4844449E-1,1.1160815E0,1.8634211E-2,-6.789613E-1,-0E0,-0E0,7.42977E-1,6.447502E-2,-0E0,-1.0862288E-2,3.3486664E-2,-0E0,-7.105431E-1,-3.2703295E-1,2.1556139E-1,6.2388893E-2,-1.8294986E-2,-4.1183162E-2,-0E0,-2.616243E-2,-0E0,-0E0,3.2347266E-2,-1.4935444E-2,-0E0],"categories":[],"categories_nodes":[],"categories_segments":[],"categories_sizes":[],"default_left":[0,0,0,0,0,0,0,0,0,0,0,0,0,0,0,0,0,0,0,0,0,0,0,0,0,0,0,0,0,0,0,0,0,0,0],"id":19,"left_children":[1,3,5,-1,7,9,11,-1,-1,13,15,17,19,21,-1,23,25,-1,-1,-1,-1,-1,27,29,31,-1,33,-1,-1,-1,-1,-1,-1,-1,-1],"loss_changes":[1.7446693E1,3.9213047E0,9.717589E0,0E0,1.5410396E-1,5.775171E0,1.3920841E0,0E0,0E0,7.186866E-1,4.372161E0,7.706976E-1,1.2055272E0,1.4867783E-3,0E0,2.805375E0,4.569011E0,0E0,0E0,0E0,0E0,0E0,1.7457056E-1,1.042895E0,2.4011197E0,0E0,2.1296944E-1,0E0,0E0,0E0,0E0,0E0,0E0,0E0,0E0],"parents":[2147483647,0,0,1,1,2,2,4,4,5,5,6,6,9,9,10,10,11,11,12,12,13,13,15,15,16,16,22,22,23,23,24,24,26,26],"right_children":[2,4,6,-1,8,10,12,-1,-1,14,16,18,20,22,-1,24,26,-1,-1,-1,-1,-1,28,30,32,-1,34,-1,-1,-1,-1,-1,-1,-1,-1],"split_conditions":[2.89E1,1.46E2,1.59E2,-4.87374E-2,2.59E1,2.5E1,4.4E1,1.1411301E-2,-1.679528E-3,4.18E1,7.17E-1,1.9E2,8E0,2.99E1,-0E0,1.12E2,3.92E1,6.447502E-2,-0E0,-1.0862288E-2,3.3486664E-2,-0E0,4E0,7E0,4.1E1,6.2388893E-2,6.6E1,-4.1183162E-2,-0E0,-2.616243E-2,-0E0,-0E0,3.2347266E-2,-1.4935444E-2,-0E0],"split_indices":[3,1,1,0,3,5,5,0,0,3,4,1,0,3,0,1,3,0,0,0,0,0,0,0,5,0,2,0,0,0,0,0,0,0,0],"split_type":[0,0,0,0,0,0,0,0,0,0,0,0,0,0,0,0,0,0,0,0,0,0,0,0,0,0,0,0,0,0,0,0,0,0,0],"sum_hessian":[9.79635E1,2.6210144E1,7.175336E1,2.2197737E1,4.0124083E0,5.8804688E1,1.2948666E1,2.165745E0,1.846663E0,1.2656489E1,4.6148197E1,9.420652E0,3.5280128E0,1.0833144E1,1.8233453E0,3.734573E1,8.802466E0,8.021191E0,1.3994622E0,1.8971639E0,1.6308489E0,1.0255842E0,9.80756E0,1.5154864E1,2.2190868E1,5.9915967E0,2.8108702E0,8.054339E0,1.7532201E0,1.0039231E1,5.115633E0,1.412404E1,8.066828E0,1.6192987E0,1.1915715E0],"tree_param":{"num_deleted":"0","num_feature":"6","num_nodes":"35","size_leaf_vector":"1"}},{"base_weights":[-3.263523E-2,-3.1013864E-1,6.427349E-1,-7.5499165E-1,-7.10366E-2,-0E0,7.426754E-1,-4.1816667E-2,-0E0,-7.786134E-1,3.1312592E-2,-1.9158043E-2,7.116418E-3,8.056603E-1,-0E0,-4.752814E-2,-0E0,-8.6363316E-2,5.807543E-1,4.6158735E-2,-0E0,-2.0042121E-1,4.4337776E-2,-3.169329E-3,8.6893463E-1,7.467673E-4,-0E0,-2.158724E-2,1.1521892E-2,-0E0,5.5928797E-2],"categories":[],"categories_nodes":[],"categories_segments":[],"categories_sizes":[],"default_left":[0,0,0,0,0,0,0,0,0,0,0,0,0,0,0,0,0,0,0,0,0,0,0,0,0,0,0,0,0,0,0],"id":20,"left_children":[1,3,5,7,9,11,13,-1,-1,15,17,-1,-1,19,-1,-1,-1,21,23,-1,25,27,-1,-1,29,-1,-1,-1,-1,-1,-1],"loss_changes":[1.780024E1,6.5174637E0,2.0123463E0,7.0127964E-1,4.233251E0,3.4168103E-1,1.4170618E0,0E0,0E0,4.8178625E-1,3.2268043E0,0E0,0E0,1.1086788E0,0E0,0E0,0E0,3.0997536E0,2.5146933E0,0E0,4.475336E-4,3.122309E0,0E0,0E0,1.5013695E0,0E0,0E0,0E0,0E0,0E0,0E0],"parents":[2147483647,0,0,1,1,2,2,3,3,4,4,5,5,6,6,9,9,10,10,13,13,17,17,18,18,20,20,21,21,24,24],"right_children":[2,4,6,8,10,12,14,-1,-1,16,18,-1,-1,20,-1,-1,-1,22,24,-1,26,28,-1,-1,30,-1,-1,-1,-1,-1,-1],"split_conditions":[1.45E2,2.89E1,2.5E1,5.9E1,2E-1,3.13E1,6.2E1,-4.1816667E-2,-0E0,1.24E2,7E0,-1.9158043E-2,7.116418E-3,1.159E0,-0E0,-4.752814E-2,-0E0,4.56E1,8.9E1,4.6158735E-2,1.5E1,1.24E2,4.4337776E-2,-3.169329E-3,2.45E-1,7.467673E-4,-0E0,-2.158724E-2,1.1521892E-2,-0E0,5.5928797E-2],"split_indices":[1,3,5,5,4,3,5,0,0,1,0,0,0,4,0,0,0,3,1,0,2,1,0,0,4,0,0,0,0,0,0],"split_type":[0,0,0,0,0,0,0,0,0,0,0,0,0,0,0,0,0,0,0,0,0,0,0,0,0,0,0,0,0,0,0],"sum_hessian":[9.468742E1,6.854455E1,2.6142874E1,2.174595E1,4.67986E1,3.1652007E0,2.2977673E1,2.0314602E1,1.4313486E0,6.313583E0,4.048502E1,1.1184032E0,2.0467975E0,2.1558323E1,1.4193487E0,4.934476E0,1.379107E0,3.2538845E1,7.9461746E0,1.9160986E1,2.397337E0,3.0655607E1,1.8832366E0,1.6322969E0,6.3138776E0,1.1885965E0,1.2087405E0,2.1948296E1,8.707311E0,1.1902989E0,5.1235785E0],"tree_param":{"num_deleted":"0","num_feature":"6","num_nodes":"31","size_leaf_vector":"1"}},{"base_weights":[-5.234494E-2,-2.9881275E-1,4.8950177E-1,-4.889633E-2,-9.184557E-2,1.6643655E-1,8.589197E-1,-2.9697815E-1,2.6333052E-1,-0E0,4.8014745E-1,1.0201653E0,-0E0,-6.050043E-1,-0E0,-3.4830846E-2,4.895225E-1,2.178747E-1,-3.9520568E-1,7.205212E-1,-0E0,5.7302207E-2,-0E0,-7.427138E-1,2.3401366E-3,-7.869591E-2,3.1999804E-2,-2.5982896E-2,3.4817755E-2,6.329981E-1,-1.16603E-3,-1.5892912E-2,3.668611E-2,1.3646941E-3,-4.0529057E-2,4.3361545E-2,-0E0,-4.298775E-2,-0E0,6.5579093E-3,-2.5770776E-2,-0E0,1.4968502E-2,-0E0,4.1000254E-2],"categories":[],"categories_nodes":[],"categories_segments":[],"categories_sizes":[],"default_left":[0,0,0,0,0,0,0,0,0,0,0,0,0,0,0,0,0,0,0,0,0,0,0,0,0,0,0,0,0,0,0,0,0,0,0,0,0,0,0,0,0,0,0,0,0],"id":21,"left_children":[1,3,5,-1,7,9,11,13,15,17,19,21,-1,23,25,27,29,31,33,35,-1,-1,-1,37,-1,39,-1,-1,41,43,-1,-1,-1,-1,-1,-1,-1,-1,-1,-1,-1,-1,-1,-1,-1],"loss_changes":[1.2771152E1,7.8379636E0,2.3062506E0,0E0,4.010724E0,1.3827524E0,2.3357973E0,3.496128E0,1.7084078E0,1.1951802E0,1.4003052E0,3.028326E-1,0E0,2.365934E0,1.1249216E0,7.035948E-1,1.5354607E0,2.2032177E0,1.6915903E0,2.3108101E-1,0E0,0E0,0E0,1.2740488E0,0E0,1.8868668E0,0E0,0E0,2.8826103E-1,1.1742034E0,0E0,0E0,0E0,0E0,0E0,0E0,0E0,0E0,0E0,0E0,0E0,0E0,0E0,0E0,0E0],"parents":[2147483647,0,0,1,1,2,2,4,4,5,5,6,6,7,7,8,8,9,9,10,10,11,11,13,13,14,14,15,15,16,16,17,17,18,18,19,19,23,23,25,25,28,28,29,29],"right_children":[2,4,6,-1,8,10,12,14,16,18,20,22,-1,24,26,28,30,32,34,36,-1,-1,-1,38,-1,40,-1,-1,42,44,-1,-1,-1,-1,-1,-1,-1,-1,-1,-1,-1,-1,-1,-1,-1],"split_conditions":[1.42E2,2.71E1,1.66E2,-4.889633E-2,5.03E-1,4.1E1,1.159E0,1.12E2,1.04E2,1.06E2,1.57E2,5.6E1,-0E0,1E1,4.07E1,2E0,2.1E2,3E1,3.19E1,3.53E1,-0E0,5.7302207E-2,-0E0,4.23E1,2.3401366E-3,3.46E1,3.1999804E-2,-2.5982896E-2,6.6E-1,3.02E1,-1.16603E-3,-1.5892912E-2,3.668611E-2,1.3646941E-3,-4.0529057E-2,4.3361545E-2,-0E0,-4.298775E-2,-0E0,6.5579093E-3,-2.5770776E-2,-0E0,1.4968502E-2,-0E0,4.1000254E-2],"split_indices":[1,3,1,0,4,5,4,1,1,2,1,5,0,0,3,0,2,3,3,3,0,0,0,3,0,3,0,0,4,3,0,0,0,0,0,0,0,0,0,0,0,0,0,0,0],"split_type":[0,0,0,0,0,0,0,0,0,0,0,0,0,0,0,0,0,0,0,0,0,0,0,0,0,0,0,0,0,0,0,0,0,0,0,0,0,0,0,0,0,0,0,0,0],"sum_hessian":[9.496244E1,6.6849106E1,2.8113335E1,1.4335933E1,5.2513176E1,1.7215471E1,1.0897864E1,3.5176365E1,1.7336811E1,1.0028915E1,7.1865554E0,9.678356E0,1.2195084E0,1.726827E1,1.7908094E1,5.9364715E0,1.1400339E1,5.287695E0,4.741221E0,5.332739E0,1.8538165E0,8.481769E0,1.1965871E0,1.54005165E1,1.8677545E0,1.6195742E1,1.7123531E0,1.8513148E0,4.085157E0,1.0245467E1,1.1548717E0,1.7310169E0,3.556678E0,1.4467326E0,3.2944882E0,4.1037197E0,1.2290188E0,1.4231461E1,1.1690552E0,9.703412E0,6.492329E0,1.5014734E0,2.5836833E0,2.0304863E0,8.214981E0],"tree_param":{"num_deleted":"0","num_feature":"6","num_nodes":"45","size_leaf_vector":"1"}},{"base_weights":[-3.0307353E-3,-3.6941776E-1,3.6144993E-1,-7.203347E-1,-7.117762E-2,-9.4038986E-2,5.6069833E-1,-4.8169345E-2,-0E0,-1.820467E-1,3.9666794E-2,-2.8826984E-2,1.4040567E-3,3.4449333E-1,4.775419E-2,-1.9769622E-2,4.0082464E-1,3.2646346E-1,-3.234667E-1,5.06656E-1,-1.2406635E-1,4.4059694E-2,1.4406252E-1,3.0001674E-2,-0E0,4.892712E-2,-0E0,-6.182388E-1,1.11808285E-1,-0E0,4.2991992E-2,1.2509099E-2,-4.5315012E-1,-6.5980904E-2,6.7557067E-1,-1.5924754E-2,-0E0,-4.0316064E-2,-0E0,2.9001316E-2,-1.9425597E-2,-3.58617E-2,-0E0,5.828112E-3,-3.2292664E-2,5.0029244E-2,-0E0],"categories":[],"categories_nodes":[],"categories_segments":[],"categories_sizes":[],"default_left":[0,0,0,0,0,0,0,0,0,0,0,0,0,0,0,0,0,0,0,0,0,0,0,0,0,0,0,0,0,0,0,0,0,0,0,0,0,0,0,0,0,0,0,0,0,0,0],"id":22,"left_children":[1,3,5,7,9,11,13,-1,15,17,-1,-1,19,21,-1,-1,23,25,27,29,31,-1,33,-1,-1,-1,35,37,39,-1,-1,-1,41,43,45,-1,-1,-1,-1,-1,-1,-1,-1,-1,-1,-1,-1],"loss_changes":[1.3026452E1,4.388042E0,4.83086E0,3.0919628E0,2.2933357E0,1.1539656E0,1.0814991E0,0E0,1.0134313E0,2.1193194E0,0E0,0E0,1.117364E0,1.3829303E0,0E0,0E0,1.4986622E-1,1.7854061E0,3.6526725E0,9.583835E-1,1.2445068E0,0E0,2.9325023E0,0E0,0E0,0E0,2.1475296E-1,2.2315993E0,2.35558E0,0E0,0E0,0E0,4.9919116E-1,1.9677392E0,1.7646794E0,0E0,0E0,0E0,0E0,0E0,0E0,0E0,0E0,0E0,0E0,0E0,0E0],"parents":[2147483647,0,0,1,1,2,2,3,3,4,4,5,5,6,6,8,8,9,9,12,12,13,13,16,16,17,17,18,18,19,19,20,20,22,22,26,26,27,27,28,28,32,32,33,33,34,34],"right_children":[2,4,6,8,10,12,14,-1,16,18,-1,-1,20,22,-1,-1,24,26,28,30,32,-1,34,-1,-1,-1,36,38,40,-1,-1,-1,42,44,46,-1,-1,-1,-1,-1,-1,-1,-1,-1,-1,-1,-1],"split_conditions":[1.24E2,3.09E1,3E1,6.74E-1,4.56E1,2.7E1,7E0,-4.8169345E-2,3E0,3.26E1,3.9666794E-2,-2.8826984E-2,4E0,3.24E1,4.775419E-2,-1.9769622E-2,3.4E1,2.77E-1,5.01E-1,2.33E-1,2.56E1,4.4059694E-2,4.18E1,3.0001674E-2,-0E0,4.892712E-2,1.01E2,1.65E2,3.91E1,-0E0,4.2991992E-2,1.2509099E-2,2.3E1,3.8E1,2.55E2,-1.5924754E-2,-0E0,-4.0316064E-2,-0E0,2.9001316E-2,-1.9425597E-2,-3.58617E-2,-0E0,5.828112E-3,-3.2292664E-2,5.0029244E-2,-0E0],"split_indices":[1,3,3,4,3,5,0,0,0,3,0,0,0,3,0,0,5,4,4,4,3,0,3,0,0,0,1,2,3,0,0,0,2,3,2,0,0,0,0,0,0,0,0,0,0,0,0],"split_type":[0,0,0,0,0,0,0,0,0,0,0,0,0,0,0,0,0,0,0,0,0,0,0,0,0,0,0,0,0,0,0,0,0,0,0,0,0,0,0,0,0,0,0,0,0,0,0],"sum_hessian":[9.5486916E1,4.898041E1,4.6506508E1,2.0312233E1,2.8668177E1,1.2786129E1,3.372038E1,1.56318655E1,4.680367E0,2.7043636E1,1.6245416E0,3.1871195E0,9.5990095E0,2.3908482E1,9.811897E0,2.4494855E0,2.2308815E0,4.061156E0,2.2982481E1,2.8906634E0,6.7083464E0,4.500542E0,1.940794E1,1.026784E0,1.2040974E0,1.6485001E0,2.4126556E0,1.4821968E1,8.160513E0,1.0029601E0,1.8877033E0,1.8726459E0,4.8357005E0,1.31899185E1,6.2180204E0,1.3094277E0,1.1032277E0,1.2891062E1,1.9309055E0,5.2585726E0,2.9019399E0,2.5996866E0,2.236014E0,9.215085E0,3.974834E0,4.512181E0,1.7058398E0],"tree_param":{"num_deleted":"0","num_feature":"6","num_nodes":"47","size_leaf_vector":"1"}},{"base_weights":[3.8138445E-2,-5.772641E-1,2.6805598E-1,-7.355468E-1,5.7098925E-2,-1.2489146E-1,5.166644E-1,-7.840732E-1,-0E0,-0E0,1.6696675E-2,-4.1460615E-1,1.9388331E-1,2.8992543E-1,4.622417E-2,-4.32703E-2,-0E0,-0E0,-6.060591E-1,-0E0,3.88585E-2,9.816624E-2,7.824554E-1,4.789963E-1,-2.1346794E-2,-4.202302E-2,-3.479454E-2,1.3199706E-1,-2.974034E-2,-1.1602221E-2,6.009252E-1,-0E0,4.7678728E-2,-0E0,3.5562538E-2,4.795714E-3,-2.167E-2,-0E0,1.9758215E-2,9.8882085E-3,-2.1482687E-2,-0E0,4.7967967E-2],"categories":[],"categories_nodes":[],"categories_segments":[],"categories_sizes":[],"default_left":[0,0,0,0,0,0,0,0,0,0,0,0,0,0,0,0,0,0,0,0,0,0,0,0,0,0,0,0,0,0,0,0,0,0,0,0,0,0,0,0,0,0,0],"id":23,"left_children":[1,3,5,7,9,11,13,15,-1,-1,-1,17,19,21,-1,-1,-1,23,25,27,-1,29,31,33,-1,-1,35,37,-1,39,41,-1,-1,-1,-1,-1,-1,-1,-1,-1,-1,-1,-1],"loss_changes":[1.2931719E1,3.159336E0,7.216218E0,8.331375E-1,3.3405063E-1,2.7079659E0,2.2558336E0,9.741497E-2,0E0,0E0,0E0,1.5685391E0,1.7509887E0,1.9223032E0,0E0,0E0,0E0,1.2201434E0,4.4633007E-1,1.0262127E0,0E0,1.9511876E0,9.41515E-3,1.8420136E-1,0E0,0E0,6.1787266E-1,4.598595E-1,0E0,1.8664008E0,1.6862881E0,0E0,0E0,0E0,0E0,0E0,0E0,0E0,0E0,0E0,0E0,0E0,0E0],"parents":[2147483647,0,0,1,1,2,2,3,3,4,4,5,5,6,6,7,7,11,11,12,12,13,13,17,17,18,18,19,19,21,21,22,22,23,23,26,26,27,27,29,29,30,30],"right_children":[2,4,6,8,10,12,14,16,-1,-1,-1,18,20,22,-1,-1,-1,24,26,28,-1,30,32,34,-1,-1,36,38,-1,40,42,-1,-1,-1,-1,-1,-1,-1,-1,-1,-1,-1,-1],"split_conditions":[2.9E1,1.46E2,1.15E2,9.55E-1,1.9E-1,4.55E-1,1.55E2,6E1,-0E0,-0E0,1.6696675E-2,3.25E1,8.7E1,4.18E1,4.622417E-2,-4.32703E-2,-0E0,2.99E-1,4.1E1,3.91E1,3.88585E-2,4.3E1,2.7E1,3.02E1,-2.1346794E-2,-4.202302E-2,6E0,1E2,-2.974034E-2,3.47E1,2.2E-1,-0E0,4.7678728E-2,-0E0,3.5562538E-2,4.795714E-3,-2.167E-2,-0E0,1.9758215E-2,9.8882085E-3,-2.1482687E-2,-0E0,4.7967967E-2],"split_indices":[3,1,1,4,4,4,1,5,0,0,0,3,2,3,0,0,0,4,5,3,0,5,5,3,0,0,0,1,0,3,4,0,0,0,0,0,0,0,0,0,0,0,0],"split_type":[0,0,0,0,0,0,0,0,0,0,0,0,0,0,0,0,0,0,0,0,0,0,0,0,0,0,0,0,0,0,0,0,0,0,0,0,0,0,0,0,0,0,0],"sum_hessian":[9.1487236E1,2.328961E1,6.8197624E1,1.9772871E1,3.5167396E0,2.5061293E1,4.3136333E1,1.8636372E1,1.1364985E0,1.1048266E0,2.4119132E0,1.4615005E1,1.0446287E1,2.9490446E1,1.3645887E1,1.672539E1,1.9109818E0,4.0368853E0,1.0578119E1,7.5067363E0,2.9395516E0,2.3550898E1,5.939548E0,2.3912537E0,1.6456313E0,6.246867E0,4.3312526E0,5.702669E0,1.8040667E0,1.8499714E1,5.0511847E0,1.8312879E0,4.10826E0,1.3162084E0,1.0750455E0,1.8447704E0,2.486482E0,2.6743743E0,3.028295E0,1.0996851E1,7.5028625E0,1.4625826E0,3.588602E0],"tree_param":{"num_deleted":"0","num_feature":"6","num_nodes":"43","size_leaf_vector":"1"}},{"base_weights":[-5.5878215E-2,-2.2424763E-1,5.8275235E-1,-8.6705196E-1,-7.8572504E-2,6.8774295E-1,-0E0,-4.7728393E-2,-0E0,-3.0744806E-1,1.2796336E-1,8.490093E-1,-0E0,-3.7037438E-1,1.5980184E-2,-8.5217446E-2,5.3739405E-1,4.713053E-2,5.024474E-2,-5.8581075E-3,-0E0,-2.8232131E-2,-5.95959E-1,-2.3713143E-1,3.1233853E-1,-0E0,6.528538E-1,-1.2522726E-2,3.2370865E-2,-2.0362535E-2,1.2677021E-2,-0E0,-3.9121274E-2,1.5752437E-3,-2.280573E-2,2.722982E-2,-0E0,3.833003E-2,-0E0],"categories":[],"categories_nodes":[],"categories_segments":[],"categories_sizes":[],"default_left":[0,0,0,0,0,0,0,0,0,0,0,0,0,0,0,0,0,0,0,0,0,0,0,0,0,0,0,0,0,0,0,0,0,0,0,0,0,0,0],"id":24,"left_children":[1,3,5,7,9,11,-1,-1,-1,13,15,17,19,21,-1,23,25,27,-1,-1,-1,29,31,33,35,-1,37,-1,-1,-1,-1,-1,-1,-1,-1,-1,-1,-1,-1],"loss_changes":[1.0025996E1,6.2365475E0,1.6146789E0,1.3552761E-1,3.314597E0,2.4613562E0,0E0,0E0,0E0,1.4768822E0,3.3638482E0,2.6755524E-1,2.7837772E-2,1.8639426E0,0E0,1.2580166E0,1.0532022E0,1.1772405E0,0E0,0E0,0E0,1.7813052E0,1.4185872E0,1.3518237E0,2.4182528E-1,0E0,6.4498043E-1,0E0,0E0,0E0,0E0,0E0,0E0,0E0,0E0,0E0,0E0,0E0,0E0],"parents":[2147483647,0,0,1,1,2,2,3,3,4,4,5,5,9,9,10,10,11,11,12,12,13,13,15,15,16,16,17,17,21,21,22,22,23,23,24,24,26,26],"right_children":[2,4,6,8,10,12,-1,-1,-1,14,16,18,20,22,-1,24,26,28,-1,-1,-1,30,32,34,36,-1,38,-1,-1,-1,-1,-1,-1,-1,-1,-1,-1,-1,-1],"split_conditions":[1.55E2,2.63E1,5.8E1,5.8E1,3.1E1,3.26E2,-0E0,-4.7728393E-2,-0E0,4.56E1,5.14E-1,2.7E1,1.74E2,3.37E1,1.5980184E-2,1.27E2,9.5E1,3.29E-1,5.024474E-2,-5.8581075E-3,-0E0,3.09E1,1E0,3.9E1,1.85E2,-0E0,5.9E1,-1.2522726E-2,3.2370865E-2,-2.0362535E-2,1.2677021E-2,-0E0,-3.9121274E-2,1.5752437E-3,-2.280573E-2,2.722982E-2,-0E0,3.833003E-2,-0E0],"split_indices":[1,3,5,5,5,2,0,0,0,3,4,5,1,3,0,2,1,4,0,0,0,3,0,5,2,0,5,0,0,0,0,0,0,0,0,0,0,0,0],"split_type":[0,0,0,0,0,0,0,0,0,0,0,0,0,0,0,0,0,0,0,0,0,0,0,0,0,0,0,0,0,0,0,0,0,0,0,0,0,0,0],"sum_hessian":[9.436144E1,7.642687E1,1.793457E1,1.1937049E1,6.448982E1,1.6008514E1,1.9260552E0,1.0805722E1,1.1313266E0,3.2655434E1,3.1834387E1,1.357544E1,2.4330747E0,3.1455204E1,1.2002307E0,1.9848955E1,1.1985431E1,2.946399E0,1.0629041E1,1.2122309E0,1.2208438E0,1.470712E1,1.6748083E1,1.6473139E1,3.3758156E0,1.715857E0,1.0269574E1,1.1870353E0,1.7593637E0,7.691898E0,7.015222E0,3.987989E0,1.2760095E1,5.262755E0,1.1210384E1,1.4595671E0,1.9162486E0,9.113267E0,1.1563066E0],"tree_param":{"num_deleted":"0","num_feature":"6","num_nodes":"39","size_leaf_vector":"1"}},{"base_weights":[-1.5965538E-3,-1.872426E-1,4.8055595E-1,-4.237267E-2,-1.4016852E-2,1.5801139E-1,7.9303163E-1,-2.875811E-1,1.2138784E-1,5.210535E-1,-7.7581264E-2,9.5558286E-1,-0E0,-4.3290894E-2,-4.2204745E-2,-0E0,7.328727E-1,-0E0,7.548369E-1,-5.040949E-1,3.156909E-2,5.587326E-2,-0E0,-4.4500387E-1,1.025288E-1,-9.83143E-2,6.850919E-1,-0E0,4.6060026E-2,-0E0,4.8325565E-2,9.695681E-3,-5.696804E-2,-2.9773798E-2,-0E0,2.639361E-2,-0E0,1.8302746E-3,-2.2685887E-2,4.2939927E-2,-0E0],"categories":[],"categories_nodes":[],"categories_segments":[],"categories_sizes":[],"default_left":[0,0,0,0,0,0,0,0,0,0,0,0,0,0,0,0,0,0,0,0,0,0,0,0,0,0,0,0,0,0,0,0,0,0,0,0,0,0,0,0,0],"id":25,"left_children":[1,3,5,-1,7,9,11,13,15,17,19,21,-1,-1,23,25,27,-1,29,31,-1,-1,-1,33,35,37,39,-1,-1,-1,-1,-1,-1,-1,-1,-1,-1,-1,-1,-1,-1],"loss_changes":[8.215112E0,6.7447057E0,1.4361501E0,0E0,2.3184144E0,1.7745717E0,1.3207498E0,1.9721851E0,2.1681576E0,1.234282E0,2.6339452E0,6.6442776E-1,0E0,0E0,1.392828E0,2.686179E0,2.8645515E-1,0E0,1.1655569E-2,3.7732418E0,0E0,0E0,0E0,3.227017E-1,4.792765E-1,1.6837374E0,2.3922014E-1,0E0,0E0,0E0,0E0,0E0,0E0,0E0,0E0,0E0,0E0,0E0,0E0,0E0,0E0],"parents":[2147483647,0,0,1,1,2,2,4,4,5,5,6,6,7,7,8,8,9,9,10,10,11,11,14,14,15,15,16,16,18,18,19,19,23,23,24,24,25,25,26,26],"right_children":[2,4,6,-1,8,10,12,14,16,18,20,22,-1,-1,24,26,28,-1,30,32,-1,-1,-1,34,36,38,40,-1,-1,-1,-1,-1,-1,-1,-1,-1,-1,-1,-1,-1,-1],"split_conditions":[1.45E2,2.7E1,1.66E2,-4.237267E-2,1.08E2,3.2E1,5.8E1,2.3E-1,9.05E-1,2.98E1,6.95E-1,1.222E0,-0E0,-4.3290894E-2,2.6E1,4.22E1,2E0,-0E0,1.48E2,3.1E1,3.156909E-2,5.587326E-2,-0E0,3.73E1,2.8E1,3.47E1,4.3E1,-0E0,4.6060026E-2,-0E0,4.8325565E-2,9.695681E-3,-5.696804E-2,-2.9773798E-2,-0E0,2.639361E-2,-0E0,1.8302746E-3,-2.2685887E-2,4.2939927E-2,-0E0],"split_indices":[1,3,1,0,1,2,5,4,4,3,4,4,0,0,5,3,0,0,1,3,0,0,0,3,5,3,5,0,0,0,0,0,0,0,0,0,0,0,0,0,0],"split_type":[0,0,0,0,0,0,0,0,0,0,0,0,0,0,0,0,0,0,0,0,0,0,0,0,0,0,0,0,0,0,0,0,0,0,0,0,0,0,0,0,0],"sum_hessian":[9.305064E1,6.91219E1,2.3928732E1,1.2961946E1,5.6159958E1,1.4090314E1,9.838419E0,2.0666962E1,3.5492996E1,6.7388563E0,7.351457E0,7.9110494E0,1.9273695E0,4.43279E0,1.6234173E1,3.145507E1,4.0379252E0,1.885083E0,4.8537736E0,5.5857353E0,1.765722E0,6.6887712E0,1.2222786E0,5.5692735E0,1.0664899E1,2.7315004E1,4.140066E0,1.1913623E0,2.846563E0,1.9452381E0,2.9085355E0,2.0984328E0,3.4873025E0,3.9948506E0,1.574423E0,1.3563364E0,9.308563E0,1.8066607E1,9.248398E0,2.9220657E0,1.2180003E0],"tree_param":{"num_deleted":"0","num_feature":"6","num_nodes":"41","size_leaf_vector":"1"}},{"base_weights":[5.4509744E-2,-7.6410747E-1,2.1461786E-1,-8.5875326E-1,-0E0,-5.445165E-1,3.5202348E-1,-4.7309585E-2,-0E0,-3.9040584E-2,1.0448782E-2,-9.3470566E-2,4.7724998E-1,-5.433252E-1,2.8794E-1,5.474266E-1,-0E0,-0E0,-4.2149246E-2,5.975386E-1,-0E0,2.1856768E-1,6.622414E-1,-1.627901E-2,1.2174944E-2,1.5194644E-2,-2.4350429E-2,-0E0,4.4467814E-2,-0E0,-1.687612E-2,-0E0,4.4413958E-2,-0E0,3.5860553E-2,-0E0,1.4279571E-2],"categories":[],"categories_nodes":[],"categories_segments":[],"categories_sizes":[],"default_left":[0,0,0,0,0,0,0,0,0,0,0,0,0,0,0,0,0,0,0,0,0,0,0,0,0,0,0,0,0,0,0,0,0,0,0,0,0],"id":26,"left_children":[1,3,5,7,-1,9,11,-1,-1,-1,-1,13,15,17,19,21,23,25,-1,27,29,31,33,-1,35,-1,-1,-1,-1,-1,-1,-1,-1,-1,-1,-1,-1],"loss_changes":[1.1919916E1,1.1854324E0,8.37836E0,1.8780136E-1,0E0,2.4493682E0,4.319085E0,0E0,0E0,0E0,0E0,2.8802633E0,2.357173E0,7.8845596E-1,1.2176821E0,8.8869095E-1,2.8610763E-1,7.9428697E-1,0E0,5.517268E-2,2.1883772E-1,1.936604E0,5.6130695E-1,0E0,2.344346E-1,0E0,0E0,0E0,0E0,0E0,0E0,0E0,0E0,0E0,0E0,0E0,0E0],"parents":[2147483647,0,0,1,1,2,2,3,3,5,5,6,6,11,11,12,12,13,13,14,14,15,15,16,16,17,17,19,19,20,20,21,21,22,22,24,24],"right_children":[2,4,6,8,-1,10,12,-1,-1,-1,-1,14,16,18,20,22,24,26,-1,28,30,32,34,-1,36,-1,-1,-1,-1,-1,-1,-1,-1,-1,-1,-1,-1],"split_conditions":[2.64E1,1.52E2,9.5E1,5.8E1,-0E0,8.7E1,2.5E1,-4.7309585E-2,-0E0,-3.9040584E-2,1.0448782E-2,1.31E2,5.5E1,6.5E1,2.55E2,3.1E1,2.99E1,2E0,-4.2149246E-2,2E0,2.3E1,7.02E-1,1.29E-1,-1.627901E-2,1.43E2,1.5194644E-2,-2.4350429E-2,-0E0,4.4467814E-2,-0E0,-1.687612E-2,-0E0,4.4413958E-2,-0E0,3.5860553E-2,-0E0,1.4279571E-2],"split_indices":[3,1,1,5,0,2,5,0,0,0,0,1,5,2,2,5,3,0,0,0,5,4,4,0,1,0,0,0,0,0,0,0,0,0,0,0,0],"split_type":[0,0,0,0,0,0,0,0,0,0,0,0,0,0,0,0,0,0,0,0,0,0,0,0,0,0,0,0,0,0,0,0,0,0,0,0,0],"sum_hessian":[9.288626E1,1.355625E1,7.933001E1,1.2131945E1,1.4243042E0,1.0588797E1,6.874121E1,1.10287285E1,1.1032166E0,9.371869E0,1.2169275E0,1.3386543E1,5.535467E1,7.150371E0,6.2361727E0,4.96979E1,5.6567693E0,3.2466128E0,3.903758E0,4.090651E0,2.1455216E0,1.5866252E1,3.383165E1,1.9371147E0,3.7196543E0,1.6094582E0,1.6371546E0,2.5077312E0,1.58292E0,1.0500219E0,1.0954998E0,1.3074916E1,2.7913365E0,1.2458913E0,3.258576E1,1.5748318E0,2.1448226E0],"tree_param":{"num_deleted":"0","num_feature":"6","num_nodes":"37","size_leaf_vector":"1"}},{"base_weights":[5.2002516E-2,-2.9038286E-1,2.8542128E-1,-8.6347E-1,3.279352E-2,-0E0,6.05188E-1,-4.9968638E-2,-0E0,-2.7735668E-1,2.3132871E-1,-1.4102165E-1,5.383024E-1,-7.820967E-3,7.093694E-1,-3.4151755E-2,1.6733732E-2,4.3170622E-1,-3.1108534E-1,4.3109253E-2,-5.6176543E-1,-0E0,3.171276E-2,7.3534524E-1,-0E0,7.2998184E-1,-0E0,-2.5615668E-2,-0E0,2.6828423E-1,-3.4171227E-2,-4.1190792E-2,-0E0,3.0829853E-1,9.289804E-1,5.411686E-2,-0E0,-2.9202249E-2,2.4618953E-2,-0E0,2.8795946E-2,-1.0714517E-2,6.351294E-3,3.1415235E-2,-0E0,-0E0,5.1648404E-2],"categories":[],"categories_nodes":[],"categories_segments":[],"categories_sizes":[],"default_left":[0,0,0,0,0,0,0,0,0,0,0,0,0,0,0,0,0,0,0,0,0,0,0,0,0,0,0,0,0,0,0,0,0,0,0,0,0,0,0,0,0,0,0,0,0,0,0],"id":27,"left_children":[1,3,5,7,9,11,13,-1,-1,15,17,19,21,-1,23,-1,-1,25,27,29,31,-1,-1,33,-1,35,37,-1,-1,39,-1,-1,41,43,45,-1,-1,-1,-1,-1,-1,-1,-1,-1,-1,-1,-1],"loss_changes":[7.27311E0,7.3886156E0,5.2699356E0,7.737217E-1,1.3968577E0,2.2340064E0,2.7733107E0,0E0,0E0,2.1703243E0,2.0116277E0,2.4785545E0,4.6103716E-2,0E0,2.7482224E-1,0E0,0E0,1.9008629E0,2.456797E-1,2.4051647E0,9.6944475E-1,0E0,0E0,4.3322086E-1,0E0,2.48626E0,1.9311303E0,0E0,0E0,1.2589973E0,0E0,0E0,1.4908762E-1,1.3967817E0,4.0604877E-1,0E0,0E0,0E0,0E0,0E0,0E0,0E0,0E0,0E0,0E0,0E0,0E0],"parents":[2147483647,0,0,1,1,2,2,3,3,4,4,5,5,6,6,9,9,10,10,11,11,12,12,14,14,17,17,18,18,19,19,20,20,23,23,25,25,26,26,29,29,32,32,33,33,34,34],"right_children":[2,4,6,8,10,12,14,-1,-1,16,18,20,22,-1,24,-1,-1,26,28,30,32,-1,-1,34,-1,36,38,-1,-1,40,-1,-1,42,44,46,-1,-1,-1,-1,-1,-1,-1,-1,-1,-1,-1,-1],"split_conditions":[3.1E1,2.8E1,3.95E-1,6.72E-1,2.63E1,4.18E1,8.8E1,-4.9968638E-2,-0E0,1.51E2,5.4E1,2.8E-1,1.16E2,-7.820967E-3,1.394E0,-3.4151755E-2,1.6733732E-2,3.83E-1,3.05E-1,3.79E1,3.55E1,-0E0,3.171276E-2,2.9E1,-0E0,1.5E2,5.71E-1,-2.5615668E-2,-0E0,2.2E-1,-3.4171227E-2,-4.1190792E-2,3.32E-1,2.6E1,1E0,5.411686E-2,-0E0,-2.9202249E-2,2.4618953E-2,-0E0,2.8795946E-2,-1.0714517E-2,6.351294E-3,3.1415235E-2,-0E0,-0E0,5.1648404E-2],"split_indices":[3,5,4,4,3,3,1,0,0,1,5,4,1,0,4,0,0,4,4,3,3,0,0,5,0,1,4,0,0,4,0,0,4,5,0,0,0,0,0,0,0,0,0,0,0,0,0],"split_type":[0,0,0,0,0,0,0,0,0,0,0,0,0,0,0,0,0,0,0,0,0,0,0,0,0,0,0,0,0,0,0,0,0,0,0,0,0,0,0,0,0,0,0,0,0,0,0],"sum_hessian":[8.903083E1,3.4255577E1,5.4775253E1,1.2864855E1,2.1390724E1,2.8980396E1,2.5794859E1,1.1135907E1,1.7289476E0,6.2277985E0,1.5162926E1,2.3985577E1,4.994818E0,1.9109546E0,2.3883905E1,4.789327E0,1.438471E0,1.2567848E1,2.5950773E0,1.5655171E1,8.330406E0,1.159251E0,3.8355672E0,2.2665169E1,1.2187356E0,7.3124914E0,5.255357E0,1.4670951E0,1.1279821E0,1.3383413E1,2.2717583E0,5.291068E0,3.0393379E0,9.490704E0,1.3174465E1,5.4399986E0,1.8724927E0,2.5231385E0,2.7322183E0,6.837854E0,6.545559E0,1.7303128E0,1.309025E0,5.6151E0,3.875604E0,1.2533948E0,1.192107E1],"tree_param":{"num_deleted":"0","num_feature":"6","num_nodes":"47","size_leaf_vector":"1"}},{"base_weights":[4.666544E-2,-1.6650671E-1,3.9316985E-1,-3.517482E-1,3.480819E-1,-4.2058816E-3,5.2526176E-1,-7.297467E-1,-1.3516803E-1,-0E0,3.5656504E-2,-3.226581E-2,1.5035862E-1,5.7113105E-1,-0E0,-8.7179136E-1,-0E0,3.419384E-2,-3.810346E-1,-3.2205033E-1,2.927184E-1,-0E0,4.681734E-1,3.4656906E-1,4.9301174E-2,-4.9881957E-2,-0E0,4.02727E-1,-1.9461326E-1,-5.6886894E-1,-0E0,-0E0,-3.315472E-2,-5.116278E-4,3.598338E-2,4.6168603E-3,-1.676208E-2,3.6714148E-2,-0E0,4.524444E-1,-1.5073785E-2,-6.315373E-3,6.148935E-2,-3.2897476E-2,6.516323E-3,-4.081955E-2,-0E0,-1.0841471E-2,2.1816947E-2,4.181622E-3,3.336608E-2],"categories":[],"categories_nodes":[],"categories_segments":[],"categories_sizes":[],"default_left":[0,0,0,0,0,0,0,0,0,0,0,0,0,0,0,0,0,0,0,0,0,0,0,0,0,0,0,0,0,0,0,0,0,0,0,0,0,0,0,0,0,0,0,0,0,0,0,0,0,0,0],"id":28,"left_children":[1,3,5,7,9,11,13,15,17,19,-1,-1,21,23,-1,25,-1,27,29,31,33,35,37,39,-1,-1,-1,41,43,45,47,-1,-1,-1,-1,-1,-1,-1,-1,49,-1,-1,-1,-1,-1,-1,-1,-1,-1,-1,-1],"loss_changes":[7.2352977E0,5.570137E0,2.511939E0,2.632091E0,1.6004194E0,1.371859E0,1.1263657E0,1.7146816E0,1.6436998E0,8.5273445E-1,0E0,0E0,6.363578E-1,8.1988525E-1,0E0,1.02799416E-1,0E0,1.7001902E0,1.4219563E0,6.542601E-1,1.2707431E0,3.013299E-1,4.4035876E-1,1.7350891E0,0E0,0E0,0E0,4.6155596E0,1.8829495E0,1.5882664E0,6.397752E-1,0E0,0E0,0E0,0E0,0E0,0E0,0E0,0E0,6.255989E-1,0E0,0E0,0E0,0E0,0E0,0E0,0E0,0E0,0E0,0E0,0E0],"parents":[2147483647,0,0,1,1,2,2,3,3,4,4,5,5,6,6,7,7,8,8,9,9,12,12,13,13,15,15,17,17,18,18,19,19,20,20,21,21,22,22,23,23,27,27,28,28,29,29,30,30,39,39],"right_children":[2,4,6,8,10,12,14,16,18,20,-1,-1,22,24,-1,26,-1,28,30,32,34,36,38,40,-1,-1,-1,42,44,46,48,-1,-1,-1,-1,-1,-1,-1,-1,50,-1,-1,-1,-1,-1,-1,-1,-1,-1,-1,-1],"split_conditions":[1.3E2,6.6E-1,2.89E1,2.97E1,3E0,2.7E1,1.441E0,7E0,3.7E1,7.4E1,3.5656504E-2,-3.226581E-2,1.4E1,1.66E2,-0E0,3.5E1,-0E0,3.41E1,1.65E2,3.26E1,3.07E1,2.43E1,4.8E1,1.64E2,4.9301174E-2,-4.9881957E-2,-0E0,1.12E2,3.74E1,4.95E-1,2.9E1,-0E0,-3.315472E-2,-5.116278E-4,3.598338E-2,4.6168603E-3,-1.676208E-2,3.6714148E-2,-0E0,3.1E1,-1.5073785E-2,-6.315373E-3,6.148935E-2,-3.2897476E-2,6.516323E-3,-4.081955E-2,-0E0,-1.0841471E-2,2.1816947E-2,4.181622E-3,3.336608E-2],"split_indices":[1,4,3,3,0,5,4,0,2,2,0,0,2,1,0,5,0,3,2,3,3,3,5,1,0,0,0,1,3,4,5,0,0,0,0,0,0,0,0,5,0,0,0,0,0,0,0,0,0,0,0],"split_type":[0,0,0,0,0,0,0,0,0,0,0,0,0,0,0,0,0,0,0,0,0,0,0,0,0,0,0,0,0,0,0,0,0,0,0,0,0,0,0,0,0,0,0,0,0,0,0,0,0,0,0],"sum_hessian":[9.2997986E1,5.611135E1,3.688663E1,4.2920567E1,1.3190787E1,7.5553455E0,2.9331285E1,1.308923E1,2.9831335E1,7.0697427E0,6.121044E0,2.2187772E0,5.336569E0,2.8108017E1,1.2232689E0,1.1128127E1,1.9611018E0,1.57653E1,1.4066035E1,3.1925697E0,3.8771732E0,2.779718E0,2.5568507E0,2.042179E1,7.686228E0,9.21549E0,1.9126368E0,7.421721E0,8.343579E0,1.0153343E1,3.912692E0,1.490559E0,1.7020106E0,1.3209717E0,2.5562015E0,1.0071852E0,1.7725328E0,1.4682755E0,1.0885751E0,1.9100235E1,1.3215544E0,4.1617875E0,3.2599337E0,4.444398E0,3.8991814E0,7.5070467E0,2.6462967E0,1.9838841E0,1.928808E0,8.639822E0,1.0460412E1],"tree_param":{"num_deleted":"0","num_feature":"6","num_nodes":"51","size_leaf_vector":"1"}},{"base_weights":[-0E0,-3.9152542E-1,2.2859557E-1,-5.608216E-1,3.775236E-2,-3.9338693E-1,3.3447787E-1,-6.6219854E-1,-0E0,-2.5665194E-1,3.6425468E-2,-3.295538E-2,-0E0,2.017546E-1,8.001983E-1,-7.3455644E-1,-0E0,-1.3237996E-2,2.0882867E-2,-0E0,-2.7292313E-2,7.7717036E-2,6.3997865E-1,4.7443163E-2,-0E0,-0E0,-7.95344E-1,1.3651497E-2,-1.999528E-2,2.435759E-2,-0E0,2.5184116E-1,-2.521731E-1,-0E0,4.255416E-2,-4.5655448E-2,-0E0,-0E0,-1.150731E-2,1.4634437E-3,2.9824017E-2,-2.6761277E-2,-0E0],"categories":[],"categories_nodes":[],"categories_segments":[],"categories_sizes":[],"default_left":[0,0,0,0,0,0,0,0,0,0,0,0,0,0,0,0,0,0,0,0,0,0,0,0,0,0,0,0,0,0,0,0,0,0,0,0,0,0,0,0,0,0,0],"id":29,"left_children":[1,3,5,7,9,11,13,15,17,19,-1,-1,-1,21,23,25,27,-1,29,-1,-1,31,33,-1,-1,-1,35,-1,-1,-1,37,39,41,-1,-1,-1,-1,-1,-1,-1,-1,-1,-1],"loss_changes":[7.809785E0,2.8537087E0,3.7759562E0,1.0850859E0,2.2231176E0,1.1125164E0,1.9251323E0,6.210823E-1,1.4280763E-1,6.3980854E-1,0E0,0E0,0E0,1.5097164E0,7.1769524E-1,1.3844585E-1,5.1741356E-1,0E0,4.721247E-1,0E0,0E0,2.106267E0,4.4818735E-1,0E0,0E0,0E0,2.4974251E-1,0E0,0E0,0E0,1.0106051E-1,1.2258915E0,1.1586258E0,0E0,0E0,0E0,0E0,0E0,0E0,0E0,0E0,0E0,0E0],"parents":[2147483647,0,0,1,1,2,2,3,3,4,4,5,5,6,6,7,7,8,8,9,9,13,13,14,14,15,15,16,16,18,18,21,21,22,22,26,26,30,30,31,31,32,32],"right_children":[2,4,6,8,10,12,14,16,18,20,-1,-1,-1,22,24,26,28,-1,30,-1,-1,32,34,-1,-1,-1,36,-1,-1,-1,38,40,42,-1,-1,-1,-1,-1,-1,-1,-1,-1,-1],"split_conditions":[1.12E2,6.3E-1,2.64E1,4.3E1,3E0,1.52E2,1.67E2,7E0,2.05E-1,7.61E-1,3.6425468E-2,-3.295538E-2,-0E0,4.15E1,1.159E0,1E0,3.01E1,-1.3237996E-2,4.7E1,-0E0,-2.7292313E-2,3.47E1,2.7E1,4.7443163E-2,-0E0,-0E0,8.7E1,1.3651497E-2,-1.999528E-2,2.435759E-2,7E0,5.29E-1,3.5E1,-0E0,4.255416E-2,-4.5655448E-2,-0E0,-0E0,-1.150731E-2,1.4634437E-3,2.9824017E-2,-2.6761277E-2,-0E0],"split_indices":[1,4,3,5,0,1,1,0,4,4,0,0,0,3,4,0,3,0,5,0,0,3,5,0,0,0,2,0,0,0,0,4,5,0,0,0,0,0,0,0,0,0,0],"split_type":[0,0,0,0,0,0,0,0,0,0,0,0,0,0,0,0,0,0,0,0,0,0,0,0,0,0,0,0,0,0,0,0,0,0,0,0,0,0,0,0,0,0,0],"sum_hessian":[8.601026E1,3.0777973E1,5.523229E1,2.3523836E1,7.2541356E0,6.2657466E0,4.896654E1,1.9064325E1,4.459512E0,4.390317E0,2.8638191E0,4.61704E0,1.6487064E0,4.089306E1,8.07348E0,1.6457182E1,2.607143E0,1.1934247E0,3.2660875E0,1.7478446E0,2.6424723E0,3.456801E1,6.325053E0,6.9089203E0,1.1645601E0,2.3476427E0,1.4109539E1,1.0188419E0,1.5883012E0,1.1787467E0,2.0873408E0,2.4764565E1,9.803442E0,2.1318495E0,4.193204E0,1.1831839E1,2.2777002E0,1.0059936E0,1.0813472E0,1.7039167E1,7.725398E0,6.028163E0,3.7752788E0],"tree_param":{"num_deleted":"0","num_feature":"6","num_nodes":"43","size_leaf_vector":"1"}},{"base_weights":[1.2066811E-3,-5.216616E-1,1.7221712E-1,-7.0638573E-1,1.3014777E-2,3.4395486E-2,9.419936E-1,-7.83533E-1,-0E0,1.9727115E-2,-0E0,-3.81502E-2,4.5329255E-1,5.571804E-2,-0E0,-8.9555717E-1,-0E0,-1.7862337E-2,4.0252173E-5,-6.2612253E-1,3.875118E-2,6.6522175E-1,-0E0,-4.8960887E-2,-0E0,-1.2697515E-2,3.1920786E-3,-0E0,-6.912116E-1,2.4275188E-1,-1.6659962E-1,4.2383634E-2,-0E0,-8.735955E-3,1.827521E-3,-3.974954E-2,-0E0,2.3072192E-2,-0E0,-2.8047966E-2,8.3122235E-3],"categories":[],"categories_nodes":[],"categories_segments":[],"categories_sizes":[],"default_left":[0,0,0,0,0,0,0,0,0,0,0,0,0,0,0,0,0,0,0,0,0,0,0,0,0,0,0,0,0,0,0,0,0,0,0,0,0,0,0,0,0],"id":30,"left_children":[1,3,5,7,9,11,13,15,-1,-1,17,19,21,-1,-1,23,25,-1,-1,27,29,31,33,-1,-1,-1,-1,-1,35,37,39,-1,-1,-1,-1,-1,-1,-1,-1,-1,-1],"loss_changes":[7.792791E0,2.7768536E0,6.4233465E0,1.2797441E0,3.3226365E-1,2.3030596E0,1.0135765E0,1.0239305E0,0E0,0E0,2.8002647E-1,2.9337614E0,1.2765934E0,0E0,0E0,8.973408E-2,1.420482E-1,0E0,0E0,1.1351156E-1,1.9956082E0,1.0734925E0,6.985888E-2,0E0,0E0,0E0,0E0,0E0,6.2873363E-3,1.5754366E0,2.9380226E0,0E0,0E0,0E0,0E0,0E0,0E0,0E0,0E0,0E0,0E0],"parents":[2147483647,0,0,1,1,2,2,3,3,4,4,5,5,6,6,7,7,10,10,11,11,12,12,15,15,16,16,19,19,20,20,21,21,22,22,28,28,29,29,30,30],"right_children":[2,4,6,8,10,12,14,16,-1,-1,18,20,22,-1,-1,24,26,-1,-1,28,30,32,34,-1,-1,-1,-1,-1,36,38,40,-1,-1,-1,-1,-1,-1,-1,-1,-1,-1],"split_conditions":[1.04E2,8.7E1,4.18E1,1.057E0,1E2,1.6E2,2.55E2,1E2,-0E0,1.9727115E-2,1.42E2,2.63E1,4.8E1,5.571804E-2,-0E0,4.8E1,3E1,-1.7862337E-2,4.0252173E-5,1.09E2,3.38E1,1.9E2,1.67E2,-4.8960887E-2,-0E0,-1.2697515E-2,3.1920786E-3,-0E0,4.7E1,1.35E2,3.2E1,4.2383634E-2,-0E0,-8.735955E-3,1.827521E-3,-3.974954E-2,-0E0,2.3072192E-2,-0E0,-2.8047966E-2,8.3122235E-3],"split_indices":[1,2,3,4,2,1,2,1,0,0,2,3,5,0,0,5,5,0,0,1,3,1,1,0,0,0,0,0,5,1,5,0,0,0,0,0,0,0,0,0,0],"split_type":[0,0,0,0,0,0,0,0,0,0,0,0,0,0,0,0,0,0,0,0,0,0,0,0,0,0,0,0,0,0,0,0,0,0,0,0,0,0,0,0,0],"sum_hessian":[8.9055504E1,2.0001722E1,6.905378E1,1.6017141E1,3.9845824E0,6.05556E1,8.49818E0,1.4915603E1,1.1015384E0,1.334364E0,2.6502185E0,5.0356445E1,1.0199155E1,7.2941937E0,1.2039868E0,1.2459595E1,2.4560077E0,1.3934877E0,1.2567308E0,6.5023766E0,4.385407E1,7.084901E0,3.114254E0,1.1383004E1,1.0765909E0,1.2642343E0,1.1917734E0,1.1088367E0,5.3935394E0,2.4350874E1,1.9503195E1,6.061248E0,1.0236531E0,1.376577E0,1.737677E0,4.283271E0,1.1102686E0,1.4724464E1,9.6264105E0,1.0258015E1,9.24518E0],"tree_param":{"num_deleted":"0","num_feature":"6","num_nodes":"41","size_leaf_vector":"1"}},{"base_weights":[-0E0,-1.6416578E-1,6.1538047E-1,-4.3607265E-2,-9.869903E-3,7.3370016E-1,-0E0,-1.0756302E-1,5.3883797E-1,8.2271457E-1,-0E0,-1.0386816E-2,1.0742052E-2,-1.830633E-1,3.826911E-2,8.106757E-1,-0E0,9.396461E-1,-0E0,-3.5381624E-1,1.684656E-1,5.442702E-2,-0E0,-0E0,5.422918E-2,-4.7864346E-4,1.7431898E-2,-0E0,-3.2153953E-2,-0E0,3.6191814E-2],"categories":[],"categories_nodes":[],"categories_segments":[],"categories_sizes":[],"default_left":[0,0,0,0,0,0,0,0,0,0,0,0,0,0,0,0,0,0,0,0,0,0,0,0,0,0,0,0,0,0,0],"id":31,"left_children":[1,3,5,-1,7,9,11,13,15,17,-1,-1,-1,19,-1,21,-1,23,25,27,29,-1,-1,-1,-1,-1,-1,-1,-1,-1,-1],"loss_changes":[8.952894E0,6.801172E0,1.3908424E0,0E0,2.9685764E0,6.9376945E-1,1.9859804E-1,3.0932004E0,1.9697092E0,6.552992E-1,0E0,0E0,0E0,3.4043283E0,0E0,1.0921283E0,0E0,8.7267303E-1,2.3111844E-1,3.1149197E0,2.0343094E0,0E0,0E0,0E0,0E0,0E0,0E0,0E0,0E0,0E0,0E0],"parents":[2147483647,0,0,1,1,2,2,4,4,5,5,6,6,7,7,8,8,9,9,13,13,15,15,17,17,18,18,19,19,20,20],"right_children":[2,4,6,-1,8,10,12,14,16,18,-1,-1,-1,20,-1,22,-1,24,26,28,30,-1,-1,-1,-1,-1,-1,-1,-1,-1,-1],"split_conditions":[1.56E2,2.7E1,5.4E1,-4.3607265E-2,8.51E-1,3.3E2,1.8E2,4.56E1,3.92E1,4.4E1,-0E0,-1.0386816E-2,1.0742052E-2,4.1E1,3.826911E-2,3.9E1,-0E0,2.85E1,5.1E1,1.4E1,1.06E2,5.442702E-2,-0E0,-0E0,5.422918E-2,-4.7864346E-4,1.7431898E-2,-0E0,-3.2153953E-2,-0E0,3.6191814E-2],"split_indices":[1,3,5,0,4,2,1,3,3,5,0,0,0,5,0,5,0,3,5,2,2,0,0,0,0,0,0,0,0,0,0],"split_type":[0,0,0,0,0,0,0,0,0,0,0,0,0,0,0,0,0,0,0,0,0,0,0,0,0,0,0,0,0,0,0],"sum_hessian":[9.032521E1,7.2946175E1,1.7379038E1,1.1603235E1,6.1342937E1,1.451293E1,2.8661087E0,5.430143E1,7.041508E0,1.2362642E1,2.150288E0,1.6512692E0,1.2148395E0,5.163463E1,2.6668026E0,5.549855E0,1.4916532E0,9.986006E0,2.3766363E0,3.6663685E1,1.4970943E1,3.9682875E0,1.5815675E0,1.1814857E0,8.80452E0,1.3041481E0,1.0724881E0,1.7010014E1,1.9653671E1,1.07917E1,4.179243E0],"tree_param":{"num_deleted":"0","num_feature":"6","num_nodes":"31","size_leaf_vector":"1"}},{"base_weights":[-2.9554583E-2,-1.5972587E-1,4.626523E-2,-6.795586E-1,-0E0,-8.056361E-1,-0E0,-6.12279E-1,1.08848535E-1,-4.817342E-2,-8.630856E-2,-6.55746E-1,-0E0,-5.101893E-1,1.9950655E-1,-2.6510773E-2,9.5027447E-4,-0E0,-3.717396E-2,-3.524536E-2,-0E0,3.884378E-2,4.9627715E-1,1.7471833E-2,-7.529721E-3,3.282538E-2,-4.0306253E-3],"categories":[],"categories_nodes":[],"categories_segments":[],"categories_sizes":[],"default_left":[0,0,0,0,0,0,0,0,0,0,0,0,0,0,0,0,0,0,0,0,0,0,0,0,0,0,0],"id":32,"left_children":[1,3,-1,5,7,9,-1,11,13,-1,15,17,-1,19,21,-1,-1,-1,-1,-1,-1,23,25,-1,-1,-1,-1],"loss_changes":[1.0060299E1,7.05803E0,0E0,1.7965832E0,3.8451645E0,3.2244587E-1,0E0,3.4733534E-2,2.807464E0,0E0,7.032173E-1,5.0856113E-2,0E0,5.725148E-1,1.782388E0,0E0,0E0,0E0,0E0,0E0,0E0,2.1366794E0,1.7335205E0,0E0,0E0,0E0,0E0],"parents":[2147483647,0,0,1,1,3,3,4,4,5,5,7,7,8,8,10,10,11,11,13,13,14,14,21,21,22,22],"right_children":[2,4,-1,6,8,10,-1,12,14,-1,16,18,-1,20,22,-1,-1,-1,-1,-1,-1,24,26,-1,-1,-1,-1],"split_conditions":[1.66E2,2.5E1,4.626523E-2,4.01E1,9.5E1,3E0,-0E0,7.3E1,2.63E1,-4.817342E-2,2.99E-1,6.7E1,-0E0,1.3E2,7E0,-2.6510773E-2,9.5027447E-4,-0E0,-3.717396E-2,-3.524536E-2,-0E0,3.35E1,5.5E1,1.7471833E-2,-7.529721E-3,3.282538E-2,-4.0306253E-3],"split_indices":[1,5,0,3,1,0,0,2,3,0,4,1,0,1,0,0,0,0,0,0,0,3,5,0,0,0,0],"split_type":[0,0,0,0,0,0,0,0,0,0,0,0,0,0,0,0,0,0,0,0,0,0,0,0,0,0,0],"sum_hessian":[8.832631E1,7.9009865E1,9.316441E0,1.8703926E1,6.030594E1,1.5787397E1,2.9165282E0,7.558243E0,5.2747696E1,1.2142596E1,3.6448011E0,6.5420327E0,1.0162101E0,4.7379026E0,4.8009796E1,1.8593773E0,1.785424E0,1.0414811E0,5.500551E0,3.5357375E0,1.202165E0,3.406728E1,1.3942515E1,1.4796341E1,1.9270939E1,1.2667817E1,1.2746983E0],"tree_param":{"num_deleted":"0","num_feature":"6","num_nodes":"27","size_leaf_vector":"1"}},{"base_weights":[-3.3889342E-2,-7.015274E-1,7.2186895E-2,-8.6051935E-1,-0E0,-4.305501E-1,2.222597E-1,-4.821988E-2,-0E0,2.3707836E-3,-0E0,-5.4662395E-1,-0E0,7.5389445E-2,8.539113E-1,-6.807821E-1,-0E0,8.668894E-3,-0E0,-1.5568332E-1,2.5945777E-1,-0E0,5.063994E-2,-0E0,-7.715456E-1,-2.4642323E-3,3.2908062E-3,-2.6582736E-1,1.1898832E-2,-0E0,4.371521E-1,-6.5110414E-3,-0E0,-0E0,-4.3878924E-2,-0E0,-1.7676033E-2,8.155558E-3,-1.2851834E-2,2.9520247E-2,-1.8039757E-2],"categories":[],"categories_nodes":[],"categories_segments":[],"categories_sizes":[],"default_left":[0,0,0,0,0,0,0,0,0,0,0,0,0,0,0,0,0,0,0,0,0,0,0,0,0,0,0,0,0,0,0,0,0,0,0,0,0,0,0,0,0],"id":33,"left_children":[1,3,5,7,9,11,13,-1,-1,-1,-1,15,17,19,21,23,25,-1,-1,27,29,-1,-1,31,33,-1,-1,35,-1,37,39,-1,-1,-1,-1,-1,-1,-1,-1,-1,-1],"loss_changes":[6.791345E0,1.5621247E0,5.4763055E0,3.4733295E-1,4.493803E-3,1.1768148E0,4.5019765E0,0E0,0E0,0E0,0E0,1.0109186E0,5.6075376E-2,2.2897434E0,9.7736835E-1,1.9144773E-1,1.4038328E-2,0E0,0E0,9.68041E-1,1.4191208E0,0E0,0E0,3.2889448E-2,2.4916124E-1,0E0,0E0,4.9609566E-1,0E0,5.589896E-1,2.2498672E0,0E0,0E0,0E0,0E0,0E0,0E0,0E0,0E0,0E0,0E0],"parents":[2147483647,0,0,1,1,2,2,3,3,4,4,5,5,6,6,11,11,12,12,13,13,14,14,15,15,16,16,19,19,20,20,23,23,24,24,27,27,29,29,30,30],"right_children":[2,4,6,8,10,12,14,-1,-1,-1,-1,16,18,20,22,24,26,-1,-1,28,30,-1,-1,32,34,-1,-1,36,-1,38,40,-1,-1,-1,-1,-1,-1,-1,-1,-1,-1],"split_conditions":[2.68E1,1.52E2,1.04E2,2.63E1,2.56E1,4.6E1,8E0,-4.821988E-2,-0E0,2.3707836E-3,-0E0,8.8E1,1.4E1,3.23E-1,2.78E1,3.01E1,6.05E-1,8.668894E-3,-0E0,4.18E1,1.28E2,-0E0,5.063994E-2,3.2E1,1.63E-1,-2.4642323E-3,3.2908062E-3,1E0,1.1898832E-2,1.2E2,3.7E2,-6.5110414E-3,-0E0,-0E0,-4.3878924E-2,-0E0,-1.7676033E-2,8.155558E-3,-1.2851834E-2,2.9520247E-2,-1.8039757E-2],"split_indices":[3,1,1,3,3,5,0,0,0,0,0,2,2,4,3,3,4,0,0,3,1,0,0,5,4,0,0,0,0,1,2,0,0,0,0,0,0,0,0,0,0],"split_type":[0,0,0,0,0,0,0,0,0,0,0,0,0,0,0,0,0,0,0,0,0,0,0,0,0,0,0,0,0,0,0,0,0,0,0,0,0,0,0,0,0],"sum_hessian":[8.529367E1,1.2216629E1,7.307704E1,9.8935E0,2.3231292E0,1.4838011E1,5.823903E1,8.868605E0,1.0248957E0,1.1804235E0,1.1427057E0,1.2764363E1,2.0736482E0,4.9444748E1,8.794282E0,1.0055177E1,2.709186E0,1.0349582E0,1.03869E0,1.9582733E1,2.9862015E1,1.1599749E0,7.634307E0,2.126431E0,7.928746E0,1.6724834E0,1.0367025E0,1.7477684E1,2.105049E0,1.2564449E1,1.7297565E1,1.1157598E0,1.0106711E0,1.0472547E0,6.8814917E0,2.7505674E0,1.4727117E1,7.9314966E0,4.632952E0,1.6200623E1,1.0969428E0],"tree_param":{"num_deleted":"0","num_feature":"6","num_nodes":"41","size_leaf_vector":"1"}},{"base_weights":[3.4979675E-2,-3.5008186E-1,2.3851833E-1,-4.575231E-2,-1.3460839E-1,-1.4372152E-1,3.463833E-1,-3.062256E-1,2.5580102E-1,-4.0588092E-2,2.4571532E-1,4.121362E-1,-2.5534132E-1,1.2121248E-2,-4.1363764E-1,-7.976916E-3,7.3064166E-1,4.3880126E-1,-0E0,-6.579531E-3,4.4958243E-1,-2.9841784E-2,-0E0,-7.359952E-1,-0E0,4.9492795E-2,-0E0,-0E0,2.8954973E-2,7.062395E-1,2.500872E-1,-4.6294324E-2,-0E0,-1.3454162E-2,1.1194179E-2,4.678992E-2,4.2327615E-3,1.4446505E-3,3.509599E-2],"categories":[],"categories_nodes":[],"categories_segments":[],"categories_sizes":[],"default_left":[0,0,0,0,0,0,0,0,0,0,0,0,0,0,0,0,0,0,0,0,0,0,0,0,0,0,0,0,0,0,0,0,0,0,0,0,0,0,0],"id":34,"left_children":[1,3,5,-1,7,9,11,13,15,-1,17,19,21,-1,23,-1,25,27,-1,-1,29,-1,-1,31,33,-1,-1,-1,-1,35,37,-1,-1,-1,-1,-1,-1,-1,-1],"loss_changes":[6.914256E0,2.19652E0,2.736222E0,0E0,1.6926885E0,3.6643798E0,2.2132597E0,1.3443131E0,1.8327442E0,0E0,7.3867214E-1,1.3140125E0,6.450218E-1,0E0,1.7642562E0,0E0,5.249829E-1,3.2383144E-1,0E0,0E0,1.1855202E0,0E0,0E0,1.1788812E0,6.1556935E-1,0E0,0E0,0E0,0E0,9.7436523E-1,2.0239525E0,0E0,0E0,0E0,0E0,0E0,0E0,0E0,0E0],"parents":[2147483647,0,0,1,1,2,2,4,4,5,5,6,6,7,7,8,8,10,10,11,11,12,12,14,14,16,16,17,17,20,20,23,23,24,24,29,29,30,30],"right_children":[2,4,6,-1,8,10,12,14,16,-1,18,20,22,-1,24,-1,26,28,-1,-1,30,-1,-1,32,34,-1,-1,-1,-1,36,38,-1,-1,-1,-1,-1,-1,-1,-1],"split_conditions":[1.11E2,2.3E-1,2.5E1,-4.575231E-2,7E0,3.19E1,6.1E1,2.51E-1,9.6E1,-4.0588092E-2,2.55E2,2.32E1,2.99E1,1.2121248E-2,5.01E-1,-7.976916E-3,4.4E1,2.62E-1,-0E0,-6.579531E-3,3.24E1,-2.9841784E-2,-0E0,4E1,3E0,4.9492795E-2,-0E0,-0E0,2.8954973E-2,4.53E-1,4.18E1,-4.6294324E-2,-0E0,-1.3454162E-2,1.1194179E-2,4.678992E-2,4.2327615E-3,1.4446505E-3,3.509599E-2],"split_indices":[1,4,5,0,0,3,5,4,1,0,2,3,3,0,4,0,5,4,0,0,3,0,0,5,0,0,0,0,0,4,3,0,0,0,0,0,0,0,0],"split_type":[0,0,0,0,0,0,0,0,0,0,0,0,0,0,0,0,0,0,0,0,0,0,0,0,0,0,0,0,0,0,0,0,0,0,0,0,0,0,0],"sum_hessian":[8.757834E1,2.833678E1,5.9241558E1,5.9948645E0,2.2341917E1,1.0924669E1,4.831689E1,1.7448778E1,4.8931375E0,4.757576E0,6.1670938E0,4.533943E1,2.977459E0,1.1606907E0,1.6288088E1,1.862767E0,3.0303705E0,5.083686E0,1.0834079E0,1.0585023E0,4.428093E1,1.7694733E0,1.2079856E0,7.7175155E0,8.570573E0,1.9798969E0,1.0504736E0,1.2199427E0,3.863743E0,1.6062813E1,2.8218117E1,6.5090566E0,1.2084585E0,5.357826E0,3.2127466E0,1.0763533E1,5.299279E0,2.0727669E1,7.4904485E0],"tree_param":{"num_deleted":"0","num_feature":"6","num_nodes":"39","size_leaf_vector":"1"}},{"base_weights":[-0E0,-4.4739345E-1,1.3608757E-1,-5.900077E-1,-0E0,-1.1238392E-1,3.3986667E-1,-6.5677947E-1,-0E0,-1.5469046E-2,2.1864222E-2,-4.4625366E-1,-0E0,-2.349293E-2,4.819398E-1,-4.2469222E-2,-0E0,-0E0,-5.779513E-1,-2.2915298E-1,1.6089657E-1,1.3241159E-2,-2.5043723E-1,2.8166786E-1,4.587619E-2,-6.6598714E-3,2.508168E-3,-0E0,-7.36669E-1,-5.848058E-1,6.966805E-2,3.3224348E-2,-0E0,-0E0,-4.1087648E-1,3.847906E-1,-2.1614637E-2,-4.6223283E-2,-0E0,-3.9307572E-2,-0E0,2.5839578E-2,-0E0,4.4694794E-3,-2.373603E-2,-2.8895507E-2,-0E0,-0E0,3.0983195E-2],"categories":[],"categories_nodes":[],"categories_segments":[],"categories_sizes":[],"default_left":[0,0,0,0,0,0,0,0,0,0,0,0,0,0,0,0,0,0,0,0,0,0,0,0,0,0,0,0,0,0,0,0,0,0,0,0,0,0,0,0,0,0,0,0,0,0,0,0,0],"id":35,"left_children":[1,3,5,7,9,11,13,15,-1,-1,-1,17,19,21,23,-1,25,-1,27,29,31,-1,33,35,-1,-1,-1,-1,37,39,41,-1,43,-1,45,47,-1,-1,-1,-1,-1,-1,-1,-1,-1,-1,-1,-1,-1],"loss_changes":[5.0698957E0,1.6286712E0,3.574245E0,8.065119E-1,7.668637E-1,1.3229985E0,2.4500628E0,1.4036331E0,0E0,0E0,0E0,7.142738E-1,7.533492E-1,6.7389476E-1,9.4331837E-1,0E0,3.971798E-2,0E0,5.749445E-1,1.3345914E0,1.2467717E0,0E0,6.1760885E-1,1.7667383E0,0E0,0E0,0E0,0E0,4.4732404E-1,2.2720039E-1,5.110141E-1,0E0,5.679837E-1,0E0,3.9072216E-1,1.2609463E0,0E0,0E0,0E0,0E0,0E0,0E0,0E0,0E0,0E0,0E0,0E0,0E0,0E0],"parents":[2147483647,0,0,1,1,2,2,3,3,4,4,5,5,6,6,7,7,11,11,12,12,13,13,14,14,16,16,18,18,19,19,20,20,22,22,23,23,28,28,29,29,30,30,32,32,34,34,35,35],"right_children":[2,4,6,8,10,12,14,16,-1,-1,-1,18,20,22,24,-1,26,-1,28,30,32,-1,34,36,-1,-1,-1,-1,38,40,42,-1,44,-1,46,48,-1,-1,-1,-1,-1,-1,-1,-1,-1,-1,-1,-1,-1],"split_conditions":[1.04E2,8.9E1,3.14E-1,9.32E-1,3.21E1,2.8E1,2.99E1,4.2E1,-0E0,-1.5469046E-2,2.1864222E-2,1.42E-1,2.03E-1,3.7E-1,7E0,-4.2469222E-2,2.93E-1,-0E0,1.14E2,1.44E2,3.3E1,1.3241159E-2,2.35E1,6E0,4.587619E-2,-6.6598714E-3,2.508168E-3,-0E0,2.71E2,6E0,7E0,3.3224348E-2,2.89E-1,-0E0,4.1E1,1.28E2,-2.1614637E-2,-4.6223283E-2,-0E0,-3.9307572E-2,-0E0,2.5839578E-2,-0E0,4.4694794E-3,-2.373603E-2,-2.8895507E-2,-0E0,-0E0,3.0983195E-2],"split_indices":[1,2,4,4,3,5,3,5,0,0,0,4,4,4,0,0,4,0,1,1,5,0,3,0,0,0,0,0,2,0,0,0,4,0,5,1,0,0,0,0,0,0,0,0,0,0,0,0,0],"split_type":[0,0,0,0,0,0,0,0,0,0,0,0,0,0,0,0,0,0,0,0,0,0,0,0,0,0,0,0,0,0,0,0,0,0,0,0,0,0,0,0,0,0,0,0,0,0,0,0,0],"sum_hessian":[8.262689E1,1.8283195E1,6.43437E1,1.4766356E1,3.5168393E0,2.6983484E1,3.7360214E1,1.359323E1,1.1731265E0,1.286602E0,2.2302372E0,7.418271E0,1.9565214E1,8.757767E0,2.8602448E1,1.0640495E1,2.9527342E0,1.261057E0,6.1572137E0,6.327219E0,1.3237995E1,1.9066112E0,6.8511558E0,2.1816298E1,6.786151E0,1.0271692E0,1.9255651E0,1.6923988E0,4.464815E0,3.9798706E0,2.3473482E0,2.990867E0,1.02471285E1,1.2759427E0,5.5752134E0,2.064064E1,1.1756557E0,3.3563461E0,1.108469E0,2.407095E0,1.5727756E0,1.1536018E0,1.1937463E0,8.846914E0,1.4002138E0,3.90182E0,1.6733934E0,8.955548E0,1.1685093E1],"tree_param":{"num_deleted":"0","num_feature":"6","num_nodes":"49","size_leaf_vector":"1"}},{"base_weights":[1.965218E-2,-2.734407E-1,1.9960876E-1,-4.6218735E-1,1.2114877E-1,-4.8031524E-2,3.4071028E-1,-6.5143603E-1,-0E0,-1.0800095E-1,2.8027352E-2,-3.2513652E-2,1.3433363E-1,4.1888887E-1,-2.387949E-1,-4.816076E-2,-0E0,-1.2859227E-2,4.03856E-1,-0E0,-2.2058742E-2,3.7442875E-1,-1.8260635E-2,1.5828758E-1,6.6207844E-1,-2.6887288E-2,-0E0,1.065078E-2,-1.5259315E-1,-0E0,5.0096776E-2,-0E0,2.9722543E-3,2.8871853E-2,-0E0,4.0272954E-1,-3.33123E-1,8.2249594E-1,-0E0,-0E0,-2.661786E-2,-3.31583E-4,-0E0,-6.7479117E-3,2.8247405E-2,-3.880987E-2,-0E0,5.399156E-3,5.2948866E-2,-1.2136487E-2,2.2621939E-2],"categories":[],"categories_nodes":[],"categories_segments":[],"categories_sizes":[],"default_left":[0,0,0,0,0,0,0,0,0,0,0,0,0,0,0,0,0,0,0,0,0,0,0,0,0,0,0,0,0,0,0,0,0,0,